tree
version=v4
num_class=1
num_tree_per_iteration=1
label_index=0
max_feature_idx=27
objective=quantile
feature_names=session_median_price sire_sold_count_36m sire_total_offered_36m sire_clearance_rate_36m sire_median_price_36m sire_sold_count_12m sire_total_offered_12m sire_clearance_rate_12m sire_median_price_12m sire_momentum dam_progeny_sold_count dam_progeny_total_offered_count dam_progeny_median_price vendor_sold_count_36m vendor_total_offered_36m vendor_clearance_rate_36m vendor_median_price_36m log_session_median_price log_sire_median_price_36m log_sire_median_price_12m log_dam_progeny_median_price log_vendor_median_price_36m sex_encoded vendor_volume_bucket_encoded sale_company_encoded sire_sample_flag_36m dam_first_foal_flag vendor_first_seen_flag
feature_infos=[7250:300000] [0:317] [0:354] [0:100] [0:1112500] [0:132] [0:142] [0:100] [0:1112500] [-715000:350000] [0:10] [0:11] [0:2800000] [0:492] [0:537] [0:100] [0:625000] [8.8888946693715933:12.611541086966115] [0:13.922121191898533] [0:13.922121191898533] [0:14.845130332288226] [0:13.345508528717259] [1:7] [0:3] [0:1] [0:1] [0:1] [0:1]
tree_sizes=2872 2886 2874 2886 2874 2877 2876 2879 2890 2884 2901 2894 2890 2901 2874 2898 2901 2885 2891 2882 2892 2871 2889 2874 2890 2893 2872 2879 2892 2847 2882 2895 2900 2862 2895 2876 2900 2864 2895 2926 2890 2877 2861 2892 2856 2891 2866 2890 2864 2899 2893 2873 2871 2870 2880 2864 2894 2871 2884 2907 2843 2863 2862 2867 2874 2852 2844 2820 2853 2873 2870 2910 2881 2874 2864 2846 2883 2889 2884 2826 2864 2854 2836 2836 2878 2870 2887 2867 2867 2863 2858 2840 2878 2887 2864 2851 2821 2852 2832 2855 2851 2826 2890 2803 2844 2852 2853 2850 2840 2830 2832 2822 2798 2808 2822 2819 2820 2843 2861 2847 2814 2846 2815 2825 2822 2873 2857 2905 2845 2792 2837 2812 2817 2819 2835 2876 2832 2836 2850 2850 2870 2845 2816 2817 2837 2841 2850 2838 2850 2860 2845 2892 2860 2837 2817 2854 2852 2864 2849 2855 2824 2796 2819 2832 2794 2843 2871 2857 2827 2856 2854 2842 2886 2893 2864 2889 2846 2821 2809 2834 2797 2832 2836 2842 2830 2799 2811 2840 2806 2818 2860 2849 2847 2834 2815 2846 2845 2878 2849 2824 2822 2853 2889 2825 2814 2835 2816 2841 2843 2821 2856 2841 2811 2837 2837 2855 2849 2854 2849 2883 2856 2826 2813 2828 2843 2804 2821 2826 2840 2820 2854 2822 2807 2828 2853 2838 2866 2830 2866 2841 2815 2815 2816 2834 2864 2833 2874 2841 2895 2829 2790 2831 2820 2825 2843 2830 2842 2823 2837 2841 2849 2808 2831 2827 2797 2841 2862 2856 2828 2833 2828 2842 2861

Tree=0
num_leaves=31
num_cat=0
split_feature=19 19 17 19 1 17 17 16 16 19 3 17 15 2 17 13 16 15 9 16 9 17 19 22 1 16 18 13 19 22
split_gain=160.552 51.5648 33.6495 22.9837 20.1549 19.2766 12.8385 13.7875 13.7303 7.72559 6.04176 5.78453 5.72991 5.52757 5.44253 6.80016 4.60021 4.47718 4.80708 4.40009 4.81654 4.33227 3.92048 3.77175 3.56381 3.4755 3.46781 4.01483 3.39765 3.37449
threshold=11.448308715547981 12.496834910111753 12.086632405657936 10.851754318576655 24.500000000000004 11.715666352321536 11.079190657187882 84375.000000000015 27625.000000000004 12.107614308427101 80.450000000000017 11.079190657187882 88.15000000000002 3.5000000000000004 10.426737891522196 72.500000000000014 78750.000000000015 92.050000000000011 14750.000000000002 78750.000000000015 -12874.999999999998 10.515402473857035 10.873326778149076 2.5000000000000004 224.50000000000003 29625.000000000004 10.809697134629038 61.500000000000007 12.260784772405461 2.5000000000000004
decision_type=2 2 2 2 2 2 2 2 2 2 2 2 2 2 2 2 2 2 2 2 2 2 2 2 2 2 2 2 2 2
left_child=3 2 4 6 13 14 8 -8 -1 17 -9 -6 23 -2 15 25 22 -4 -19 20 -13 26 -16 -10 -7 -5 27 -14 -15 -22
right_child=1 -3 9 5 11 24 7 10 12 -11 -12 19 21 28 16 -17 -18 18 -20 -21 29 -23 -24 -25 -26 -27 -28 -29 -30 -31
leaf_value=-0.020273254811763765 -0.025541281700134279 0.03465735912322998 -0.013596685230731965 -0.01115717738866806 0.029730036854743958 -0.027980789542198181 -0.032331359386444096 -0.0024395082145929337 -0.00054947268217802052 0.0062581568956375129 -0.02350018173456192 -0.010136627778410913 -0.0071550421416759491 0 0.01115717738866806 0.019499179720878602 0.0058891516178846363 -0.0069880969822406769 0.0097078010439872742 0.01783374696969986 0.01783374696969986 -0.0034162878990173342 -0.0058891516178846363 -0.013118213415145874 0.0032269261777400971 0.014384104311466217 0.029389333724975587 0.010044884681701661 0.031430432200431825 0.0030312310904264451
leaf_weight=994 65 884 458 143 722 255 923 545 544 264 320 106 131 400 25 274 469 274 94 1089 267 410 626 617 39 217 83 210 25 205
leaf_count=994 65 884 458 143 722 255 923 545 544 264 320 106 131 400 25 274 469 274 94 1089 267 410 626 617 39 217 83 210 25 205
internal_value=-0.00107467 0.00587781 0.00344545 -0.00601832 0.00627822 -0.00158691 -0.00791815 -0.0112696 -0.00591335 -0.0040367 -0.0067341 0.00817288 -0.0035213 -0.00295918 0.000399088 0.00410095 -0.00169643 -0.00641646 -0.00230978 0.00655369 0.00302768 -0.000359712 -0.00441628 -0.00579242 -0.0134354 -0.000416667 0.00318396 0.000953079 -0.000882353 0.00519068
internal_weight=11678 4853 3969 6825 2879 2048 4777 1788 2989 1090 865 2389 1995 490 1754 634 1120 826 368 1667 578 834 651 1161 294 360 424 341 425 472
internal_count=11678 4853 3969 6825 2879 2048 4777 1788 2989 1090 865 2389 1995 490 1754 634 1120 826 368 1667 578 834 651 1161 294 360 424 341 425 472
is_linear=0
shrinkage=0.05


Tree=1
num_leaves=31
num_cat=0
split_feature=8 8 0 0 21 21 1 8 8 8 3 8 0 2 3 15 6 9 1 13 8 0 21 8 0 4 12 15 13 0
split_gain=117.27 48.4522 29.9177 21.9776 23.0786 20.1635 18.7862 12.6523 6.60931 6.19209 5.56511 9.06071 6.38356 4.98789 5.89046 4.90965 4.44785 4.43657 3.95125 3.94784 3.77095 4.20718 3.86576 3.76495 3.73353 3.68858 3.31177 3.17678 3.23102 3.14436
threshold=93750.000000000015 267500.00000000006 180000.00000000003 65000.000000000007 10.226502400595612 11.038921814262956 24.500000000000004 49500.000000000007 38625.000000000007 181250.00000000003 77.250000000000014 56125.000000000007 220000.00000000003 178.50000000000003 93.350000000000009 92.050000000000011 51.500000000000007 -44499.999999999993 150.50000000000003 40.500000000000007 131250.00000000003 75000.000000000015 11.216853279597535 75500.000000000015 240000.00000000003 227500.00000000003 246250.00000000003 85.050000000000011 77.500000000000014 125000.00000000001
decision_type=2 2 2 2 2 2 2 2 2 2 2 2 2 2 2 2 2 2 2 2 2 2 2 2 2 2 2 2 2 2
left_child=3 2 6 4 8 23 25 17 -1 15 -7 16 -13 20 -15 26 18 -6 29 -17 21 -8 -23 -5 -21 -2 -4 28 -19 -12
right_child=1 -3 9 5 7 10 13 -9 -10 -11 11 12 -14 14 -16 19 -18 27 -20 24 -22 22 -24 -25 -26 -27 -28 -29 -30 -31
leaf_value=-0.020525482967495918 -0.0057032773271203045 0.032924491167068484 -0.015745368525385856 -0.033040791153907782 -0.055965208709239961 -0.0019668440613895655 0.016899736970663073 0.0091048356937244532 -0.0063821120001375676 0.0059452490508556371 -0.022325172647833826 0.00029445758089423184 -0.028108721226453783 0.022608494386076927 -0.043256579712033276 -0.016474207304418089 -0.006554594170302153 -0.0039901009248569609 0.0059405181556940086 0.010184919275343419 0.018786752969026568 -0.011661260202527047 0.010265490040183067 -0.011318523697555066 -0.0087666733190417297 0.029011372774839402 -0.00016770448535680766 0.00017081439495086672 -0.020245781177654864 -0.037985026370733976
leaf_weight=787 466 884 372 823 32 596 323 1100 431 264 328 501 68 1088 21 61 139 524 21 121 567 144 246 121 186 24 86 984 245 125
leaf_count=787 466 884 372 823 32 596 323 1100 431 264 328 501 68 1088 21 61 139 524 21 121 567 144 246 121 186 24 86 984 245 125
internal_value=0.000214078 0.00615599 0.00379819 -0.00401099 -0.00169998 -0.00749449 0.00646926 0.000736568 -0.00747126 -0.00325688 -0.00435883 -0.00634518 -0.00180141 0.00829845 0.0107529 -0.00538741 -0.0105628 -0.00186275 -0.0128692 -0.00108696 0.00617188 0.00375175 0.00025641 -0.0134004 0.0012215 -0.00244898 -0.00884279 -0.00152596 -0.00393368 -0.0138521
internal_weight=11678 4853 3969 6825 4103 2722 2879 2885 1218 1090 1778 1182 569 2389 1109 826 613 1785 474 368 1280 713 390 944 307 490 458 1753 769 453
internal_count=11678 4853 3969 6825 4103 2722 2879 2885 1218 1090 1778 1182 569 2389 1109 826 613 1785 474 368 1280 713 390 944 307 490 458 1753 769 453
is_linear=0
shrinkage=0.05


Tree=2
num_leaves=31
num_cat=0
split_feature=8 8 0 0 16 16 2 8 8 8 3 8 0 1 3 0 15 6 1 9 8 9 0 0 0 18 15 15 14 0
split_gain=123.938 45.347 32.0927 19.0716 19.1479 18.1985 12.0747 7.93143 6.19209 5.97134 5.64484 9.2302 6.38356 5.06029 5.67264 4.65662 4.60432 4.54059 4.05273 3.79565 3.75535 3.74163 3.58739 3.23298 3.16263 3.11275 3.0812 3.06976 2.85689 2.83221
threshold=93750.000000000015 267500.00000000006 180000.00000000003 65000.000000000007 27625.000000000004 62250.000000000007 19.500000000000004 49500.000000000007 181250.00000000003 38625.000000000007 77.250000000000014 56125.000000000007 220000.00000000003 137.50000000000003 93.350000000000009 32250.000000000004 92.050000000000011 51.500000000000007 3.5000000000000004 14750.000000000002 75500.000000000015 -44499.999999999993 90000.000000000015 125000.00000000001 65000.000000000007 12.036152099373366 85.050000000000011 85.350000000000009 53.500000000000007 11500.000000000002
decision_type=2 2 2 2 2 2 2 2 2 2 2 2 2 2 2 2 2 2 2 2 2 2 2 2 2 2 2 2 2 2
left_child=3 2 6 4 9 20 18 21 16 -1 -7 17 -13 22 24 -9 -4 23 -2 28 -5 -6 29 -12 -15 -26 -23 -28 -18 -8
right_child=1 -3 8 5 7 10 13 15 -10 -11 11 12 -14 14 -16 -17 19 -19 -20 -21 -22 26 -24 -25 25 -27 27 -29 -30 -31
leaf_value=-0.019499208819121122 -0.022958503765985371 0.031278266608715057 -0.012129582542926074 -0.031388751596212391 -0.053166948273777964 -0.0018685018583200872 0.055869084862060839 0.015490625813370571 0.0056479865983128548 -0.0060630064001306891 -0.020767355132848025 0.00027973470184952025 -0.026703285165131093 0.033826786745339635 -0.018654637150466443 0.00075993036455474785 -0.016660631755366924 -0.0062268644617870447 0.00028516386635601526 0.0093583672586828488 -0.010752597512677313 -0.0080763154751621186 0.0013959011808037756 -0.036085775052197282 0.014815605767071248 0.035859869038686154 0.012256252977065743 -0.0005107849538326264 -0.0048786958772689109 0.012052615620195866
leaf_weight=787 76 884 458 823 32 596 32 553 264 431 343 501 68 356 43 547 53 139 301 94 121 769 279 131 817 52 26 958 221 923
leaf_count=787 76 884 458 823 32 596 32 553 264 431 343 501 68 356 43 547 53 139 301 94 121 769 279 131 817 52 26 958 221 923
internal_value=0.000222641 0.00633114 0.00405014 -0.00412088 -0.00196807 -0.00736591 0.0068166 0.0002513 -0.00325688 -0.00722496 -0.00438695 -0.00638748 -0.00180141 0.00807354 0.0102918 0.00359091 -0.00538741 -0.0106444 -0.0015252 -0.00122283 -0.0129767 -0.00180672 0.00579417 -0.0129747 0.0109184 0.00929229 -0.00149743 0.000355691 -0.00419708 0.00725131
internal_weight=11678 4853 3969 6825 4103 2722 2879 2885 1090 1218 1778 1182 569 2502 1268 1100 826 613 377 368 944 1785 1234 474 1225 869 1753 984 274 955
internal_count=11678 4853 3969 6825 4103 2722 2879 2885 1090 1218 1778 1182 569 2502 1268 1100 826 613 377 368 944 1785 1234 474 1225 869 1753 984 274 955
is_linear=0
shrinkage=0.05


Tree=3
num_leaves=31
num_cat=0
split_feature=19 19 0 0 16 16 1 19 19 19 0 16 1 0 6 0 19 16 9 19 9 6 0 19 1 1 9 22 22 9
split_gain=114.571 39.0311 29.9258 16.324 18.5867 18.1766 12.1738 6.99471 5.93907 5.86815 4.4827 4.46808 4.37055 4.33371 4.30089 3.91248 3.83548 3.82744 4.03448 3.79422 3.76642 3.4824 8.56431 5.5529 4.05921 3.79834 3.03304 2.88347 2.70761 3.59953
threshold=11.448308715547981 12.496834910111753 180000.00000000003 65000.000000000007 27625.000000000004 62250.000000000007 25.500000000000004 10.809697134629038 12.107614308427101 10.561675667432329 65000.000000000007 84375.000000000015 3.5000000000000004 220000.00000000003 99.500000000000014 32250.000000000004 12.079639244429799 76250.000000000015 -12874.999999999998 11.231879251419768 -44499.999999999993 1.5000000000000002 125000.00000000001 10.851754318576655 138.50000000000003 55.500000000000007 -5124.9999999999991 2.5000000000000004 2.5000000000000004 6750.0000000000009
decision_type=2 2 2 2 2 2 2 2 2 2 2 2 2 2 2 2 2 2 2 2 2 2 2 2 2 2 2 2 2 2
left_child=3 2 6 4 9 19 12 20 11 -1 26 -4 -2 -3 -13 -9 -14 18 -12 -5 -6 -7 23 25 -24 -23 -8 -20 -22 -30
right_child=1 13 8 5 7 21 10 15 -10 -11 17 14 16 -15 -16 -17 -18 -19 27 -21 28 22 24 -25 -26 -27 -28 -29 29 -31
leaf_value=-0.018524248378165065 -0.021810578577686104 0.038432021334767343 -0.014750030338577927 -0.029819314016401768 -0.050508600860089063 -0.0020173054503509775 0.0076032232549041517 0.014716094522702042 0.0053655872683972122 -0.0057598560801241545 -0.011659478707239032 -0.0075850277082063272 -0.0024336557779461154 0.021483252838253974 0.0065469715311191976 0.00072193384632701055 0.014009884864091875 0.015400091191753746 0.015070854613557458 -0.010214967637043446 0.0001878129228949547 -0.023431400145404041 -0.027068076668307184 0.0031264762082602831 -0.0063363110150676224 -0.010116914965095931 0.028401961928233507 0.001204159615561366 -0.0058958106509177021 -0.03369128877850016
leaf_weight=787 76 491 191 823 32 536 88 553 264 431 101 476 367 393 159 547 112 1077 249 121 848 174 254 418 132 264 617 192 857 48
leaf_count=787 76 491 191 823 32 536 88 553 264 431 101 476 367 393 159 547 112 1077 249 121 848 174 254 418 132 264 617 192 857 48
internal_value=0.000179825 0.00605296 0.00393676 -0.00399634 -0.00200463 -0.00699853 0.0066082 0.000181976 -0.00311927 -0.00718391 0.00819707 -0.00520581 -4.5045e-05 0.0155543 -0.00318898 0.00331818 0.00172234 0.00674799 0.00332103 -0.0126059 -0.0017507 -0.00402137 -0.00547504 -0.00268692 -0.011658 -0.006621 0.0115248 0.00538549 -0.00144039 -0.00334254
internal_weight=11678 4853 3969 6825 4103 2722 2879 2885 1090 1218 2324 826 555 884 635 1100 479 1619 542 944 1785 1778 1242 856 386 438 705 441 1753 905
internal_count=11678 4853 3969 6825 4103 2722 2879 2885 1090 1218 2324 826 555 884 635 1100 479 1619 542 944 1785 1778 1242 856 386 438 705 441 1753 905
is_linear=0
shrinkage=0.05


Tree=4
num_leaves=31
num_cat=0
split_feature=8 8 0 0 16 16 1 9 5 9 8 0 8 8 2 0 12 0 3 16 0 7 12 0 8 0 1 15 2 16
split_gain=110.095 37.5681 23.5477 16.7941 18.2278 15.39 12.1579 6.19096 6.06653 5.8287 5.37757 4.80653 4.52388 4.1831 3.90661 3.72994 3.67131 3.55739 3.4375 3.8802 3.3319 3.22033 3.21309 3.1589 3.14464 3.07538 4.90437 3.07491 3.25444 3.02366
threshold=93750.000000000015 267500.00000000006 180000.00000000003 75000.000000000015 84375.000000000015 27625.000000000004 25.500000000000004 -35624.999999999993 31.500000000000004 23750.000000000004 37625.000000000007 56750.000000000007 75500.000000000015 111250.00000000001 3.5000000000000004 220000.00000000003 128750.00000000001 32250.000000000004 87.550000000000011 72250.000000000015 240000.00000000003 80.850000000000009 392500.00000000006 32250.000000000004 211250.00000000003 90000.000000000015 12.500000000000002 89.950000000000017 185.50000000000003 37750.000000000007
decision_type=2 2 2 2 2 2 2 2 2 2 2 2 2 2 2 2 2 2 2 2 2 2 2 2 2 2 2 2 2 2
left_child=3 2 6 5 12 10 14 -7 16 -4 -1 -8 25 -13 -2 -3 18 -10 19 -9 27 -15 -11 -21 -16 -5 -27 28 -6 -23
right_child=1 15 9 4 20 7 11 8 17 22 -12 13 -14 21 24 -17 -18 -19 -20 23 -22 29 -24 -25 -26 26 -28 -29 -30 -31
leaf_value=-0.017598035959256814 -0.021740599631587976 0.036510420268028976 -0.0065247519176220518 -0.019223141627950829 -0.012870550595348468 -0.035136850128674416 0.026898157844040545 -0.0090809966522455206 0.015336819070900965 0.0030082314157672228 -0.0068706219967245132 0.0023562547021545471 -0.0072924966704519464 0.00150904494272545 -0.00019578412575647233 0.020409090196341278 0.010805800430054951 0.00079455176960618705 0.00025388505572627762 0.0081227418729232156 -0.02571467283489183 -0.00023133730618283147 0.026492879256443121 -0.0089376558914035561 0.023765473551210017 -0.015338519179920549 -0.039114847220852969 0.00041460797923267823 0.0079736579056410139 0.01647878727475181
leaf_weight=779 65 491 815 473 417 73 607 855 422 250 457 292 160 150 451 393 196 546 826 178 57 93 25 177 39 202 380 575 52 1182
leaf_count=779 65 491 815 473 417 73 607 855 422 250 457 292 160 150 451 393 196 546 826 178 57 93 25 177 39 202 380 575 52 1182
internal_value=0.00019267 0.00594993 0.00387377 -0.0039011 -0.00736183 -0.00212353 0.00624349 -0.000328445 0 -0.00238532 -0.00687702 0.00783133 -0.0115844 0.00647932 -0.000405405 0.0152715 -0.00143369 0.00330579 -0.00206287 -0.00376033 -0.00270209 0.00759649 0.00390909 0.000633803 0.00112245 -0.0127725 -0.0152062 -0.00205939 -0.00506397 0.00841176
internal_weight=11678 4853 3969 6825 2316 4509 2879 3273 3200 1090 1236 2324 1215 1717 555 884 2232 968 2036 1210 1101 1425 275 355 490 1055 582 1044 469 1275
internal_count=11678 4853 3969 6825 2316 4509 2879 3273 3200 1090 1236 2324 1215 1717 555 884 2232 968 2036 1210 1101 1425 275 355 490 1055 582 1044 469 1275
is_linear=0
shrinkage=0.05


Tree=5
num_leaves=31
num_cat=0
split_feature=8 8 0 8 0 2 0 5 13 0 0 15 1 18 5 13 12 12 0 1 1 2 1 22 5 14 14 18 15 9
split_gain=99.7397 33.8309 23.7225 14.4269 11.2019 9.3106 8.28558 13.344 5.98579 5.74814 5.67896 5.51629 4.71607 4.7147 6.3653 4.25187 4.20725 4.01739 4.44098 5.28121 3.99732 3.58752 3.55733 3.23297 3.18291 3.0488 3.04062 2.97948 2.97053 2.92344
threshold=93750.000000000015 267500.00000000006 180000.00000000003 51625.000000000007 125000.00000000001 22.500000000000004 65000.000000000007 1.0000000180025095e-35 21.500000000000004 33750.000000000007 90000.000000000015 89.050000000000011 79.500000000000014 11.959186966963749 72.500000000000014 36.500000000000007 201250.00000000003 238750.00000000003 42500.000000000007 29.500000000000004 224.50000000000003 242.50000000000003 223.50000000000003 3.5000000000000004 52.500000000000007 11.500000000000002 235.50000000000003 12.33484953067155 84.550000000000011 19750.000000000004
decision_type=2 2 2 2 2 2 2 2 2 2 2 2 2 2 2 2 2 2 2 2 2 2 2 2 2 2 2 2 2 2
left_child=3 2 5 6 17 27 8 11 12 -7 15 -8 -1 14 22 -9 -10 18 19 -5 -6 -4 -11 -20 -14 -21 -27 -2 -15 -23
right_child=1 -3 21 4 20 9 7 10 16 13 -12 -13 24 28 -16 -17 -18 -19 23 25 -22 29 -24 -25 -26 26 -28 -29 -30 -31
leaf_value=-0.013464656887891703 -0.0035972073640068991 0.025967231198139491 -0.0063370073719101506 -0.004191768838399672 -0.020359048649815754 0.03135946331677493 -0.01119798761655303 -0.027734664335723792 -0.0042950666213636291 0.0046923823333485052 -0.031231521260406181 0.00039387758027104426 0.0022674425644440346 0.0093583604958979421 0.016426909846640192 -0.010569353486410867 0.020110726005766921 0.020080856195408853 0.002507259089829197 -0.0069511745838481886 0.014112181043913355 -0.0045400101331633056 0.021184445420666598 -0.0095222879341730019 -0.023945765194018191 0.016821630841155552 -0.0037073777410788315 0.026505315837585371 0.022592989603444004 0.0077180168277070629
leaf_weight=796 412 877 812 201 256 389 275 250 1944 1084 448 358 171 116 407 473 41 63 516 95 41 86 93 416 24 417 53 24 353 198
leaf_count=796 412 877 812 201 256 389 275 250 1944 1084 448 358 171 116 407 473 41 63 516 95 41 86 93 416 24 417 53 24 353 198
internal_value=0.000365728 0.00584931 0.00388777 -0.00352442 -2.42954e-05 0.00627172 -0.00503138 -0.0077051 -0.00341062 0.00747338 -0.0108668 -0.00185624 -0.00658426 0.00641744 0.00511364 -0.00812586 -0.0018262 0.00149063 0.00103062 0.00385117 -0.00900673 -0.00237226 0.00324979 -0.00128755 0.000384615 0.00632743 0.00797872 -0.000458716 0.0108209 0.00246479
internal_weight=11689 4851 3974 6838 2058 2878 4780 1804 2976 2442 1171 633 991 2053 1584 723 1985 1761 1698 766 297 1096 1177 932 195 565 470 436 469 284
internal_count=11689 4851 3974 6838 2058 2878 4780 1804 2976 2442 1171 633 991 2053 1584 723 1985 1761 1698 766 297 1096 1177 932 195 565 470 436 469 284
is_linear=0
shrinkage=0.05


Tree=6
num_leaves=31
num_cat=0
split_feature=8 8 0 0 16 8 2 8 13 3 8 0 15 3 8 0 14 13 5 0 7 1 0 18 15 0 16 14 20 20
split_gain=90.4237 30.1464 20.6872 14.0535 17.626 11.9162 8.87522 5.02836 4.84034 4.27727 4.2045 5.20207 3.92408 5.82273 3.90109 3.87678 3.87598 4.1362 3.73303 3.31745 4.16369 3.45605 3.30413 3.22876 3.19825 3.18703 3.65801 3.75415 3.16463 2.95788
threshold=93750.000000000015 282500.00000000006 180000.00000000003 75000.000000000015 84375.000000000015 49500.000000000007 172.50000000000003 181250.00000000003 21.500000000000004 93.350000000000009 183750.00000000003 32250.000000000004 90.15000000000002 92.050000000000011 65625.000000000015 125000.00000000001 370.50000000000006 424.00000000000006 61.500000000000007 42500.000000000007 95.40000000000002 41.500000000000007 220000.00000000003 10.054045612322692 85.950000000000017 65000.000000000007 80625.000000000015 117.50000000000001 13.353445190697 11.323586814180182
decision_type=2 2 2 2 2 2 2 2 2 2 2 2 2 2 2 2 2 2 2 2 2 2 2 2 2 2 2 2 2 2
left_child=3 2 6 5 14 8 10 -4 23 25 11 -2 15 -14 -5 -13 -6 -18 19 21 -21 -7 -3 -1 -10 -8 -27 -28 -9 -25
right_child=1 22 7 4 16 18 9 28 24 -11 -12 12 13 -15 -16 -17 17 -19 -20 20 -22 -23 -24 29 -26 26 27 -29 -30 -31
leaf_value=-0.018058694196851362 0.022670408585429427 0.033386537694720553 -0.0058816639531454424 -0.025980458017397946 -0.0015720893460585538 -0.00062190912378158039 0.028330933465011657 0.0029318823771081514 -0.0083789213525619216 -0.019550468332935823 0.016583673157851912 0.001527551314043113 0.012277031145802933 -0.0060896049703420135 -0.0086158964745727314 -0.014382995450907154 -0.021109332483955807 0.0021302953120068608 0.02315608359215331 -0.0075495537985176666 0.007806738600530644 0.010529089975974858 0.016768612654296685 -0.010428442066449254 -0.00029257727400387528 0.0072159887183008255 0.025782719008828749 0.011938793569562725 0.026590591280713363 0.00065363247981053724
leaf_weight=319 184 412 817 979 988 367 358 324 984 33 271 632 400 161 249 107 90 41 100 456 129 560 362 555 937 308 216 246 20 84
leaf_count=319 184 412 817 979 988 367 358 324 984 33 271 632 400 161 249 107 90 41 100 456 129 560 362 555 937 308 216 246 20 84
internal_value=0.000267345 0.00548856 0.00377116 -0.00343668 -0.00657222 -0.00179804 0.00601852 -0.00187339 -0.00372525 0.00940999 0.00377493 0.00272911 0.00161538 0.00476827 -0.0107085 -0.000778078 -0.00203307 -0.0101145 0.00164392 0.00102513 -0.00192308 0.00288565 0.0145349 -0.00662839 -0.00227746 0.00992908 0.00811688 0.0109307 0.00319767 -0.00457746
internal_weight=11689 4851 4077 6838 2347 4491 2916 1161 2879 1161 1755 1484 1300 561 1228 739 1119 131 1612 1512 585 927 774 958 1921 1128 770 462 344 639
internal_count=11689 4851 4077 6838 2347 4491 2916 1161 2879 1161 1755 1484 1300 561 1228 739 1119 131 1612 1512 585 927 774 958 1921 1128 770 462 344 639
is_linear=0
shrinkage=0.05


Tree=7
num_leaves=31
num_cat=0
split_feature=8 8 0 0 16 2 8 22 16 0 3 13 9 0 8 1 12 9 16 5 2 12 16 22 13 7 8 15 5 13
split_gain=81.4373 27.7451 19.0088 12.6156 16.2302 12.2539 10.543 6.02377 5.89802 8.49841 5.1349 4.67791 4.388 4.27108 4.69355 4.1308 3.72002 4.02563 3.61396 3.41535 3.31562 3.25824 3.09997 2.99286 2.98276 4.97446 3.39264 3.79297 2.77985 2.75522
threshold=93750.000000000015 207500.00000000003 125000.00000000001 75000.000000000015 84375.000000000015 22.500000000000004 49500.000000000007 2.5000000000000004 84375.000000000015 240000.00000000003 92.550000000000011 7.5000000000000009 2375.0000000000005 180000.00000000003 420000.00000000006 29.500000000000004 25875.000000000004 -30624.999999999996 54750.000000000007 61.500000000000007 232.50000000000003 551250.00000000012 23375.000000000004 2.5000000000000004 244.00000000000003 76.050000000000011 62250.000000000007 90.050000000000011 33.500000000000007 84.500000000000014
decision_type=2 2 2 2 2 2 2 2 2 2 2 2 2 2 2 2 2 2 2 2 2 2 2 2 2 2 2 2 2 2
left_child=3 2 5 6 7 -2 11 12 -4 20 -7 -1 22 15 21 18 23 -18 -3 -8 -10 -15 -5 28 26 -26 27 -6 -13 -29
right_child=1 13 8 4 24 10 19 -9 9 -11 -12 16 -14 14 -16 -17 17 -19 -20 -21 -22 -23 -24 -25 25 -27 -28 29 -30 -31
leaf_value=-0.015624458535920758 -0.0040311985530967018 -0.0058591960626163883 -0.010440083681625339 -0.039065537937878148 -0.010621065754503509 0.01475816552176883 0.0020299944201405467 -0.026335698874882976 0.0030471120174501904 -0.0067679823116819984 0.0024327397108283248 -0.0049946882597902446 0.00021657023278475482 0.0086593317803976121 0.027548131148615203 0.030943904207229769 -0.032159131784827828 0.00011643025382503461 0.018461715887515957 0.021998279412545646 0.015740800325041434 0.02080664066644879 -0.017381889812685566 -0.014832239827061611 0.00045278816856041977 -0.022653716245757516 0.010610197497073461 -0.00670225397311553 0.011334580732976537 0.006263276653213367
leaf_weight=472 392 26 380 90 328 1634 1512 486 406 415 273 544 143 428 165 412 51 1065 83 100 180 57 509 676 101 124 193 177 71 196
leaf_count=472 392 26 380 90 328 1634 1512 486 406 415 273 544 143 428 165 412 51 1065 83 100 180 57 509 676 101 124 193 177 71 196
internal_value=0.0002759 0.00523088 0.00309783 -0.00323925 -0.00621006 0.00588299 -0.00168671 -0.0101792 -0.00153874 0.000474525 0.00753802 -0.00349948 -0.00734501 0.0119342 0.00923077 0.0153071 -0.00260698 -0.000492832 0.00665138 0.00155087 0.00435154 0.00675258 -0.00922371 -0.00443455 -0.00185433 -0.007 -0.000559284 -0.00217546 -0.00191057 0.00127346
internal_weight=11689 4851 3680 6838 2347 2299 4491 1228 1381 1001 1907 2879 742 1171 650 521 2407 1116 109 1612 586 485 599 1291 1119 225 894 701 615 373
internal_count=11689 4851 3680 6838 2347 2299 4491 1228 1381 1001 1907 2879 742 1171 650 521 2407 1116 109 1612 586 485 599 1291 1119 225 894 701 615 373
is_linear=0
shrinkage=0.05


Tree=8
num_leaves=31
num_cat=0
split_feature=8 8 17 8 3 17 17 16 3 4 17 16 1 17 4 1 1 16 16 17 14 8 9 6 5 22 15 4 5 14
split_gain=77.1302 27.4655 17.5701 12.1308 8.17966 7.74512 7.57897 14.543 6.43727 5.18149 5.16243 5.71815 4.53264 4.24434 4.46599 4.03971 3.7455 3.61396 3.48435 3.53064 3.45993 4.32265 3.25443 3.22223 2.99164 2.98942 2.87978 2.79589 2.71552 2.70771
threshold=93750.000000000015 207500.00000000003 12.3003532536575 51625.000000000007 94.050000000000011 11.715666352321536 11.223029610110819 76250.000000000015 81.550000000000011 23250.000000000004 11.715666352321536 78750.000000000015 19.500000000000004 12.086632405657936 416250.00000000006 29.500000000000004 224.50000000000003 54750.000000000007 30250.000000000004 10.426737891522196 81.500000000000014 6875.0000000000009 -27749.999999999996 27.500000000000004 1.0000000180025095e-35 2.5000000000000004 90.050000000000011 20750.000000000004 28.500000000000004 121.50000000000001
decision_type=2 2 2 2 2 2 2 2 2 2 2 2 2 2 2 2 2 2 2 2 2 2 2 2 2 2 2 2 2 2
left_child=3 2 4 6 10 18 9 27 26 20 12 -12 -2 15 -15 17 23 -3 -5 -20 -1 -22 -11 -7 -24 28 -9 -8 -26 -4
right_child=1 13 29 5 -6 16 7 8 -10 22 11 -13 -14 14 -16 -17 -18 -19 19 -21 21 -23 24 -25 25 -27 -28 -29 -30 -31
leaf_value=-0.015045098998185969 0.00016994640678837721 -0.005566236259485568 -0.013030002642103345 -0.0071763126168881133 -0.0046093764122556854 -0.0012591663876944446 -0.010827487082376562 -0.0068883855232979062 -0.017217323292413461 -0.01754309360622015 -0.00500051519472365 0.0075840660662350005 0.013767190263730779 0.012010332261100445 0.028107673368547144 0.029396708996868276 0.012954666584166941 0.017538630093140158 0.012760170767238893 0.00076865234746456644 0.011903701243982021 -0.017947708725315849 0.010479964624813281 -0.023633478395481779 -0.0025927010023420248 -0.0069739058473249132 0.0020943649079224217 -0.029836114245506432 0.006972606008456339 -0.0014693373592298579
leaf_weight=542 216 26 323 367 364 80 186 227 297 161 181 424 1738 564 86 412 41 83 454 940 69 101 61 176 827 1151 333 532 293 434
leaf_count=542 216 26 323 367 364 80 186 227 297 161 181 424 1738 564 86 412 41 83 454 940 69 101 61 176 827 1151 333 532 293 434
internal_value=0.000357173 0.00517934 0.00305707 -0.00306376 0.00481526 0.000145773 -0.00444561 -0.00728571 -0.00288798 -0.00304992 0.00581282 0.00177686 0.00706244 0.0118488 0.00915385 0.0152111 -0.00732323 0.00665138 0.00140545 0.00254663 -0.0068118 -0.000588235 -0.00197553 -0.00957031 -0.00150086 -0.00179436 0.000267857 -0.0125348 4.46429e-05 -0.00373184
internal_weight=11689 4851 3680 6838 2923 2058 4780 1575 857 3205 2559 605 1954 1171 650 521 297 109 1761 1394 712 170 2493 256 2332 2271 560 718 1120 757
internal_count=11689 4851 3680 6838 2923 2058 4780 1575 857 3205 2559 605 1954 1171 650 521 297 109 1761 1394 712 170 2493 256 2332 2271 560 718 1120 757
is_linear=0
shrinkage=0.05


Tree=9
num_leaves=31
num_cat=0
split_feature=8 8 17 17 16 8 3 16 9 3 17 16 17 15 17 12 1 16 4 16 16 17 12 15 17 4 5 17 5 15
split_gain=69.8334 25.8294 16.875 11.1102 15.5822 9.10527 6.97828 4.50558 4.28831 3.93347 3.90001 3.79576 3.67148 4.83063 3.61871 3.53848 3.47727 3.36672 3.17151 3.09388 3.06495 3.6863 3.01036 2.85257 3.74883 2.74951 2.65487 3.86266 3.05347 2.5566
threshold=93750.000000000015 207500.00000000003 12.086632405657936 11.223029610110819 84375.000000000015 36125.000000000007 94.050000000000011 20250.000000000004 -44499.999999999993 92.250000000000014 12.086632405657936 37750.000000000007 10.655549861755675 89.750000000000014 11.715666352321536 112750.00000000001 6.5000000000000009 43875.000000000007 57750.000000000007 84375.000000000015 91250.000000000015 12.387529566279177 501250.00000000006 89.450000000000017 11.715666352321536 156250.00000000003 31.500000000000004 10.94478606601511 48.500000000000007 91.65000000000002
decision_type=2 2 2 2 2 2 2 2 2 2 2 2 2 2 2 2 2 2 2 2 2 2 2 2 2 2 2 2 2 2
left_child=3 2 6 5 11 7 12 -1 -9 10 -3 -5 -2 14 16 26 -14 -11 -10 -16 -4 -22 -12 24 -13 -18 -7 -28 -29 -25
right_child=1 9 20 4 -6 15 -8 8 18 17 22 23 13 -15 19 -17 25 -19 -20 -21 21 -23 -24 29 -26 -27 27 28 -30 -31
leaf_value=-0.014021700089130472 0.023173299606943944 0.021283124196969452 -0.012979423172349364 -0.026396054730184106 -0.0032401766879797235 -0.002730694914202839 -0.003123107681968898 -0.038317534509596275 -0.0048639983675815603 -0.0040790777195954904 0.0066651801637720833 -0.011573932614306165 -0.026366589718592216 0.012671107630531395 -0.0051193476303494981 0.011170802458592265 0.0059113327216924845 0.024217054408597297 0.02278235054803034 0.0095378061177190179 0.0034496083072255465 -0.00606612421705184 0.019525510521639172 0.004362027584977328 -0.024040773443003028 0.019193848717118846 0.0081190761756016003 -0.014832600904286557 0.0044433136505856409 -0.017518507205810538
leaf_weight=507 462 264 223 368 1119 1233 350 40 1446 22 323 349 24 854 149 329 666 502 36 82 335 409 60 80 313 126 658 113 129 118
leaf_count=507 462 264 223 368 1119 1233 350 40 1446 22 323 349 24 854 149 329 666 502 36 82 335 409 60 80 313 126 658 113 129 118
internal_value=0.000322953 0.00491136 0.00285326 -0.00293214 -0.00572007 -0.00147517 0.00487468 -0.00395515 -0.00259527 0.0113792 0.00877125 -0.00960912 0.00585061 0.00487901 0.00260267 0.000568643 0.00416667 0.0145992 -0.00215924 -0.00292208 -0.00281799 -0.00127688 0.0055483 -0.0077907 -0.00936556 0.00473485 -0.000175809 0.00188889 -0.0035124 -0.00252525
internal_weight=11689 4851 3680 6838 2347 4491 2713 2029 1522 1171 647 1228 2363 1901 1047 2462 816 524 1482 231 967 744 383 860 662 792 2133 900 242 198
internal_count=11689 4851 3680 6838 2347 4491 2713 2029 1522 1171 647 1228 2363 1901 1047 2462 816 524 1482 231 967 744 383 860 662 792 2133 900 242 198
is_linear=0
shrinkage=0.05


Tree=10
num_leaves=31
num_cat=0
split_feature=8 8 17 5 15 17 1 4 14 8 17 16 12 17 16 12 1 17 12 17 16 17 16 3 16 1 16 9 8 1
split_gain=63.5953 28.4388 19.9543 9.82784 8.31827 8.39362 7.06129 6.95617 5.46415 5.37939 4.82168 4.81648 4.4577 3.93793 4.45329 3.91309 3.8023 3.75733 3.67117 4.20099 4.16531 3.49259 3.21941 3.02026 2.8879 2.85771 2.72427 2.64606 2.63001 2.60595
threshold=181250.00000000003 52250.000000000007 11.715666352321536 42.500000000000007 88.15000000000002 11.079190657187882 216.50000000000003 272500.00000000006 73.500000000000014 21125.000000000004 10.655549861755675 84375.000000000015 298750.00000000006 12.387529566279177 84375.000000000015 44125.000000000007 7.5000000000000009 12.387529566279177 90250.000000000015 11.223029610110819 42375.000000000007 9.3492433576854399 59000.000000000007 91.850000000000009 231250.00000000003 9.5000000000000018 20250.000000000004 -35624.999999999993 128750.00000000001 21.500000000000004
decision_type=2 2 2 2 2 2 2 2 2 2 2 2 2 2 2 2 2 2 2 2 2 2 2 2 2 2 2 2 2 2
left_child=1 4 3 16 5 9 12 17 18 26 -10 29 13 14 28 -11 -3 -2 19 -6 -21 -18 -8 -5 -12 -9 -1 -23 -4 -7
right_child=7 2 6 23 8 11 22 25 10 15 24 -13 -14 -15 -16 -17 21 -19 -20 20 -22 27 -24 -25 -26 -27 -28 -29 -30 -31
leaf_value=-0.019447632657903502 0.017555830116438281 -0.0086914655246388712 -0.016461938116634777 0.012718202675365038 -0.0061148971700992032 -0.011456332733928213 -0.0055724484150291844 0.00011710043899091639 0.010601773959164585 -0.0069480127896568633 -0.0053834751578088818 -0.0061659610156299472 0.0053805700681034815 -0.015724318180978875 -0.0014953155386580228 0.0036920059778080593 0.031683800834166435 0.0013286961860518945 0.0023518636626782075 -0.038760499774496221 -0.016916411885346035 -0.025043187420365917 0.0085564957301986037 0.0025104653325621743 0.016032613618893323 0.023238608011422968 -0.0098879592234448078 0.0019255811032050916 -0.0016388289048951999 -0.026867865942130989
leaf_weight=256 617 244 220 1453 659 223 44 39 314 847 508 260 194 332 414 406 108 215 227 54 159 30 205 290 20 643 381 1783 89 438
leaf_count=256 617 244 220 1453 659 223 44 39 314 847 508 260 194 332 414 406 108 215 227 54 159 30 205 290 20 643 381 1783 89 438
internal_value=0.000479781 -0.000945068 0.00153533 0.00341607 -0.00376684 -0.00550516 -0.00337116 0.0100396 -0.00124936 -0.00359788 0.00178147 -0.00941911 -0.00490392 -0.00618483 -0.0041148 -0.00169593 0.00116628 0.00697115 -0.00357143 -0.00504587 -0.0111502 0.00191307 0.00431727 0.00621056 -0.00113636 0.013783 -0.00733909 0.00139272 -0.00865696 -0.0116868
internal_weight=11672 10158 5406 3908 4752 2811 1498 1514 1941 1890 842 921 1249 1055 723 1253 2165 832 1099 872 213 1921 249 1743 528 682 637 1813 309 661
internal_count=11672 10158 5406 3908 4752 2811 1498 1514 1941 1890 842 921 1249 1055 723 1253 2165 832 1099 872 213 1921 249 1743 528 682 637 1813 309 661
is_linear=0
shrinkage=0.05


Tree=11
num_leaves=31
num_cat=0
split_feature=18 18 0 9 2 16 0 18 0 1 0 9 18 6 2 0 22 16 16 0 5 0 1 1 15 3 9 15 12 3
split_gain=52.2641 19.7576 17.2608 12.8421 10.0775 7.78652 7.83702 7.07781 6.26905 6.41947 5.42415 5.36752 4.99917 4.46479 4.41207 4.39968 4.30097 4.20675 3.98286 3.8984 4.03034 3.70913 3.68877 3.36396 3.30546 3.17344 3.02424 3.01924 2.97847 3.26912
threshold=12.093724603548514 10.939796356889687 125000.00000000001 3875.0000000000005 211.50000000000003 30250.000000000004 51750.000000000007 8.4784205071051471 220000.00000000003 118.50000000000001 75000.000000000015 -39874.999999999993 12.551398210795073 24.500000000000004 199.50000000000003 125000.00000000001 3.5000000000000004 84375.000000000015 78750.000000000015 45500.000000000007 51.500000000000007 290000.00000000006 7.5000000000000009 132.50000000000003 86.15000000000002 89.950000000000017 9750.0000000000018 88.15000000000002 33875.000000000007 86.15000000000002
decision_type=2 2 2 2 2 2 2 2 2 2 2 2 2 2 2 2 2 2 2 2 2 2 2 2 2 2 2 2 2 2
left_child=1 5 3 11 13 10 14 -8 9 -2 -1 -3 -10 24 27 -9 22 23 -6 28 -21 -20 -13 -15 -4 -11 -12 -7 29 -18
right_child=8 2 4 -5 18 6 7 15 12 25 26 16 -14 17 -16 -17 19 -19 21 20 -22 -23 -24 -25 -26 -27 -28 -29 -30 -31
leaf_value=-0.0091305490505116868 0.014252168952334738 -0.027594104269877184 -0.013916308933895944 0.012190146779921709 -0.0041520944352466185 -0.0035345068461815222 0.00046608868279306056 -0.0089107365806904131 -3.2812061729328006e-05 0.020137423015473024 -0.0349566188815678 -0.0066447521249068959 0.016685627607994177 -0.026169268569091731 0.017244701537107665 -0.022055317476716168 -0.011297759971811492 -0.0067424340893940038 0.0094886291757653816 -0.0082759193356142235 0.0066054834369029484 -0.012713506195333077 0.0074114705097142828 -0.0076043327284503331 0.007624759701591096 0.03276312510189873 0.00082348738880495928 0.0041990030027695083 0.015629747804602388 0.0088545634297322786
leaf_weight=1213 373 98 61 1126 144 898 628 937 224 200 202 111 314 164 79 267 107 635 347 525 204 47 1310 135 94 250 30 597 218 134
leaf_count=1213 373 98 61 1126 144 898 628 937 224 200 202 111 314 164 79 267 107 635 347 525 204 47 1310 135 94 250 30 597 218 134
internal_value=0.000471213 -0.000744351 0.00131868 0.00315027 -0.00299631 -0.00306638 -0.0017616 -0.00398472 0.00968038 0.0124241 -0.00614187 0.00128371 0.00548327 -0.00576217 0.000825921 -0.00622924 0.00171522 -0.00706638 0.00260223 -0.000505051 -0.00277778 0.00520305 0.00357143 -0.0119565 0.00209677 0.0164444 -0.0131466 0.000217391 0.00310458 -0.000726141
internal_weight=11672 10311 5460 3833 1627 4851 3406 1832 1361 823 1445 2707 538 1089 1574 1204 2609 934 538 1188 729 394 1421 299 155 450 232 1495 459 241
internal_count=11672 10311 5460 3833 1627 4851 3406 1832 1361 823 1445 2707 538 1089 1574 1204 2609 934 538 1188 729 394 1421 299 155 450 232 1495 459 241
is_linear=0
shrinkage=0.05


Tree=12
num_leaves=31
num_cat=0
split_feature=4 2 16 0 5 4 0 4 9 9 0 2 0 0 9 4 4 12 7 22 9 6 13 12 16 0 16 12 0 16
split_gain=47.0956 17.9234 10.3631 11.9569 8.95096 7.52269 6.79113 6.60997 6.54292 6.20744 5.85035 5.90148 5.48765 4.68074 4.67731 4.36905 4.28879 3.89244 3.58199 3.47418 3.43879 3.2735 3.17011 3.02076 2.99009 2.877 2.8338 2.8233 3.45945 4.29192
threshold=178750.00000000003 185.50000000000003 30250.000000000004 125000.00000000001 2.5000000000000004 56375.000000000007 265000.00000000006 93750.000000000015 -37749.999999999993 7875.0000000000009 220000.00000000003 53.500000000000007 75000.000000000015 51750.000000000007 4875.0000000000009 282500.00000000006 47625.000000000007 276250.00000000006 86.15000000000002 3.5000000000000004 4875.0000000000009 24.500000000000004 7.5000000000000009 128750.00000000001 84375.000000000015 37000.000000000007 41375.000000000007 80250.000000000015 33750.000000000007 48625.000000000007
decision_type=2 2 2 2 2 2 2 2 2 2 2 2 2 2 2 2 2 2 2 2 2 2 2 2 2 2 2 2 2 2
left_child=1 2 12 5 -5 13 8 20 -3 19 11 -2 16 23 -14 -12 22 -8 -18 -7 -6 -9 -1 26 -22 -21 -4 28 -10 -30
right_child=10 6 3 4 7 9 17 21 27 -11 15 -13 14 -15 -16 -17 18 -19 -20 25 24 -23 -24 -25 -26 -27 -28 -29 29 -31
leaf_value=-0.019415244182295767 0.0070447396935103702 -0.036547857334487635 0.00325259842257276 0.000526249151180907 -0.024491005181829333 0.0055304107795218346 -0.012212875516889833 0.0059531908924251959 0.021008150967342779 0.01355964522223236 -3.1171458642861723e-05 0.025090913405289697 -0.031912962657794718 -0.008062119865603427 -7.7963731143550907e-05 0.01585134622759447 -0.0065792036564896045 0.013948104686661095 0.0063461898674672451 0.0096886882021599025 -0.01919036677179118 -0.008007713779544191 -0.0079444525253187324 0.014118564136538746 0.0041103050981483296 -0.0052100781754105176 -0.0041322485796894057 0.010575473049651521 -0.0091360640102109928 0.0049383490967428679
leaf_weight=322 227 46 482 582 337 1114 154 108 233 368 224 596 284 923 82 314 191 52 289 205 64 491 707 103 67 699 881 713 147 667
leaf_count=322 227 46 482 582 337 1114 154 108 233 368 224 596 284 923 82 314 191 52 289 205 64 491 707 103 67 699 881 713 147 667
internal_value=0.000424092 -0.000729803 -0.00175624 -0.000801681 -0.00447241 0.000465969 0.00350398 -0.00719306 0.00448505 0.0024518 0.00916605 0.0118165 -0.00502667 -0.00151737 -0.0105191 0.00511152 -0.0036945 -0.00509709 0.000208333 0.00136274 -0.0116453 -0.00371452 -0.00551506 0.000238745 -0.00477099 -0.000940265 -0.00038518 0.00497159 0.00331901 0.00178133
internal_weight=11672 10311 8299 6424 1649 4775 2012 1067 1806 2386 1361 823 1875 2389 366 538 1509 206 480 2018 468 599 1029 1466 131 904 1363 1760 1047 814
internal_count=11672 10311 8299 6424 1649 4775 2012 1067 1806 2386 1361 823 1875 2389 366 538 1509 206 480 2018 468 599 1029 1466 131 904 1363 1760 1047 814
is_linear=0
shrinkage=0.05


Tree=13
num_leaves=31
num_cat=0
split_feature=8 8 0 1 15 0 8 18 0 22 21 0 7 21 12 3 13 0 12 22 21 21 0 12 0 15 22 15 0 12
split_gain=45.808 22.1628 15.7455 9.25148 7.58925 5.29321 4.94222 4.88331 4.3246 4.32247 4.25522 4.29532 5.19503 4.17804 4.04626 3.46389 3.41514 3.34181 3.30625 4.22013 3.01339 2.88876 2.81735 2.75331 2.66704 3.31757 2.67544 3.26667 2.58402 2.54679
threshold=181250.00000000003 52250.000000000007 180000.00000000003 137.50000000000003 88.15000000000002 65000.000000000007 21125.000000000004 12.515355477341547 42500.000000000007 2.5000000000000004 9.8587825873805794 42500.000000000007 1.0000000180025095e-35 11.343010845011834 246250.00000000003 92.550000000000011 61.500000000000007 240000.00000000003 44125.000000000007 2.5000000000000004 10.333644744977397 9.9158832478553744 240000.00000000003 121250.00000000001 65000.000000000007 86.250000000000014 2.5000000000000004 79.350000000000009 90000.000000000015 551250.00000000012
decision_type=2 2 2 2 2 2 2 2 2 2 2 2 2 2 2 2 2 2 2 2 2 2 2 2 2 2 2 2 2 2
left_child=1 4 3 8 5 6 21 17 -3 -10 -6 16 -13 -7 22 24 -12 -2 19 -8 -14 -1 -4 -11 26 -26 -5 -28 -22 -19
right_child=7 2 14 15 10 13 18 -9 9 23 11 12 20 -15 -16 -17 -18 29 -20 -21 28 -23 -24 -25 25 -27 27 -29 -30 -31
leaf_value=-0.017623454399871352 0.015346383048963731 0.007736527694618427 -0.0045882715339726453 0.02229763204736393 -0.022667734348999102 -0.019545342811180928 0.0015047202508279617 0.019416708903984128 0.0033749891789575798 -0.0090283840378019217 -0.0011614936500663837 0.00070699621532700969 -0.030325833263416025 -0.0051496524132042722 0.0021075183844560044 -0.0054515897327296709 0.010031190056524978 -0.0020943329885864509 0.0040498350352159932 -0.01263678922388038 -0.0051913661702658641 -0.0090102234909790208 -0.013676093700432795 0.0029305917524914756 0.0016873578426112687 0.010591767736561552 -0.0036693696411956946 0.019479947318065568 -0.020912245616323672 0.015655754553863796
leaf_weight=256 617 845 387 239 115 661 403 682 1183 676 403 417 35 260 218 78 331 192 406 444 485 381 363 194 374 555 84 210 155 23
leaf_count=256 617 845 387 239 115 661 403 682 1183 676 403 417 35 260 218 78 331 192 406 444 485 381 363 194 374 555 84 210 155 23
internal_value=0.000406957 -0.000802323 0.00138735 0.00264759 -0.00329335 -0.00495375 -0.00343915 0.00852048 0.000983437 -0.000255723 -0.000888717 -0.000301205 -0.00228938 -0.00806189 -0.0043905 0.00577922 0.00265668 0.00594952 -0.00161612 -0.00339433 -0.005 -0.00702512 -0.00613333 -0.00293103 0.00632695 0.00470936 0.00914634 0.00595238 -0.00421875 0.000581395
internal_weight=11672 10158 5406 4438 4752 2811 1890 1514 2898 2053 1941 1826 1092 921 968 1540 734 832 1253 847 675 637 750 870 1462 929 533 294 640 215
internal_count=11672 10158 5406 4438 4752 2811 1890 1514 2898 2053 1941 1826 1092 921 968 1540 734 832 1253 847 675 637 750 870 1462 929 533 294 640 215
is_linear=0
shrinkage=0.05


Tree=14
num_leaves=31
num_cat=0
split_feature=8 8 0 5 16 0 22 12 8 4 5 0 7 0 12 5 13 13 2 0 12 2 13 8 0 3 5 0 8 12
split_gain=45.8564 19.89 15.097 9.35605 6.13273 13.1868 4.90703 5.12112 4.43963 4.43739 3.83687 3.63684 4.50794 3.4814 3.35677 3.29098 3.28971 4.44529 3.02311 3.47156 2.97625 2.95588 2.91774 2.83662 4.53813 2.83127 2.70743 2.67382 2.63971 2.50809
threshold=181250.00000000003 52250.000000000007 180000.00000000003 38.500000000000007 83625.000000000015 75000.000000000015 2.5000000000000004 159000.00000000003 21125.000000000004 272500.00000000006 70.500000000000014 37000.000000000007 79.850000000000009 11500.000000000002 105250.00000000001 90.500000000000014 62.500000000000007 181.50000000000003 5.5000000000000009 11500.000000000002 246250.00000000003 52.500000000000007 69.500000000000014 10125.000000000002 90000.000000000015 92.050000000000011 57.500000000000007 220000.00000000003 151250.00000000003 677500.00000000012
decision_type=2 2 2 2 2 2 2 2 2 2 2 2 2 2 2 2 2 2 2 2 2 2 2 2 2 2 2 2 2 2
left_child=1 4 3 18 5 8 25 13 -1 29 -4 -6 -13 -8 26 16 -15 -18 -3 22 -12 -14 -20 -7 -25 -5 -10 -11 -19 -2
right_child=9 2 10 6 11 23 7 -9 14 27 20 12 21 15 -16 -17 17 28 19 -21 -22 -23 -24 24 -26 -27 -28 -29 -30 -31
leaf_value=-0.010269961803869944 0.0095744659034605398 -0.011222694752598978 -0.010974782850999005 0.013160235340531391 0.011200618089311241 -0.0069815761344069324 0.035759677674973435 0.014477310274139519 -0.002643893120010927 0.023132278291826402 -0.0039798821953470577 0.0006716464045606592 -0.0155872208816576 -0.0058453524329724824 0.0090772312927370792 0.011168132498714579 0.011271637519837972 -0.0094433900710463037 0.0057673949349871783 0.00056277983873691435 0.0095376607055767133 -0.0060608340075540643 0.0465934628947825 -0.018386779440240274 -0.031467532476995991 0.0011750997865125222 -0.020960308617343503 0.014087943471015541 0.011059245799715928 0.028383805826025045
leaf_weight=923 810 129 563 932 222 212 49 202 1569 368 308 594 133 336 159 105 225 133 53 2053 97 312 41 337 246 149 45 314 31 22
leaf_count=923 810 129 563 932 222 212 49 202 1569 368 308 594 133 336 159 105 225 133 53 2053 97 312 41 337 246 149 45 314 31 22
internal_value=0.000402673 -0.000807246 0.00126711 0.00250113 -0.00316709 -0.00424663 0.00485661 0.00247456 -0.00257789 0.00852048 -0.0043905 -0.00017843 -0.00141963 0.000824801 -0.00111393 6.0241e-05 -0.00113793 0.00199229 0.00026362 0.000710293 -0.000679012 -0.00522472 0.0101064 -0.00990566 -0.0117067 0.00723867 -0.00179678 0.0115103 -0.00426829 0.00606971
internal_weight=11672 10158 5406 4438 4752 3491 2162 1081 2696 1514 968 1261 1039 879 1773 830 725 389 2276 2147 405 445 94 795 583 1081 1614 682 164 832
internal_count=11672 10158 5406 4438 4752 3491 2162 1081 2696 1514 968 1261 1039 879 1773 830 725 389 2276 2147 405 445 94 795 583 1081 1614 682 164 832
is_linear=0
shrinkage=0.05


Tree=15
num_leaves=31
num_cat=0
split_feature=8 8 0 2 2 15 0 14 2 16 8 0 7 0 12 12 16 0 9 12 2 9 22 0 12 0 16 14 24 8
split_gain=47.4429 19.4841 12.8006 8.02994 7.41808 6.21636 7.29238 5.89286 5.87189 4.81028 4.59561 4.54072 6.36229 4.42968 3.7174 3.71573 3.70313 3.68778 3.42848 3.1517 2.99785 2.93631 2.92821 2.90267 3.11688 2.63752 2.58353 3.50545 3.79168 2.43466
threshold=181250.00000000003 51625.000000000007 125000.00000000001 178.50000000000003 158.50000000000003 89.15000000000002 65000.000000000007 54.500000000000007 7.5000000000000009 85625.000000000015 282500.00000000006 42500.000000000007 59.150000000000006 11500.000000000002 31125.000000000004 90250.000000000015 108750.00000000001 240000.00000000003 -12874.999999999998 151250.00000000003 28.500000000000004 -8624.9999999999982 3.5000000000000004 180000.00000000003 630000.00000000012 65000.000000000007 21875.000000000004 190.50000000000003 1.0000000180025095e-35 20250.000000000004
decision_type=2 2 2 2 2 2 2 2 2 2 2 2 2 2 2 2 2 2 2 2 2 2 2 2 2 2 2 2 2 2
left_child=1 5 3 8 9 6 14 15 -3 -4 23 -9 -13 -10 16 -7 -1 20 -5 22 -12 -8 -15 -2 -25 -20 -24 28 -28 -16
right_child=10 2 4 18 -6 7 21 11 13 -11 17 12 -14 19 29 -17 -18 -19 25 -21 -22 -23 26 24 -26 -27 27 -29 -30 -31
leaf_value=-0.0093736203336137799 0.015076701633756257 -0.01015435760011027 -0.019646413233935733 -0.0059048411097007139 0.00092019838881697872 -0.010494267568520361 -0.026336923351981137 0.011159711486692927 0.032183848795129553 -0.0046899601171597506 -0.0010424681015688414 0.0031210622726583789 -0.010419089063929179 0.0041797577597238091 -0.0051252769920202921 0.0026146198334010655 0.0099349730715282553 0.013383546297464761 0.018616874233837639 0.011801636217966482 0.023525906875347339 -0.011473107902018522 -0.021582315759472365 0.0017397729263355748 0.013132997133775415 0.0068252197258154281 -0.0053884095152580292 -0.011697482588516441 0.0078029515379235337 0.0028511106631222485
leaf_weight=1208 394 215 233 81 756 606 315 309 134 486 33 289 311 1220 226 154 54 284 418 353 472 729 87 308 22 524 378 198 308 542
leaf_count=1208 394 215 233 81 756 606 315 309 134 486 33 289 311 1220 226 154 54 284 418 353 472 729 87 308 22 524 378 198 308 542
internal_value=0.000349876 -0.000883166 0.00117325 0.00266854 -0.00279661 -0.00322054 -0.00455433 -0.00076393 0.00132216 -0.00643255 0.00860872 0.0019527 -0.000583333 0.00196042 -0.00280788 -0.00401316 -0.00447702 0.0112484 0.00647605 0.00149371 0.0138119 -0.00795019 0.000787312 0.00573204 0.00227273 0.00732484 -0.00126159 -0.000452489 0.00123907 -6.51042e-05
internal_weight=11647 10134 5391 3916 1475 4743 3074 1669 2893 719 1513 909 600 2678 2030 760 1262 789 1023 2544 505 1044 2191 724 330 942 971 884 686 768
internal_count=11647 10134 5391 3916 1475 4743 3074 1669 2893 719 1513 909 600 2678 2030 760 1262 789 1023 2544 505 1044 2191 724 330 942 971 884 686 768
is_linear=0
shrinkage=0.05


Tree=16
num_leaves=31
num_cat=0
split_feature=4 2 16 0 9 0 9 0 9 0 12 12 14 0 1 9 4 4 2 14 12 0 16 9 15 3 15 9 4 3
split_gain=40.8291 18.239 7.00792 6.71676 6.04783 6.08539 6.29011 4.71032 4.54503 4.51017 4.91628 4.18226 4.17718 4.14276 5.48904 3.88464 3.82244 3.46594 3.35464 3.30595 3.29422 3.47423 3.30649 3.18715 3.04385 2.92884 2.8614 2.57803 3.00835 2.47655
threshold=182500.00000000003 158.50000000000003 30250.000000000004 42500.000000000007 -37749.999999999993 125000.00000000001 -5124.9999999999991 75000.000000000015 4875.0000000000009 240000.00000000003 123000.00000000001 201250.00000000003 75.500000000000014 240000.00000000003 44.500000000000007 36750.000000000007 32750.000000000004 20250.000000000004 232.50000000000003 101.50000000000001 14250.000000000002 90000.000000000015 141250.00000000003 -3124.9999999999995 83.950000000000017 91.850000000000009 88.850000000000009 -5874.9999999999991 80500.000000000015 87.750000000000014
decision_type=2 2 2 2 2 2 2 2 2 2 2 2 2 2 2 2 2 2 2 2 2 2 2 2 2 2 2 2 2 2
left_child=1 2 7 11 -3 6 -6 12 -9 10 15 16 17 14 -2 20 -4 -1 -7 -12 22 -22 27 -18 -23 -16 -21 28 -5 -17
right_child=13 4 3 9 5 18 -8 8 -10 -11 19 -13 -14 -15 25 29 23 -19 -20 26 21 24 -24 -25 -26 -27 -28 -29 -30 -31
leaf_value=-0.019257255436713139 0.0040761838781964736 -0.030879159800452971 -0.0046445258215129931 -0.016666318504208282 -0.0023207132749015562 -0.0036435337960044681 0.010743887779970256 -0.029061805847333561 0.0015573691448497456 -0.011893629923885022 0.0064129119922943 0.017982881304746418 0.0046437644892391274 0.0075248599932933834 0.015817618355663018 -0.0048966991354454847 -0.0021793364776432314 -0.005935761413442364 0.0041445441890217306 -0.010342506564686249 -0.0049684611618348584 -0.023817740507162209 0.0046703089144698798 0.0072300519636397005 -0.0098773307393090273 0.023232722469792327 0.0016947895604717057 -0.0016535220392499121 0.00066539670259125748 0.016324195674991861
leaf_weight=282 205 61 506 238 312 517 1311 284 72 272 417 55 214 420 385 36 418 942 459 164 979 132 236 830 325 280 272 855 113 55
leaf_count=282 205 61 506 238 312 517 1311 284 72 272 417 55 214 420 385 36 418 942 459 164 979 132 236 830 325 280 272 855 113 55
internal_value=0.000332704 -0.000712079 -0.00194556 -0.00111384 0.00285714 0.00322239 0.00509858 -0.00468227 -0.00983146 -0.00223498 -0.00179226 0.00142344 -0.00340751 0.00872093 0.0106897 -0.00275345 0.000997719 -0.00453431 0.000102459 0.00155334 -0.00307505 -0.00477019 -0.00138696 0.00248397 -0.0083698 0.0128947 -0.00149083 -0.0024461 -0.00605413 0.00741758
internal_weight=11647 10357 7697 5903 2660 2599 1623 1794 356 4094 3822 1809 1438 1290 870 2969 1754 1224 976 853 2878 1436 1442 1248 457 665 436 1206 351 91
internal_count=11647 10357 7697 5903 2660 2599 1623 1794 356 4094 3822 1809 1438 1290 870 2969 1754 1224 976 853 2878 1436 1442 1248 457 665 436 1206 351 91
is_linear=0
shrinkage=0.05


Tree=17
num_leaves=31
num_cat=0
split_feature=8 8 0 1 15 0 14 1 8 0 5 0 7 0 11 0 20 9 20 0 1 15 0 0 4 15 20 14 6 11
split_gain=40.517 16.2263 11.6407 8.43454 5.7995 6.77785 5.5942 5.35722 4.91648 4.51607 4.40774 4.05326 5.39442 3.65306 3.31797 3.15884 3.11253 3.10398 2.94981 4.24488 2.87686 2.72047 2.63054 2.60403 3.22437 2.62646 2.38778 2.96107 2.19425 2.18737
threshold=181250.00000000003 51625.000000000007 180000.00000000003 137.50000000000003 89.15000000000002 65000.000000000007 54.500000000000007 7.5000000000000009 282500.00000000006 240000.00000000003 70.500000000000014 42500.000000000007 59.150000000000006 11500.000000000002 4.5000000000000009 180000.00000000003 11.410346119856259 -8624.9999999999982 11.926661836053997 125000.00000000001 27.500000000000004 91.450000000000017 65000.000000000007 25250.000000000004 18250.000000000004 78.850000000000009 11.286659646378782 192.50000000000003 42.500000000000007 5.5000000000000009
decision_type=2 2 2 2 2 2 2 2 2 2 2 2 2 2 2 2 2 2 2 2 2 2 2 2 2 2 2 2 2 2
left_child=1 4 3 7 5 14 16 -3 15 20 -4 -8 -13 -9 23 -2 -6 -7 19 -15 -10 -21 -5 24 -1 -26 27 -12 -24 -16
right_child=8 2 10 22 6 17 11 13 9 -11 26 12 -14 18 29 -17 -18 -19 -20 21 -22 -23 28 -25 25 -27 -28 -29 -30 -31
leaf_value=-0.03782744878232347 0.013891061778394775 -0.0089985928701014489 -0.0096961158566371344 0.014028169006986547 -0.0096969486257124128 -0.024549917235897112 0.010430432950134648 0.029848228278546787 -0.0011941538904002237 0.012338125982926856 -0.013453534988219188 0.0031848972784836631 -0.0098154585087702247 0.0014602249892754337 0.016200572429381287 0.0024341917085964407 0.0022531740687791097 -0.010359827022152998 0.010312410341830835 -0.01804919196102258 0.021286708662990112 0.0042127374721345773 -0.0082234233714228219 -0.0026112015486316441 0.001339866338276624 -0.013375482130512862 0.0046508027114321024 0.0020854416975569761 0.0057691604130168305 -0.0018143686477248998
leaf_weight=109 394 255 556 568 606 315 309 126 33 284 102 289 311 1980 74 330 154 729 371 127 472 51 74 1303 169 337 229 66 886 38
leaf_count=109 394 255 556 568 606 315 309 126 33 284 102 289 311 1980 74 330 154 729 371 127 472 51 74 1303 169 337 229 66 886 38
internal_value=0.000315532 -0.000823959 0.00105268 0.00212934 -0.00295699 -0.00424528 -0.000584182 0.000549828 0.00794779 0.0106781 -0.00396118 0.00206271 -0.000333333 0.00121469 -0.00256158 0.00497238 -0.00375 -0.00751916 0.000800712 9.26784e-05 0.0135149 -0.00730337 0.00513743 -0.00305005 -0.00573171 -0.00405138 6.29723e-05 -0.00446429 0.00354167 0.00580357
internal_weight=11647 10134 5391 4438 4743 3074 1669 2910 1513 789 953 909 600 2655 2030 724 760 1044 2529 2158 505 178 1528 1918 615 506 397 168 960 112
internal_count=11647 10134 5391 4438 4743 3074 1669 2910 1513 789 953 909 600 2655 2030 724 760 1044 2529 2158 505 178 1528 1918 615 506 397 168 960 112
is_linear=0
shrinkage=0.05


Tree=18
num_leaves=31
num_cat=0
split_feature=8 8 0 1 15 0 14 8 1 0 14 0 12 8 16 3 4 1 16 7 24 3 1 0 16 0 0 0 24 6
split_gain=36.589 14.6231 9.98411 7.57543 5.23875 6.46721 5.4921 5.20773 5.12077 3.96653 3.8401 3.34408 3.27483 3.27267 3.26159 3.24756 2.92343 2.86139 3.22827 2.7395 2.70077 2.68303 2.68075 2.63505 4.19915 2.6045 2.60256 3.25948 2.51033 2.7957
threshold=181250.00000000003 51625.000000000007 180000.00000000003 7.5000000000000009 89.15000000000002 65000.000000000007 72.500000000000014 282500.00000000006 137.50000000000003 240000.00000000003 156.50000000000003 11500.000000000002 54125.000000000007 88750.000000000015 101250.00000000001 92.750000000000014 32750.000000000004 24.500000000000004 26875.000000000004 73.40000000000002 1.0000000180025095e-35 76.550000000000011 27.500000000000004 125000.00000000001 98750.000000000015 180000.00000000003 25250.000000000004 20000.000000000004 1.0000000180025095e-35 72.500000000000014
decision_type=2 2 2 2 2 2 2 2 2 2 2 2 2 2 2 2 2 2 2 2 2 2 2 2 2 2 2 2 2 2
left_child=1 4 3 -3 5 12 17 25 11 22 -8 -5 14 -4 26 -10 -14 18 -6 -18 -21 -7 -9 -13 -25 -2 27 -1 -23 -30
right_child=7 2 13 8 6 21 10 9 15 -11 -12 23 16 -15 -16 -17 19 -19 -20 20 -22 28 -24 24 -26 -27 -28 -29 29 -31
leaf_value=-0.0097922813855899991 0.01319650868947504 -0.0085486632265963768 -0.017471842196380701 0.028355816864619444 -0.014330871399441192 -0.0060104422648219998 0.010088276106126257 -0.0011344461958802121 0.008349853404551702 0.011721219683780513 -0.00021156701414088133 0.0022491987300601321 -0.0062753210227854406 -0.0037040405298618116 0.0092594284355840013 -0.0066087625106590765 0.021413201932011169 -0.010679376256139128 0.0023865802182146687 -0.0090369691984731326 0.0084774873000403733 -0.015718696505890833 0.020222373229840607 -0.018986797956753051 0.0058704143828841333 0.0023124821231666182 -0.0041644527368370071 -0.040698450021574156 -0.034492890266793946 -0.00026314789147541956
leaf_weight=365 394 255 118 126 102 341 297 33 1456 284 392 2295 166 835 76 72 43 583 295 86 194 517 472 115 119 330 983 117 156 30
leaf_count=365 394 255 118 126 102 341 297 33 1456 284 392 2295 166 835 76 72 43 583 295 86 194 517 472 115 119 330 983 117 156 30
internal_value=0.00029836 -0.000784488 0.000997032 0.00199414 -0.0028094 -0.00403383 -0.000554224 0.00755122 0.00250418 0.0103612 0.00286647 0.00117702 -0.00238916 -0.00364638 -0.00352044 0.00481021 0.00117587 -0.00295918 0.000314861 0.00394737 0.00214286 -0.0072318 0.0130198 0.000780941 -0.0042735 0.00448895 -0.00404437 -0.00705394 -0.00899716 -0.0139785
internal_weight=11647 10134 5391 4438 4743 3074 1669 1513 4183 789 689 2655 2030 953 1541 1528 489 980 397 323 280 1044 505 2529 234 724 1465 482 703 186
internal_count=11647 10134 5391 4438 4743 3074 1669 1513 4183 789 689 2655 2030 953 1541 1528 489 980 397 323 280 1044 505 2529 234 724 1465 482 703 186
is_linear=0
shrinkage=0.05


Tree=19
num_leaves=31
num_cat=0
split_feature=8 8 0 1 1 9 0 13 8 0 5 12 3 1 0 16 4 5 0 16 1 0 10 16 7 0 16 1 0 3
split_gain=34.0955 14.2209 9.10202 6.80437 4.72078 4.50131 6.54898 4.88787 4.34734 3.71092 3.57757 3.27607 3.14585 3.13905 2.79484 3.93103 2.73048 2.67985 2.57001 2.53544 2.45456 2.36591 2.33037 2.30838 2.28655 7.33487 3.35075 3.26847 3.08932 3.38828
threshold=181250.00000000003 51625.000000000007 180000.00000000003 7.5000000000000009 137.50000000000003 -7749.9999999999991 65000.000000000007 7.5000000000000009 282500.00000000006 240000.00000000003 70.500000000000014 79750.000000000015 92.750000000000014 25.500000000000004 125000.00000000001 98750.000000000015 52250.000000000007 116.50000000000001 65000.000000000007 52250.000000000007 27.500000000000004 11500.000000000002 1.5000000000000002 54750.000000000007 74.350000000000009 90000.000000000015 69000.000000000015 59.500000000000007 25250.000000000004 61.800000000000004
decision_type=2 2 2 2 2 2 2 2 2 2 2 2 2 2 2 2 2 2 2 2 2 2 2 2 2 2 2 2 2 2
left_child=1 5 3 -3 14 6 11 -7 17 20 -4 -1 18 -8 21 -16 24 -2 22 -12 -10 -5 -6 -20 26 -26 28 -27 -9 -30
right_child=8 2 10 4 12 7 13 16 9 -11 19 -13 -14 -15 15 -17 -18 -19 23 -21 -22 -23 -24 -25 25 27 -28 -29 29 -31
leaf_value=-0.0083668651220609996 0.0079868569487421357 -0.0081212300652665579 -0.0090261080373121878 0.026938026021388475 0.0070798434088829333 -0.013167483230657147 0.0043709884088206381 -0.031678014899932348 -0.0010777238860862016 0.011135158699591486 -0.013753152544702912 0.0038792819993315381 -0.006278324385126122 -0.02248952116905837 -0.018037458058915396 0.005576893663739927 0.0085405586028055418 -0.0089987198856318739 -0.0015617495541053825 0.0023733893666625645 0.019211254568348581 0.0021367387935571254 0.018440143300662456 0.0074272012750391404 -0.0020373033941535417 -0.032397377059462211 0.0040365751725694029 -0.0093266776219724616 -0.004919270346444066 0.006002744925143317
leaf_weight=785 683 255 556 126 342 398 31 67 33 284 41 206 72 461 115 119 44 41 168 356 472 2295 214 732 1541 86 562 120 288 154
leaf_count=785 683 255 556 126 342 398 31 67 33 284 41 206 72 461 115 119 44 41 168 356 472 2295 214 732 1541 86 562 120 288 154
internal_value=0.000285481 -0.000759818 0.000997032 0.00194908 0.00243246 -0.00275669 -0.00504046 -0.00171779 0.00728685 0.00985425 -0.00343652 -0.00269929 0.0046466 -0.0097561 0.00115819 -0.00405983 -0.000995807 0.00448895 0.0051511 0.000188917 0.0124257 0.00166254 0.00782374 0.0035 -0.00118879 -0.00230395 0.000630252 -0.011165 -0.00230845 -0.000791855
internal_weight=11647 10134 5391 4438 4183 4743 1483 3260 1513 789 953 991 1528 492 2655 234 2862 724 1456 397 505 2421 556 900 2818 1747 1071 206 509 442
internal_count=11647 10134 5391 4438 4183 4743 1483 3260 1513 789 953 991 1528 492 2655 234 2862 724 1456 397 505 2421 556 900 2818 1747 1071 206 509 442
is_linear=0
shrinkage=0.05


Tree=20
num_leaves=31
num_cat=0
split_feature=8 8 16 0 0 3 0 0 15 15 12 14 8 8 1 0 2 1 12 0 4 5 3 0 5 3 6 16 12 14
split_gain=29.3831 11.019 7.63424 8.66439 5.73934 5.64648 4.28528 4.24921 4.1538 3.81485 3.63246 3.58149 3.37006 3.20113 2.96287 2.94923 3.15711 2.767 2.76278 2.57105 2.94963 3.6749 2.81787 2.56095 3.52037 2.43712 2.42686 2.42211 2.39417 3.35088
threshold=103750.00000000001 282500.00000000006 30250.000000000004 51750.000000000007 240000.00000000003 95.050000000000011 75000.000000000015 240000.00000000003 78.850000000000009 89.450000000000017 271250.00000000006 71.500000000000014 47750.000000000007 38875.000000000007 39.500000000000007 65000.000000000007 27.500000000000004 264.50000000000006 687500.00000000012 240000.00000000003 54375.000000000007 1.5000000000000002 90.550000000000011 125000.00000000001 4.5000000000000009 97.750000000000014 10.500000000000002 84375.000000000015 107750.00000000001 227.50000000000003
decision_type=2 2 2 2 2 2 2 2 2 2 2 2 2 2 2 2 2 2 2 2 2 2 2 2 2 2 2 2 2 2
left_child=2 4 6 12 5 9 11 -3 26 23 19 13 25 -1 -7 -11 -17 -9 -6 20 22 -22 -10 24 -2 -4 -5 -28 -18 -30
right_child=1 7 3 8 18 14 -8 17 10 15 -12 -13 -14 -15 -16 16 28 -19 -20 -21 21 -23 -24 -25 -26 -27 27 -29 29 -31
leaf_value=-0.012304292831206577 -0.027732493200068792 0.018519504786190251 -0.00095762243724383043 -0.00010334214673225761 -0.0033871494844878742 -0.0018378925508432287 -0.020718971496896624 0.00064090648759245481 -0.0047010848492353291 0.016654426106775616 0.00631204973708498 0.0039727400939203782 0.0068452005709933378 -0.0030099598302260433 -0.026428697026389038 -0.0026352149412446953 0.0053450969637255739 0.017669786401919976 0.010595699909050941 -0.016473774510080749 0.027249751281947922 -0.00092113365139701205 -0.013972898962300889 -0.0016949197070240342 0.0075765389118537061 0.0080232828456707293 -0.021800578795779499 0.0063862063083943241 0.017228025201860828 0.0030088268562198069
leaf_weight=761 25 495 1187 88 499 262 331 199 1295 236 181 240 976 490 33 85 534 83 26 103 28 1160 199 384 948 74 203 38 274 125
leaf_count=761 25 495 1187 88 499 262 331 199 1295 236 181 240 976 490 33 85 534 83 26 103 28 1160 199 384 948 74 203 38 274 125
internal_value=0.00026812 0.00360029 -0.00163856 -0.000714027 0.00238269 0.00325189 -0.00444566 0.00897683 -0.00234446 0.00399272 -0.0017532 -0.00330315 0.00168753 -0.0043765 -0.00330508 0.00598086 0.00481336 0.00407801 -0.00242857 -0.00219928 -0.00190157 -4.20875e-05 -0.00338019 0.00215549 0.00352004 -1.98255e-05 -0.00767477 -0.0102697 0.0056538 0.00858396
internal_weight=11562 4208 7354 5532 3431 2906 1822 777 3295 2611 2966 1491 2237 1251 295 1254 1018 282 525 2785 2682 1188 1494 1357 973 1261 329 241 933 399
internal_count=11562 4208 7354 5532 3431 2906 1822 777 3295 2611 2966 1491 2237 1251 295 1254 1018 282 525 2785 2682 1188 1494 1357 973 1261 329 241 933 399
is_linear=0
shrinkage=0.05


Tree=21
num_leaves=31
num_cat=0
split_feature=2 16 8 9 0 8 0 3 0 8 12 0 14 0 2 7 9 16 0 14 14 5 8 3 9 14 7 3 8 2
split_gain=25.0722 8.69512 8.05529 6.00495 5.94488 4.79797 5.75179 4.38817 3.74641 3.2934 3.26002 3.08639 2.83417 2.83302 3.30169 4.0284 2.82959 2.74718 4.31391 4.16537 3.46661 3.41712 2.72604 2.68164 2.66263 2.52291 2.38346 2.36944 2.17441 3.13956
threshold=185.50000000000003 30250.000000000004 207500.00000000003 -10124.999999999998 125000.00000000001 136250.00000000003 48000.000000000007 89.950000000000017 75000.000000000015 38625.000000000007 175500.00000000003 240000.00000000003 234.50000000000003 240000.00000000003 45.500000000000007 93.750000000000014 -5124.9999999999991 85625.000000000015 125000.00000000001 138.50000000000003 25.500000000000004 9.5000000000000018 68125.000000000015 83.750000000000014 4875.0000000000009 1.0000000180025095e-35 88.350000000000009 89.050000000000011 22625.000000000004 12.500000000000002
decision_type=2 2 2 2 2 2 2 2 2 2 2 2 2 2 2 2 2 2 2 2 2 2 2 2 2 2 2 2 2 2
left_child=1 8 3 22 -5 6 28 11 9 -1 16 -4 -12 14 -7 -16 -6 18 19 20 -8 -20 23 -2 -10 27 -24 -11 29 -3
right_child=2 5 7 4 10 13 17 -9 24 25 12 -13 -14 -15 15 -17 -18 -19 21 -21 -22 -23 26 -25 -26 -27 -28 -29 -30 -31
leaf_value=-0.0087667615399573493 -0.0010983945580551487 0.0052745999366568576 0.015145924218442609 0.0098082653064112037 0.013829615910573956 0.0013947244768655245 0.0024876474018225253 0.018109094283934236 -0.023918797767864177 -0.0021551208346013546 0.010755717860720391 -8.6129981989313542e-06 -0.0023517171101443226 -0.00098787895377473191 0.0071429208242459064 0.019919698191288554 -0.0035211983449662124 -0.0014580080317995365 -0.0047395931691050497 0.011898729772275072 -0.0066618542569574198 -0.018269557431872415 -0.0084843920938891433 -0.022334695741846815 -0.0011543742479029489 -0.003499378552133513 0.0091362584246661716 0.019034721904645044 0.0033257279346073894 -0.010520163662387397
leaf_weight=896 62 136 241 1052 26 442 336 355 300 50 123 159 77 261 443 80 392 1870 201 86 862 296 86 71 84 512 60 44 1702 257
leaf_count=896 62 136 241 1052 26 442 336 355 300 50 123 159 77 261 443 80 392 1870 201 86 862 296 86 71 84 512 60 44 1702 257
internal_value=0.000242173 -0.00104425 0.00445636 0.00275782 0.00389222 -0.000229489 -0.000835364 0.00884106 -0.0040562 -0.00292943 0 0.00525 0.00525 0.00261011 0.0038601 0.00654876 -0.00251196 -0.00203369 -0.00343908 -0.0019081 -0.00267112 -0.00739437 -0.00403226 -0.00921053 -0.00846354 -8.25083e-05 0.000684932 0.00744681 0.00125298 -0.00209924
internal_weight=11562 8858 2704 1949 1670 6972 5746 755 1886 1502 618 400 200 1226 965 523 418 3651 1781 1284 1198 497 279 133 384 606 146 94 2095 393
internal_count=11562 8858 2704 1949 1670 6972 5746 755 1886 1502 618 400 200 1226 965 523 418 3651 1781 1284 1198 497 279 133 384 606 146 94 2095 393
is_linear=0
shrinkage=0.05


Tree=22
num_leaves=31
num_cat=0
split_feature=19 19 0 2 0 2 16 0 3 0 20 15 20 15 4 19 14 15 2 2 9 25 3 3 3 20 20 0 15 22
split_gain=23.3027 12.0988 7.21345 6.53786 4.93571 4.38527 4.00611 4.49697 6.77836 3.77667 3.39026 3.10241 4.19982 3.04692 2.96364 2.65111 2.70408 2.62113 2.60506 2.64181 2.58057 2.48995 2.43544 3.63611 2.41271 2.40842 2.18446 2.17422 2.75482 2.58126
threshold=12.212288874652911 10.851754318576655 180000.00000000003 148.50000000000003 240000.00000000003 44.500000000000007 30250.000000000004 56750.000000000007 80.050000000000011 75000.000000000015 12.414093736268976 93.750000000000014 10.345790697832042 89.550000000000011 416250.00000000006 10.568127203354413 71.500000000000014 92.15000000000002 27.500000000000004 81.500000000000014 -12874.999999999998 1.0000000180025095e-35 91.050000000000011 82.050000000000011 93.550000000000011 8.871351472174398 13.219942948857989 33750.000000000007 73.750000000000014 3.5000000000000004
decision_type=2 2 2 2 2 2 2 2 2 2 2 2 2 2 2 2 2 2 2 2 2 2 2 2 2 2 2 2 2 2
left_child=1 6 3 21 5 -2 9 -8 -9 15 17 20 -13 -10 26 16 -1 -4 -15 -20 -5 -3 23 -18 -7 -17 -6 28 29 -22
right_child=4 2 10 11 14 24 7 8 13 -11 -12 12 -14 18 -16 25 22 -19 19 -21 27 -23 -24 -25 -26 -27 -28 -29 -30 -31
leaf_value=-0.011250740112648382 0.0014111927756538134 -0.0091402909093337009 -0.0077694178675109353 -0.0030343185267947166 -0.00060792505125853999 0.014793857749458669 0.00093015441936133915 2.1083860255581567e-05 -0.014862012559121349 -0.024969533043766812 0.0030439533714746829 0.0047104569293680183 0.019084717061977403 0.0071113785273575819 0.019932197761257719 -0.0082423546141681941 0.0087255576154783281 -0.0021444098429082002 -0.014681849588003715 -0.0018631502826890621 0.021069041603400066 0.0014962410586538189 0.011669729512596833 -0.019752996945353589 0.02565745574519834 0.0052503897374777918 0.012171197714168237 0.004020520678742528 0.015927580323203266 -0.022775310260128384
leaf_weight=761 138 138 498 204 308 504 1529 871 582 223 234 152 194 65 55 114 75 317 137 177 31 2725 23 52 135 138 46 870 242 24
leaf_count=761 138 138 498 204 308 504 1529 871 582 223 234 152 194 65 55 114 75 317 137 177 31 2725 23 52 135 138 46 870 242 24
internal_value=0.000190278 -0.00056862 0.000999289 0.0018559 0.00682968 0.00916988 -0.00242785 -0.00149509 -0.00316594 -0.00468975 -0.00274071 0.00429528 0.00852601 -0.00606139 0.00238386 -0.00354686 -0.00480241 -0.0042638 -0.00257256 -0.0044586 0.00322757 0.000392944 0.00133333 -0.00137795 0.0109155 0.000992063 0.000706215 0.00413453 0.00782828 -0.00227273
internal_weight=11562 10376 5629 4580 1186 777 4747 3361 1832 1386 1049 1717 346 961 409 1163 911 815 379 314 1371 2863 150 127 639 252 354 1167 297 55
internal_count=11562 10376 5629 4580 1186 777 4747 3361 1832 1386 1049 1717 346 961 409 1163 911 815 379 314 1371 2863 150 127 639 252 354 1167 297 55
is_linear=0
shrinkage=0.05


Tree=23
num_leaves=31
num_cat=0
split_feature=2 16 8 15 0 14 8 0 16 3 0 4 0 8 16 15 8 6 13 11 5 12 6 5 16 14 13 0 15 4
split_gain=21.8059 7.24984 6.82772 5.92177 4.96146 6.31678 4.22672 4.68765 4.27837 4.0006 3.2939 3.8263 3.20182 3.05671 2.95119 2.87089 2.77633 2.72411 2.68403 2.80445 2.61306 2.60906 2.9623 2.4762 2.39974 4.65681 4.41391 2.6953 2.36466 2.31076
threshold=185.50000000000003 30250.000000000004 207500.00000000003 89.950000000000017 125000.00000000001 342.00000000000006 39125.000000000007 51750.000000000007 55750.000000000007 89.950000000000017 240000.00000000003 178750.00000000003 75000.000000000015 51625.000000000007 186250.00000000003 93.550000000000011 38625.000000000007 58.500000000000007 61.500000000000007 2.5000000000000004 94.500000000000014 301250.00000000006 22.500000000000004 17.500000000000004 81875.000000000015 225.50000000000003 84.500000000000014 45500.000000000007 87.15000000000002 91250.000000000015
decision_type=2 2 2 2 2 2 2 2 2 2 2 2 2 2 2 2 2 2 2 2 2 2 2 2 2 2 2 2 2 2
left_child=1 12 6 4 5 13 -2 15 29 14 11 20 16 -3 18 -8 -1 -12 19 -4 24 22 23 -6 27 26 -26 -5 -14 -9
right_child=2 3 9 10 21 -7 7 8 -10 -11 17 -13 28 -15 -16 -17 -18 -19 -20 -21 -22 -23 -24 -25 25 -27 -28 -29 -30 -31
leaf_value=-0.0078219169014790597 -0.029649752510014601 -0.0025547954814048898 0.0055192924056619939 0.0032307111921477771 -0.0058633801335934745 -0.017844380291793006 0.010807896747206645 -0.017357395113477409 0.0043331001717013574 0.016493672704049639 -0.00058232823647295625 0.012439936080200709 -0.011120229893199669 0.0025346861725263356 -0.004070445271853052 0.020885595694565585 -0.00020341384745078606 -0.011968502005950326 0.014616122305223328 -0.021842350276170003 0.023888945247424534 0.0036695290747451128 -0.010173953332460609 0.016660398604923791 0.0025063477417831995 -0.0020519233280116909 0.013841863246652356 -0.0038651565999917518 -0.03294089865064035 -0.0014825289772521536
leaf_weight=896 47 1531 62 434 377 118 353 72 1206 355 197 227 298 1514 65 79 606 86 253 20 29 69 470 25 487 529 418 461 86 192
leaf_count=896 47 1531 62 434 377 118 353 72 1206 355 197 227 298 1514 65 79 606 86 253 20 29 69 470 25 487 529 418 461 86 192
internal_value=0.000211901 -0.000987808 0.00414201 -0.000243832 -0.00146199 -0.000513753 0.00257825 0.00294427 0.00159864 0.00817881 0.0014993 0.00205996 -0.00373807 -7.38916e-05 0.00475 0.00752315 -0.0026964 -0.00362191 0.00664179 -0.00121951 0.0014631 -0.00464931 -0.00538991 -0.00223881 0.00127737 0.00254533 0.00472376 -0.00075419 -0.0078125 -0.00416667
internal_weight=11562 8858 2704 6972 4104 3163 1949 1902 1470 755 2868 2585 1886 3045 400 432 1502 283 335 82 2358 941 872 402 2329 1434 905 895 384 264
internal_count=11562 8858 2704 6972 4104 3163 1949 1902 1470 755 2868 2585 1886 3045 400 432 1502 283 335 82 2358 941 872 402 2329 1434 905 895 384 264
is_linear=0
shrinkage=0.05


Tree=24
num_leaves=31
num_cat=0
split_feature=8 8 21 17 17 3 6 17 8 18 17 15 1 1 17 8 9 14 1 21 14 8 5 5 2 7 12 9 2 15
split_gain=19.9259 7.42568 5.00165 6.51223 4.87171 4.54342 3.53777 4.86324 3.62878 3.4163 3.16534 3.41365 3.03443 3.00865 2.83198 2.7425 2.74049 2.67682 2.60727 2.98724 4.31033 2.28197 2.25503 2.25064 2.27887 2.24962 2.14744 2.13302 2.17056 2.52152
threshold=101250.00000000001 282500.00000000006 10.317250371182679 10.853626954254244 12.387529566279177 95.050000000000011 9.5000000000000018 11.715666352321536 65625.000000000015 11.335491996785285 9.3492433576854399 89.450000000000017 39.500000000000007 140.50000000000003 12.387529566279177 47750.000000000007 -15374.999999999998 75.500000000000014 42.500000000000007 11.343010845011834 196.50000000000003 32750.000000000004 88.500000000000014 7.5000000000000009 27.500000000000004 93.850000000000009 687500.00000000012 -22874.999999999996 154.50000000000003 65.200000000000017
decision_type=2 2 2 2 2 2 2 2 2 2 2 2 2 2 2 2 2 2 2 2 2 2 2 2 2 2 2 2 2 2
left_child=2 4 16 15 5 10 9 18 -9 23 -2 25 -7 -10 -3 -4 -1 -18 -8 -20 21 -21 -16 24 -5 -12 -6 -17 -29 -30
right_child=1 14 3 6 26 12 7 8 13 -11 11 -13 -14 -15 22 27 17 -19 19 20 -22 -23 -24 -25 -26 -27 -28 28 29 -31
leaf_value=-0.01564405381623888 0.033007773523746751 0.015096083147275126 -2.5853245391483055e-05 -0.00080448195746069613 -0.0029175636838829413 -0.0020638887801418962 -0.0091019101954648435 -0.017904851272826632 -0.0078531628036690362 0.0080487568075185405 0.0008641999803914648 0.0078535506718305625 -0.025006577660011714 0.0084057785276444308 0.0017373140183168157 -0.015005864475249179 -0.0075593318200264398 0.0033329363361676908 -0.0036914383836828754 -0.020127365979224789 -0.0052893535828501788 0.010987110669489489 0.020042262245679496 0.0083866250841451474 -0.013044966076206047 0.012047593349645357 0.0092708138272427857 0.0047248609186130849 -0.013757197000771061 0.012761601893995642
leaf_weight=167 43 495 1261 848 500 262 392 368 238 86 1212 1261 33 74 232 47 1390 263 588 26 233 265 50 52 84 142 26 692 21 211
leaf_count=167 43 495 1261 848 500 262 392 368 238 86 1212 1261 33 74 232 47 1390 263 588 26 233 265 50 52 84 142 26 692 21 211
internal_value=0.000229199 0.00294878 -0.00135505 -0.000601531 0.00196177 0.00275144 -0.00202827 -0.00318223 -0.00669118 0.000327103 0.00340482 0.00318356 -0.00313559 -0.00272436 0.00736808 0.00147849 -0.00362637 -0.00300968 -0.00159574 -0.000359712 0.0023855 0.0064433 0.00336879 -0.00050813 -0.00107296 0.00144018 -0.00247148 0.0034758 0.00400433 0.00818966
internal_weight=11562 4256 7306 5486 3479 2953 3254 2184 680 1070 2658 2615 295 312 777 2232 1820 1653 1504 1112 524 291 282 984 932 1354 526 971 924 232
internal_count=11562 4256 7306 5486 3479 2953 3254 2184 680 1070 2658 2615 295 312 777 2232 1820 1653 1504 1112 524 291 282 984 932 1354 526 971 924 232
is_linear=0
shrinkage=0.05


Tree=25
num_leaves=31
num_cat=0
split_feature=8 8 17 22 17 12 14 17 12 17 12 17 8 5 6 9 7 4 5 12 2 7 14 1 7 5 12 17 13 1
split_gain=19.494 7.71411 9.73548 4.58069 4.989 5.90334 4.26967 3.84475 3.78356 3.76893 3.64013 4.23404 3.38407 3.35944 3.34932 3.27411 4.20912 3.152 2.77386 2.70385 2.68274 3.87614 2.62657 2.77444 2.58615 2.57035 3.46479 3.08085 2.55326 2.46941
threshold=181250.00000000003 51625.000000000007 12.387529566279177 2.5000000000000004 10.655549861755675 116250.00000000001 67.500000000000014 10.380552654562711 730000.00000000012 12.086632405657936 121250.00000000001 11.401364939249063 5125.0000000000009 6.5000000000000009 23.500000000000004 -7749.9999999999991 93.750000000000014 395000.00000000006 20.500000000000004 301250.00000000006 47.500000000000007 94.550000000000011 61.500000000000007 182.50000000000003 99.40000000000002 38.500000000000007 306250.00000000006 12.086632405657936 65.500000000000014 66.500000000000014
decision_type=2 2 2 2 2 2 2 2 2 2 2 2 2 2 2 2 2 2 2 2 2 2 2 2 2 2 2 2 2 2
left_child=1 6 3 25 -5 -6 10 12 9 20 11 22 -8 -13 -14 -9 -17 24 -7 -4 28 -22 23 -1 -11 26 -3 -27 -2 -16
right_child=8 2 19 4 5 18 7 15 -10 17 -12 13 14 -15 29 16 -18 -19 -20 -21 21 -23 -24 -25 -26 27 -28 -29 -30 -31
leaf_value=-0.0044183851948049382 -0.0057604770347032047 0.001502937878235658 -0.0091101637491895152 0.0062945801921767885 -0.0056185719556248442 -0.0058128084880339761 0.020046274645500146 -0.0091393949956642077 0.014284414693806575 0.00055557507357019171 0.0035640870250633495 -0.0057476064377583666 -0.0028108586558198453 -0.027764438007869652 0.01028488779908291 0.0010681317005964482 -0.012421123444824954 0.013977964770708041 0.0065552123797736235 0.0022724158013442972 0.013836490631338539 0.023894037922025015 -0.019305374641214748 -0.032647586712459757 0.01275826380080336 0.0085260867040587631 0.012776568116917958 -0.0019145924143513073 0.010806827553011723 0.0043558510660304996
leaf_weight=1918 87 1277 406 742 1130 67 79 415 54 625 279 129 348 158 143 864 141 123 391 102 423 103 78 39 25 1085 42 209 110 185
leaf_count=1918 87 1277 406 742 1130 67 79 415 54 625 279 129 348 158 143 864 141 123 391 102 423 103 78 39 25 1085 42 209 110 185
internal_value=0.000290821 -0.000501124 0.00078426 0.00146166 -0.000150215 -0.00173174 -0.00196817 -0.000333333 0.00551613 0.00504679 -0.00333526 -0.00398363 0.00254967 -0.00966899 0.00140533 -0.0018662 -0.000323383 0.00261966 0.00305677 -0.00580709 0.00764177 0.0095057 -0.00318182 -0.0028232 0.00123077 0.00289897 0.00134572 0.00448223 0.00266497 0.00503049
internal_weight=11777 10227 5451 4943 2330 1588 4776 2175 1550 1496 2601 2322 755 287 676 1420 1005 773 458 508 723 526 2035 1957 650 2613 1319 1294 197 328
internal_count=11777 10227 5451 4943 2330 1588 4776 2175 1550 1496 2601 2322 755 287 676 1420 1005 773 458 508 723 526 2035 1957 650 2613 1319 1294 197 328
is_linear=0
shrinkage=0.05


Tree=26
num_leaves=31
num_cat=0
split_feature=8 8 0 1 0 8 16 0 0 5 7 0 3 7 12 2 7 2 22 8 7 2 12 13 12 6 12 13 3 4
split_gain=18.6855 7.04682 8.53095 4.27719 3.70914 3.54425 3.49264 6.42531 4.25487 3.45495 3.42542 3.36411 3.03663 3.03361 3.03155 2.92915 3.70679 2.89817 2.7602 2.72036 3.11798 2.70321 2.68564 2.55326 2.54753 2.538 2.48959 2.42338 2.41539 2.17982
threshold=181250.00000000003 51625.000000000007 240000.00000000003 25.500000000000004 42500.000000000007 93750.000000000015 85625.000000000015 90000.000000000015 32250.000000000004 4.5000000000000009 79.850000000000009 180000.00000000003 94.15000000000002 85.050000000000011 752500.00000000012 47.500000000000007 94.550000000000011 52.500000000000007 3.5000000000000004 437500.00000000006 99.40000000000002 26.500000000000004 54125.000000000007 65.500000000000014 95750.000000000015 98.500000000000014 137750.00000000003 295.50000000000006 70.65000000000002 113750.00000000001
decision_type=2 2 2 2 2 2 2 2 2 2 2 2 2 2 2 2 2 2 2 2 2 2 2 2 2 2 2 2 2 2
left_child=1 6 3 18 25 -6 7 22 26 24 -10 15 13 -7 19 23 -17 -12 -3 20 -13 28 -1 -2 -9 -5 -8 -4 -20 -30
right_child=11 2 27 4 5 12 8 9 10 -11 17 14 -14 -15 -16 16 -18 -19 21 -21 -22 -23 -24 -25 -26 -27 -28 -29 29 -31
leaf_value=-0.0047117947339784536 -0.005472453182968043 0.0021942808169153039 -0.0086091035983645314 0.0070183066897507255 -0.0019377020592477902 -0.00028591265265387608 0.0096778049208599906 -0.014753267876720473 0.0019630087204270149 -0.025218334660977049 -0.016449428481391998 7.5773502122306049e-05 -0.0054876806057052576 0.0052696944726843657 0.012523671200689444 0.013164937992910217 0.022149864647597346 -0.0041917793388505341 -0.016355168006470956 0.011656681902405231 0.012120350610763192 -0.024667480274876915 0.0012701857896913584 0.010266486175361137 0.0025160528517497384 0.030317567694467341 0.036564388968427806 0.001368657295030848 0.0011039541253946663 -0.015822716794268839
leaf_weight=2255 87 519 415 997 933 537 162 147 572 249 143 585 126 1362 41 432 104 302 49 164 27 39 851 110 72 68 23 93 218 95
leaf_count=2255 87 519 415 997 933 537 162 147 572 249 143 585 126 1362 41 432 104 302 49 164 27 39 851 110 72 68 23 93 218 95
internal_value=0.000303558 -0.00047179 0.000756742 0.00139086 0.00209421 0.00118323 -0.00187395 -0.00265809 0.000457571 -0.00811966 -0.000811209 0.00541935 0.00235802 0.00285677 0.00321297 0.00787858 0.00979478 -0.00410112 -0.00168478 0.00251289 0.000980392 -0.0048005 -0.00183516 0.00266497 -0.00353881 0.00462441 0.00743243 -0.00541339 -0.00345304 -0.00183706
internal_weight=11777 10227 5451 4943 4023 2958 4776 3574 1202 468 1017 1550 2025 1899 817 733 536 445 920 776 612 401 3106 197 219 1065 185 508 362 313
internal_count=11777 10227 5451 4943 4023 2958 4776 3574 1202 468 1017 1550 2025 1899 817 733 536 445 920 776 612 401 3106 197 219 1065 185 508 362 313
is_linear=0
shrinkage=0.05


Tree=27
num_leaves=31
num_cat=0
split_feature=8 0 16 8 1 14 8 8 0 14 0 13 2 7 16 3 12 12 1 14 16 22 7 14 14 4 14 1 2 14
split_gain=16.5899 6.48163 8.04878 7.25109 5.44094 3.4938 5.39251 3.80565 3.40081 3.36661 3.21682 3.08607 3.04069 3.61323 2.89909 3.31686 2.73847 2.62796 2.4948 2.48152 2.43927 2.40757 3.0831 3.64583 2.36599 2.19603 2.45392 2.17617 2.41006 2.2579
threshold=181250.00000000003 125000.00000000001 84375.000000000015 51625.000000000007 33.500000000000007 67.500000000000014 5125.0000000000009 21125.000000000004 240000.00000000003 61.500000000000007 180000.00000000003 1.0000000180025095e-35 47.500000000000007 94.550000000000011 181250.00000000003 88.050000000000011 112750.00000000001 752500.00000000012 184.50000000000003 212.00000000000003 42375.000000000007 2.5000000000000004 83.65000000000002 445.00000000000006 208.50000000000003 197500.00000000003 217.50000000000003 74.500000000000014 113.50000000000001 26.500000000000004
decision_type=2 2 2 2 2 2 2 2 2 2 2 2 2 2 2 2 2 2 2 2 2 2 2 2 2 2 2 2 2 2
left_child=1 3 11 5 -5 9 -7 -8 14 16 12 -3 25 27 -4 -16 18 -12 -1 24 -13 22 -21 -24 -6 -2 -27 -14 -29 -30
right_child=10 2 8 4 19 6 7 -9 -10 -11 17 20 13 -15 15 -17 -18 -19 -20 21 -22 -23 23 -25 -26 26 -28 28 29 -31
leaf_value=-0.0044762049972795299 0.012091996190617172 0.00668172011520482 -0.00015267673671445314 -0.0015617922546090888 0.0058342724192662057 0.012272146744159258 -0.010394874082832356 0.00089608797807841443 -0.0060086016591014762 -0.015903905010814141 0.0032600505263446823 -0.024011908346356026 0.026322125677410303 0.021042371415217476 0.0038250922928892484 0.017728779634186221 0.0053293593411448629 0.011897487640654972 -0.036723292852754032 0.017840606036045675 -0.0079474052232247124 -0.0073465978304449791 -0.0021382413535502402 0.016264259290506785 0.025225282829516377 -0.0029890315561301841 0.013518532352455129 -0.0061993531942643194 0.027959307131974722 0.010813253416210184
leaf_weight=1939 48 49 940 1082 2359 124 232 1230 440 92 776 192 22 104 149 38 195 41 34 42 633 244 168 24 21 121 28 42 37 331
leaf_count=1939 48 49 940 1082 2359 124 232 1230 440 92 776 192 22 104 149 38 195 41 34 42 633 244 168 24 21 121 28 42 37 331
internal_value=0.00024412 -0.000486457 -0.00273454 0.000218341 0.00172589 -0.00132605 0.000472888 -0.000376197 -0.0005903 -0.0025885 0.00506452 -0.00657895 0.0074693 0.00942164 0.000865129 0.0065508 -0.00219096 0.00290698 -0.00274962 0.00286914 -0.00730303 -0.00041841 0.00320513 0.000520833 0.00352941 0.00215736 -0.000838926 0.00740741 0.00658537 0.00788043
internal_weight=11777 10227 2441 7786 3940 3846 1586 1462 1567 2260 1550 874 733 536 1127 187 2168 817 1973 2858 825 478 234 192 2380 197 149 432 410 368
internal_count=11777 10227 2441 7786 3940 3846 1586 1462 1567 2260 1550 874 733 536 1127 187 2168 817 1973 2858 825 478 234 192 2380 197 149 432 410 368
is_linear=0
shrinkage=0.05


Tree=28
num_leaves=31
num_cat=0
split_feature=8 5 22 12 0 0 21 9 8 21 0 14 15 1 2 1 2 5 8 8 4 0 15 1 0 9 12 21 13 5
split_gain=13.7756 6.22148 5.25817 4.81738 7.11701 4.22741 5.09617 4.33228 4.0257 3.60859 3.24384 3.23552 2.60198 2.68632 2.59018 3.47591 3.17997 2.55648 2.85427 3.55899 2.49477 2.6698 2.82196 3.33115 2.54263 3.0919 2.45395 2.4498 2.44737 2.42505
threshold=181250.00000000003 89.500000000000014 2.5000000000000004 121250.00000000001 45500.000000000007 125000.00000000001 10.2488449780829 -39874.999999999993 128750.00000000001 11.343010845011834 180000.00000000003 12.500000000000002 63.850000000000009 189.50000000000003 47.500000000000007 73.500000000000014 113.50000000000001 37.500000000000007 7750.0000000000009 19125.000000000004 93750.000000000015 25250.000000000004 87.450000000000017 76.500000000000014 25750.000000000004 1875.0000000000002 42750.000000000007 10.946341222319637 11.500000000000002 35.500000000000007
decision_type=2 2 2 2 2 2 2 2 2 2 2 2 2 2 2 2 2 2 2 2 2 2 2 2 2 2 2 2 2 2
left_child=1 2 5 4 20 6 -1 -8 -3 11 14 -7 -12 -14 -2 -16 -17 18 -9 26 21 22 -4 -24 -23 28 -20 -6 -26 -13
right_child=10 8 3 -5 27 9 7 17 -10 -11 12 29 13 -15 15 16 -18 -19 19 -21 -22 24 23 -25 25 -27 -28 -29 -30 -31
leaf_value=-0.0047623437105697181 0.0025641293417040731 0.01889204997735032 -0.011476040076337133 0.0018049232108972415 -0.011028261508490001 0.0095978845841089358 -0.017226073866425728 0.0074136399497930329 0.0016320317849316146 4.5676133308486524e-05 -0.013191479167119652 -0.0059803278053941894 -0.00034126645573185461 0.008341907705530489 0.025346988996663461 -0.0060433156814499213 0.013636932184732978 0.0072766827118426807 -0.012450323970886369 0.0024506026624455885 0.011126692240402723 0.010342648643622774 -0.0061228140641878016 0.020353881221636158 -0.014348808202823469 0.0036520496523416504 0.0025019470775364304 -0.005524219923125951 -3.1639545494063785e-05 -0.013845065563869153
leaf_weight=775 197 156 425 865 640 37 46 118 283 820 28 274 284 505 37 43 456 1040 110 1680 224 46 167 72 171 219 61 1256 565 177
leaf_count=775 197 156 425 865 640 37 46 118 283 820 28 274 284 505 37 43 456 1040 110 1680 224 46 167 72 171 219 61 1256 565 177
internal_value=0.000252611 -0.000413122 -0.000674295 -0.00189247 -0.00266182 0.000428182 0.00126632 0.00218494 0.00541002 -0.00202599 0.00464516 -0.00543033 0.00247858 0.00301014 0.00706003 0.00886194 0.00776553 0.00241775 0.00135856 0.000877904 -0.000489677 -0.00115616 -0.00361446 0.000732218 0.000474525 -7.8534e-05 -0.00599415 -0.00482595 -0.00163043 -0.00659645
internal_weight=11777 10227 9788 4650 3785 5138 3830 3055 439 1308 1550 488 817 789 733 536 499 3009 1969 1851 1889 1665 664 239 1001 955 171 1896 736 451
internal_count=11777 10227 9788 4650 3785 5138 3830 3055 439 1308 1550 488 817 789 733 536 499 3009 1969 1851 1889 1665 664 239 1001 955 171 1896 736 451
is_linear=0
shrinkage=0.05


Tree=29
num_leaves=31
num_cat=0
split_feature=19 5 22 0 20 0 16 9 19 0 19 16 14 6 5 15 1 5 2 1 2 7 14 14 0 7 20 1 1 4
split_gain=12.6444 5.57488 4.71828 4.17725 6.51002 3.71931 4.79433 4.41699 3.52631 3.22401 3.11985 2.95984 3.0065 2.79299 2.72268 2.55963 2.51414 2.46842 2.44803 3.56418 3.08267 2.384 2.3439 2.64873 2.21978 2.34388 2.21802 2.2152 2.29864 2.19603
threshold=12.107614308427101 89.500000000000014 2.5000000000000004 45500.000000000007 11.663449113064095 125000.00000000001 27875.000000000004 -37749.999999999993 11.765588454201472 180000.00000000003 9.9582422833441466 84375.000000000015 12.500000000000002 122.50000000000001 35.500000000000007 63.850000000000009 189.50000000000003 116.50000000000001 47.500000000000007 73.500000000000014 113.50000000000001 97.600000000000009 26.500000000000004 57.500000000000007 75000.000000000015 86.450000000000017 12.39099576662624 43.500000000000007 54.500000000000007 197500.00000000003
decision_type=2 2 2 2 2 2 2 2 2 2 2 2 2 2 2 2 2 2 2 2 2 2 2 2 2 2 2 2 2 2
left_child=1 2 5 10 -5 6 -1 -8 13 18 27 12 -7 -3 -14 -11 -17 -18 29 -20 -21 22 -22 -24 25 -10 -12 -4 -29 -2
right_child=9 8 3 4 -6 11 7 -9 24 15 26 -13 14 -15 -16 16 17 -19 19 20 21 -23 23 -25 -26 -27 -28 28 -30 -31
leaf_value=-0.0045414340063493017 0.01135918991400111 0.022673938146992187 -0.0044660341865193024 -0.0073891965560525241 0.0010437219361683519 0.009117990354903488 -0.014371283167423188 0.0037284573698422364 -0.010375416091892539 -0.012531905208763669 0.00054583680580660803 4.3392326643062249e-05 -0.0056813114151244813 0.0036493087859460205 -0.013152812285675695 -0.00032420313294526207 0.0091359153612013931 -0.0063315292287653112 0.024079639546830289 -0.0057411498973774233 0.0261708816618649 0.024026960255147934 -0.0050185857220935663 0.011293399739789061 -0.0019501725277619863 0.025798346820825203 0.013313363084632535 -0.039288525359653791 -0.021362681559697075 -0.00067552272057056222
leaf_weight=764 48 95 360 1848 729 37 49 3017 20 28 1601 820 274 61 177 284 468 37 37 43 41 46 47 322 212 51 29 22 61 149
leaf_count=764 48 95 360 1848 729 37 49 3017 20 28 1601 820 274 61 177 284 468 37 37 43 41 46 47 322 212 51 29 22 61 149
internal_value=0.000307803 -0.000330009 -0.000577237 -0.00173118 -0.00307528 0.000467108 0.00125326 0.00213633 0.00518223 0.00451613 -6.02991e-05 -0.00183486 -0.00491803 0.0112179 -0.00604213 0.00235618 0.0028834 0.005 0.0069236 0.00867537 0.00756513 0.00877193 0.00756098 0.00630081 0.00185512 0.00950704 0.00095092 -0.00378104 -0.0111446 0.00215736
internal_weight=11777 10227 9788 4650 2577 5138 3830 3066 439 1550 2073 1308 488 156 451 817 789 505 733 536 499 456 410 369 283 71 1630 443 83 197
internal_count=11777 10227 9788 4650 2577 5138 3830 3066 439 1550 2073 1308 488 156 451 817 789 505 733 536 499 456 410 369 283 71 1630 443 83 197
is_linear=0
shrinkage=0.05


Tree=30
num_leaves=31
num_cat=0
split_feature=1 7 16 0 12 0 9 0 7 13 5 4 0 8 12 14 4 6 8 12 13 16 14 3 16 0 12 7 7 14
split_gain=10.8546 5.01843 4.53729 4.13177 3.97683 4.68182 3.7848 3.60549 3.45685 3.20367 2.82153 4.18263 2.88544 2.71428 2.60017 3.21539 2.54218 3.92336 3.66405 2.39827 2.39685 2.36046 2.33417 2.22563 2.43098 2.17915 2.07683 1.94579 2.10739 1.94218
threshold=137.50000000000003 98.700000000000003 30250.000000000004 125000.00000000001 301250.00000000006 180000.00000000003 35250.000000000007 11500.000000000002 85.15000000000002 94.500000000000014 4.5000000000000009 101250.00000000001 240000.00000000003 211250.00000000003 128750.00000000001 269.50000000000006 153750.00000000003 42.500000000000007 148750.00000000003 121250.00000000001 56.500000000000007 163750.00000000003 64.500000000000014 92.450000000000017 85625.000000000015 75000.000000000015 7125.0000000000009 89.550000000000011 88.350000000000009 75.500000000000014
decision_type=2 2 2 2 2 2 2 2 2 2 2 2 2 2 2 2 2 2 2 2 2 2 2 2 2 2 2 2 2 2
left_child=2 4 6 13 5 7 25 -2 -9 21 -5 22 -13 19 27 -16 17 -10 23 -4 -21 -7 -12 -19 -25 26 -1 28 -11 -28
right_child=1 -3 3 10 -6 9 -8 8 16 14 11 12 -14 -15 15 -17 -18 18 -20 20 -22 -23 -24 24 -26 -27 29 -29 -30 -31
leaf_value=-0.0097678410497344589 0.024541199243976849 0.022825612242390537 -0.00013473485367178212 0.00019934436123015964 0.0090437340876267699 -0.0092681459248478652 0.012096437302783059 -0.00029094290978704597 -0.01901057180207022 0.0021016408214677763 -0.019879559647911587 0.0023815634494285531 -0.0055231397727854657 0.011224108326699421 0.0027305808655803698 -0.012755101270884479 0.01066170432240837 0.011273945831027823 -0.0011262120453094466 0.01187808372643856 0.0012085429109514592 0.0054341089377479201 -0.0077508336539326844 -0.023759137199383842 0.009610168294636871 -0.014297889486612054 -0.0038766408865829206 0.0078915943106888115 -0.0097879325797801172 0.0069492334649153102
leaf_weight=666 63 44 3865 637 441 283 49 708 96 103 143 327 294 106 106 72 304 575 293 250 474 61 316 32 22 346 660 157 33 131
leaf_count=666 63 44 3865 637 441 283 49 708 96 103 143 327 294 106 106 72 304 575 293 250 474 61 316 32 22 346 660 157 33 131
internal_value=0.000160848 0.002542 -0.000816796 -0.000187149 0.00232159 0.00165062 -0.00299676 0.00290253 0.00253695 -0.00156442 -0.00228596 -0.00384259 -0.00116747 0.000580405 0.00111465 -0.00365169 0.0040469 0.00284872 0.00385033 0.00039769 0.00303867 -0.00523256 -0.00746187 0.00600159 -0.0037037 -0.00336938 -0.00252231 0.00401024 -0.000367647 -0.000790139
internal_weight=11657 3393 8264 6412 3349 2908 1852 2093 2030 815 1717 1080 621 4695 471 178 1322 1018 922 4589 724 344 459 629 54 1803 1457 293 136 791
internal_count=11657 3393 8264 6412 3349 2908 1852 2093 2030 815 1717 1080 621 4695 471 178 1322 1018 922 4589 724 344 459 629 54 1803 1457 293 136 791
is_linear=0
shrinkage=0.05


Tree=31
num_leaves=31
num_cat=0
split_feature=1 22 0 12 0 12 18 0 15 21 18 12 6 0 15 21 5 5 3 18 12 7 21 13 15 24 3 21 14 7
split_gain=9.03961 4.66192 4.10704 3.88591 4.69123 3.82087 3.58959 3.54744 3.2584 2.95911 2.93444 2.78703 2.77785 2.7634 2.47595 3.79491 2.39604 3.36449 2.26314 2.45134 2.23495 2.52911 2.15872 2.11874 2.08388 2.06223 2.03354 2.30022 2.33996 2.23435
threshold=137.50000000000003 2.5000000000000004 125000.00000000001 301250.00000000006 180000.00000000003 35250.000000000007 11.959186966963749 11500.000000000002 82.15000000000002 11.110551764819936 10.963886574348901 21125.000000000004 42.500000000000007 37000.000000000007 94.450000000000017 10.208237339001711 50.500000000000007 66.500000000000014 85.850000000000009 11.273920266030949 154375.00000000003 82.950000000000017 10.385165233285182 209.50000000000003 69.15000000000002 1.0000000180025095e-35 89.450000000000017 10.430455270210922 59.500000000000007 65.15000000000002
decision_type=2 2 2 2 2 2 2 2 2 2 2 2 2 2 2 2 2 2 2 2 2 2 2 2 2 2 2 2 2 2
left_child=1 2 10 4 6 25 7 -2 -6 -4 -1 -11 -9 22 -14 -16 -5 23 20 -20 21 -13 24 -18 -7 -3 29 -28 -29 -27
right_child=3 5 9 16 8 13 -8 12 -10 11 -12 18 14 -15 15 -17 17 -19 19 -21 -22 -23 -24 -25 -26 26 27 28 -30 -31
leaf_value=-6.1471009069151945e-05 0.02406961992003194 -0.0095189801659748257 -0.014917712401378125 0.012317799899410217 -0.011900587538238309 0.011990950178000465 0.010264980080345263 -0.014709092550870674 -0.00034757380475854659 0.0031004153562546144 0.0047623644163529363 -0.0099884601094602024 0.0026040222282619585 -0.0025118266987392544 -0.025477772998282289 0.017353141126355033 0.0057262072838496214 0.010904107769750459 -0.024676068728957203 -0.0065812903726695272 0.0055364254950081406 0.011070224123202854 0.0074149805957824388 -0.015397624383044473 -0.0077255452904394818 0.00089149756561684448 -0.008656508991371761 0.0085474813621578081 -0.0010697923758178928 -0.0093736091675236111
leaf_weight=1868 62 814 239 74 95 27 364 154 724 341 1429 119 1324 1279 21 197 38 318 27 184 131 28 348 22 114 251 145 110 151 659
leaf_count=1868 62 814 239 74 95 27 364 154 724 341 1429 119 1324 1279 21 197 38 318 27 184 131 28 348 22 114 251 145 110 151 659
internal_value=0.00014798 -0.000744192 0.00037792 0.00232095 0.0016576 -0.00200103 0.00289821 0.00196246 -0.00155678 -0.00231525 0.00125114 -0.000903614 0.00153302 -0.000282805 0.0021725 0.00711009 0.00663717 0.00502646 -0.00332311 -0.00722749 -0.000359712 -0.00459184 0.00291411 -0.00583333 -0.00230496 -0.00342723 -0.00220365 0.000738916 0.00354406 -0.00351648
internal_weight=11657 8264 4366 3393 2941 3898 2122 1758 819 1069 3297 830 1696 1768 1542 218 452 378 489 211 278 147 489 60 141 2130 1316 406 261 910
internal_count=11657 8264 4366 3393 2941 3898 2122 1758 819 1069 3297 830 1696 1768 1542 218 452 378 489 211 278 147 489 60 141 2130 1316 406 261 910
is_linear=0
shrinkage=0.05


Tree=32
num_leaves=31
num_cat=0
split_feature=8 0 12 1 0 21 12 12 22 21 3 12 6 21 0 10 14 15 3 15 3 3 5 10 14 8 4 24 1 8
split_gain=9.42342 4.88991 5.66618 3.85466 3.60607 5.50935 4.64004 3.56326 3.16761 2.93854 2.48586 2.36866 2.26935 2.94469 2.86348 2.75268 2.36578 3.87669 2.25954 2.13295 2.08821 2.04901 1.98818 1.93389 1.90113 2.21704 1.89157 1.87002 1.80034 2.74063
threshold=88750.000000000015 240000.00000000003 316250.00000000006 26.500000000000004 75000.000000000015 11.343010845011834 31125.000000000004 687500.00000000012 2.5000000000000004 11.705564913630852 96.500000000000014 117750.00000000001 24.500000000000004 11.312932050634993 65000.000000000007 2.5000000000000004 269.50000000000006 91.750000000000014 91.850000000000009 84.450000000000017 80.950000000000017 91.15000000000002 18.500000000000004 2.5000000000000004 97.500000000000014 398750.00000000006 91250.000000000015 1.0000000180025095e-35 21.500000000000004 19875.000000000004
decision_type=2 2 2 2 2 2 2 2 2 2 2 2 2 2 2 2 2 2 2 2 2 2 2 2 2 2 2 2 2 2
left_child=4 2 3 23 6 11 8 24 9 -1 27 28 22 14 18 -16 20 -18 26 -13 -15 -19 -5 -2 25 -3 -14 -10 -6 -30
right_child=1 7 -4 12 5 -7 -8 -9 10 -11 -12 19 13 16 15 -17 17 21 -20 -21 -22 -23 -24 -25 -26 -27 -28 -29 29 -31
leaf_value=-0.00068724025644774096 -0.00088304898135651568 -0.01016717924590764 0.011598166805305045 0.004757553109454157 -0.0042494001054711661 -0.00019714533456642038 0.0020762241252341375 0.0094313300124167672 -0.014337517838503129 0.011608657935250188 0.0051935142633153962 -0.013617578369008341 -0.005642209103965754 0.011950528684060891 0.00019030501639564213 -0.0074137854699294573 0.011566737746710493 -0.00038527572025782129 -0.0063023434373230608 0.0034173181145758383 0.0070214333585838264 -0.016868231203389445 0.014225221282265147 -0.00937140813980397 -0.00059482147540622788 0.013731140559447241 0.015610598364722079 -0.0050570481080395649 -0.039715639711091884 -0.012156674321281091
leaf_weight=1143 515 224 353 161 299 1085 1844 63 324 73 119 103 47 49 650 176 150 128 82 94 1235 92 77 112 581 36 293 888 41 620
leaf_count=1143 515 224 353 161 299 1085 1844 63 324 73 119 103 47 49 650 176 150 128 82 94 1235 92 77 112 581 36 293 888 41 620
internal_value=0.00014798 0.00178145 0.00251214 0.00194452 -0.00108925 -0.00272079 -0.000256206 -0.00154867 -0.00163918 0.000205592 -0.00332457 -0.005121 0.00265924 0.00227429 0.000440705 -0.00127119 0.0036578 0.000135135 0.00379147 -0.000126904 0.0046729 -0.00409091 0.00735294 -0.00163477 -0.00240785 -0.00596154 0.00558824 -0.00400165 -0.00614583 -0.00760212
internal_weight=11657 5024 4120 3767 6633 2242 4391 904 2547 1216 1331 1157 3140 2902 1248 826 1654 370 422 197 1284 220 238 627 841 260 340 1212 960 661
internal_count=11657 5024 4120 3767 6633 2242 4391 904 2547 1216 1331 1157 3140 2902 1248 826 1654 370 422 197 1284 220 238 627 841 260 340 1212 960 661
is_linear=0
shrinkage=0.05


Tree=33
num_leaves=31
num_cat=0
split_feature=8 0 12 2 12 0 6 22 7 12 3 0 16 14 14 12 10 14 2 2 9 16 9 16 6 14 14 7 14 14
split_gain=8.49705 4.76093 4.6425 3.57111 3.53094 3.40374 5.73046 3.85398 2.87172 2.8138 2.56419 2.54076 3.29361 2.50701 3.8538 2.55339 2.48716 2.3939 2.35855 3.1581 2.26269 2.25911 2.1836 2.55601 2.08722 2.05535 2.88283 3 2.02044 1.87532
threshold=88750.000000000015 240000.00000000003 321250.00000000006 19.500000000000004 1025000.0000000001 125000.00000000001 7.5000000000000009 2.5000000000000004 98.700000000000003 32125.000000000004 96.500000000000014 33750.000000000007 81875.000000000015 107.50000000000001 268.00000000000006 240625.00000000003 1.0000000180025095e-35 347.50000000000006 227.50000000000003 186.50000000000003 -2624.9999999999995 7750.0000000000009 17250.000000000004 74375.000000000015 21.500000000000004 388.00000000000006 435.50000000000006 93.050000000000011 316.50000000000006 452.50000000000006
decision_type=2 2 2 2 2 2 2 2 2 2 2 2 2 2 2 2 2 2 2 2 2 2 2 2 2 2 2 2 2 2
left_child=5 2 3 16 22 7 -7 18 11 10 -9 -5 21 15 -15 -8 -2 -11 19 -1 -12 -13 28 -24 -10 -14 27 -27 -3 -28
right_child=1 4 -4 8 -6 6 13 9 24 17 20 12 25 14 -16 -17 -18 -19 -20 -21 -22 -23 23 -25 -26 26 29 -29 -30 -31
leaf_value=0.0010562127834745046 0.0030342892923863034 -0.006407500498960929 0.01116462553618707 0.013728417521735604 0.024333312969004296 -0.00073817935638562093 -0.020177461257285659 -0.0075334082938104709 0.0047210221532392876 0.00042512840178011161 0.024451601725238876 0.0070335308349083071 0.0057295612111552463 0.00092619460765995261 -0.017947159864981632 0.0085665234407945844 -0.0074087228838470758 -0.016878120158154597 -0.017189987396187375 0.0090736882402527846 -0.001078628282324634 -0.0011576301861129373 -0.013073497030499754 0.0051659889424176394 0.013898398731755291 -0.023912379118427737 0.017387668618073088 0.0060353348304950875 0.0012120992905288821 -0.0049839753848860135
leaf_weight=2586 190 424 331 403 22 664 250 1418 55 1131 39 62 1536 155 75 21 235 39 40 116 99 1089 27 332 60 64 30 32 99 33
leaf_count=2586 190 424 331 403 22 664 250 1418 55 1131 39 62 1536 155 75 21 235 39 40 116 99 1089 27 332 60 64 30 32 99 33
