tree
version=v4
num_class=1
num_tree_per_iteration=1
label_index=0
max_feature_idx=27
objective=quantile
feature_names=session_median_price sire_sold_count_36m sire_total_offered_36m sire_clearance_rate_36m sire_median_price_36m sire_sold_count_12m sire_total_offered_12m sire_clearance_rate_12m sire_median_price_12m sire_momentum dam_progeny_sold_count dam_progeny_total_offered_count dam_progeny_median_price vendor_sold_count_36m vendor_total_offered_36m vendor_clearance_rate_36m vendor_median_price_36m log_session_median_price log_sire_median_price_36m log_sire_median_price_12m log_dam_progeny_median_price log_vendor_median_price_36m sex_encoded vendor_volume_bucket_encoded sale_company_encoded sire_sample_flag_36m dam_first_foal_flag vendor_first_seen_flag
feature_infos=[1500:220000] [0:107] [0:110] [0:100] [0:475000] [0:67] [0:69] [0:100] [0:475000] [-35000:80000] [0:3] [0:3] [0:2000000] [0:87] [0:90] [0:100] [0:4300000] [7.3138868316334618:12.301387370778713] [0:13.07107218827772] [0:13.07107218827772] [0:14.508658238524095] [0:15.274125813221904] [0:4] [0:3] none [0:1] [0:1] [0:1]
tree_sizes=2742 2821 2828 2810 2829 2837 2811 2822 2819 2831 2836 2826 2852 2836 2839 2834 2839 2840 2832 2835 2825 2837 2828

Tree=0
num_leaves=31
num_cat=0
split_feature=4 6 0 2 0 2 16 4 2 6 16 12 0 15 16 13 4 16 16 8 4 3 13 2 2 16 2 3 13 0
split_gain=10.8392 4.65568 3.07662 2.78729 1.95284 1.64651 1.37984 1.57318 1.28076 1.15836 2.21344 1.91415 1.897 1.4088 1.13736 1.10375 1.08009 1.6047 1.08552 1.06513 0.990069 0.915978 0.862515 1.12256 0.850532 0.846864 1.76406 0.792645 0.753256 0.72578
threshold=88500.000000000015 7.5000000000000009 5125.0000000000009 16.500000000000004 24500.000000000004 14.500000000000002 73750.000000000015 63750.000000000007 30.500000000000004 1.0000000180025095e-35 51250.000000000007 107500.00000000001 170000.00000000003 90.15000000000002 59500.000000000007 43.500000000000007 7750.0000000000009 298750.00000000006 155750.00000000003 23000.000000000004 34750.000000000007 99.15000000000002 21.500000000000004 36.500000000000007 3.5000000000000004 12000.000000000002 13.500000000000002 91.300000000000026 4.5000000000000009 92500.000000000015
decision_type=2 2 2 2 2 2 2 2 2 2 2 2 2 2 2 2 2 2 2 2 2 2 2 2 2 2 2 2 2 2
left_child=1 2 -1 14 25 -6 22 8 21 11 12 28 29 -12 -2 16 -15 18 19 -18 -21 -8 23 -7 -16 26 -3 -22 -4 -11
right_child=3 4 9 -5 5 6 7 -9 -10 10 13 -13 -14 15 24 -17 17 -19 -20 20 27 -23 -24 -25 -26 -27 -28 -29 -30 -31
leaf_value=-0.57110081762075426 -0.56394577622413633 -0.60304296463727947 -0.59025042951107021 -0.55082756280899048 -0.5731419175863266 -0.58548492193222046 -0.55086759487167003 -0.56015510931611057 -0.61102620363235471 -0.60976031422615051 -0.62047722041606901 -0.61437125205993648 -0.59025042951107021 -0.59860313534736631 -0.56921380162239077 -0.67400671243667598 -0.56001506149768832 -0.60499480366706848 -0.56675036400556567 -0.60191012620925899 -0.59523986279964447 -0.59664210081100466 -0.59664210081100466 -0.57011068612337112 -0.58148278594017033 -0.56521166712045667 -0.56607407778501506 -0.57510295361280439 -0.57510295361280439 -0.60575817823410039
leaf_weight=34 151 36 271 273 137 164 23 32 34 258 22 32 97 47 60 30 36 28 30 21 35 25 59 33 181 365 56 97 161 40
leaf_count=34 151 36 271 273 137 164 23 32 34 258 22 32 97 47 60 30 36 28 30 21 35 25 59 33 181 365 56 97 161 40
internal_value=-0.579906 -0.581594 -0.583622 -0.574311 -0.578989 -0.581125 -0.582859 -0.578283 -0.581953 -0.58404 -0.585267 -0.582081 -0.587825 -0.582347 -0.577012 -0.581516 -0.580584 -0.579262 -0.577821 -0.579223 -0.581044 -0.576693 -0.584897 -0.583308 -0.579144 -0.576618 -0.580905 -0.57944 -0.581207 -0.589802
internal_weight=2868 2203 1239 665 964 507 370 114 82 1205 741 464 395 346 392 324 294 247 219 189 153 48 256 197 241 457 92 132 432 298
internal_count=2868 2203 1239 665 964 507 370 114 82 1205 741 464 395 346 392 324 294 247 219 189 153 48 256 197 241 457 92 132 432 298
is_linear=0
shrinkage=1


Tree=1
num_leaves=31
num_cat=0
split_feature=4 5 1 0 1 6 16 20 0 8 20 8 8 16 0 2 16 4 4 3 0 1 16 2 15 0 13 14 4 4
split_gain=10.1293 5.59761 3.22904 3.15442 1.3237 1.18916 2.90467 1.25803 1.50265 1.22825 1.21361 1.16899 1.73103 1.41572 1.16551 1.74671 1.29959 1.43828 1.10615 1.08423 1.06724 0.97116 0.981834 0.88879 0.919125 0.999736 0.818237 0.901338 0.967033 1.66154
threshold=88500.000000000015 6.5000000000000009 11.500000000000002 5125.0000000000009 6.5000000000000009 4.5000000000000009 42250.000000000007 9.8252147396166194 14500.000000000002 19750.000000000004 9.9755842602361557 52250.000000000007 900.00000000000011 22250.000000000004 24500.000000000004 14.500000000000002 72250.000000000015 63750.000000000007 6750.0000000000009 84.500000000000014 24500.000000000004 20.500000000000004 108750.00000000001 3.5000000000000004 82.550000000000011 170000.00000000003 8.5000000000000018 5.5000000000000009 46500.000000000007 63000.000000000007
decision_type=2 2 2 2 2 2 2 2 2 2 2 2 2 2 2 2 2 2 2 2 2 2 2 2 2 2 2 2 2 2
left_child=1 3 4 -1 -2 7 20 8 11 -9 19 12 -5 -14 18 -16 26 21 -3 -8 -7 -18 -23 24 25 -10 27 28 -17 -30
right_child=2 14 -4 5 -6 6 10 9 23 -11 -12 -13 13 -15 15 16 17 -19 -20 -21 -22 22 -24 -25 -26 -27 -28 -29 29 -31
leaf_value=0.0082817860692739505 0.012314323112368583 -0.016962430402636532 0.027541378140449525 -0.0071368411928415315 -0.0023162478208541867 -0.028444735705852511 -0.02391750067472458 -0.021067527085542683 -0.018064555861055855 0.00060643550008535334 0.016117488145828248 0.0044797568768262857 -0.053072109818458557 -0.022555582225322723 0.01092983264476061 0.010696068406105042 0.01319034516811371 0.016850578077137468 0.010368908867239951 -0.006122599989175798 -0.024642706513404847 -0.030689542591571806 0.011268186867237091 0.011846390943974258 0.00051251269876956827 -0.009910345226526264 -0.0057539229094982144 0.0056010536849498754 -0.017347022891044617 0.0041567340493202211
leaf_weight=29 162 22 348 101 155 45 33 101 56 39 25 49 34 93 150 21 30 33 473 71 21 32 21 34 270 187 116 39 48 30
leaf_count=29 162 22 348 101 155 45 33 101 56 39 25 49 34 93 150 21 30 33 473 71 21 32 21 34 270 187 116 39 48 30
internal_value=0.000174338 -0.00145824 0.00558271 -0.00378788 0.00193218 -0.00419543 -0.00775641 -0.0034751 -0.00273058 -0.00785714 -0.00339147 -0.00573105 -0.00723684 -0.011122 0.00126847 -0.000384615 -0.00222973 0.00215517 0.00300505 -0.00576923 -0.0162879 -0.00135542 -0.00542453 -0.00121115 -0.00173002 -0.00396091 -0.00423228 -0.00163043 -0.00416667 -0.00673077
internal_weight=2868 2203 665 1188 317 1159 195 964 824 140 129 277 228 127 1015 520 370 116 495 104 66 83 53 547 513 243 254 138 99 78
internal_count=2868 2203 665 1188 317 1159 195 964 824 140 129 277 228 127 1015 520 370 116 495 104 66 83 53 547 513 243 254 138 99 78
is_linear=0
shrinkage=0.05


Tree=2
num_leaves=31
num_cat=0
split_feature=4 5 0 1 22 3 12 0 2 21 22 21 0 0 21 21 21 0 21 3 2 4 13 2 21 0 13 4 21 21
split_gain=9.38433 4.76101 3.04134 3.02951 1.87427 1.71919 1.55075 1.44873 1.97514 1.39993 1.45376 1.2386 1.82505 1.43871 1.13222 1.10687 1.06314 1.10601 1.05148 0.956687 0.941763 0.937799 0.720317 1.18057 0.957982 0.69284 0.761166 0.656023 1.22737 0.598339
threshold=88500.000000000015 6.5000000000000009 5125.0000000000009 15.500000000000002 1.0000000180025095e-35 56.800000000000004 107500.00000000001 24500.000000000004 14.500000000000002 11.208444088079533 1.0000000180025095e-35 10.804672067710358 170000.00000000003 24500.000000000004 11.02677566469656 11.875497539411562 9.1187889470142043 24500.000000000004 10.993713089814392 99.15000000000002 3.5000000000000004 5250.0000000000009 21.500000000000004 30.500000000000004 10.773741582719532 14500.000000000002 8.5000000000000018 67750.000000000015 10.325380367216804 12.448830476490249
decision_type=2 2 2 2 2 2 2 2 2 2 2 2 2 2 2 2 2 2 2 2 2 2 2 2 2 2 2 2 2 2
left_child=1 2 -1 18 6 16 -4 21 -9 22 -11 12 13 25 -13 -16 17 -6 -2 -12 -20 -3 23 24 27 26 -7 28 -10 -22
right_child=3 7 4 -5 5 11 -8 8 9 10 19 14 -14 -15 15 -17 -18 -19 20 -21 29 -23 -24 -25 -26 -27 -28 -29 -30 -31
leaf_value=0.0078676967658102507 0.014463359240442515 -0.018514083411544563 -0.0059278370775282425 0.026164309233427049 -0.034340930266305809 -0.043052826371043927 -0.016792039416730405 0.010383341012522578 -0.0034003382697701482 0.014996571956668045 0.024755881671793763 0.0012654923875816183 -0.0094148279651999518 -0.037830703235697011 -0.018761221411172303 0.00085440392792224826 0.003789986379444599 -0.007482025839388372 0.0094587351121008419 -0.028112853512167937 -0.0066158368289470672 0.0094289643354713917 -0.01569473681598902 0.005573801945894955 -0.0038958711177110696 -0.024960430427920077 -0.0042025796324014668 -0.0031343823447823552 -0.037825891949236398 0.0071711865896359099
leaf_weight=29 137 20 606 292 23 53 29 150 29 68 21 39 41 32 74 35 101 82 60 25 104 475 59 64 53 22 22 21 30 72
leaf_count=29 137 20 606 292 23 53 29 150 29 68 21 39 41 32 74 35 101 82 60 25 104 475 59 64 53 22 22 21 30 72
internal_value=0.000226639 -0.00134476 -0.00349327 0.00543233 -0.00389344 -0.00610687 -0.00206693 0.00116995 -0.000673077 -0.00263514 0.00197368 -0.00841195 -0.0113235 -0.0142442 -0.00506757 -0.00768349 -0.00254854 -0.00607143 0.00244638 -0.0048913 0.000423729 0.00310606 -0.0046875 -0.00323604 -0.00592105 -0.0112113 -0.0135 -0.009375 -0.0120763 -0.00142045
internal_weight=2868 2203 1188 665 1159 524 635 1015 520 370 114 318 170 129 148 109 206 105 373 46 236 495 256 197 133 97 75 80 59 176
internal_count=2868 2203 1188 665 1159 524 635 1015 520 370 114 318 170 129 148 109 206 105 373 46 236 495 256 197 133 97 75 80 59 176
is_linear=0
shrinkage=0.05


Tree=3
num_leaves=31
num_cat=0
split_feature=4 5 1 0 22 6 21 0 22 15 5 15 4 5 3 0 4 0 20 13 21 0 4 21 1 13 1 1 1 20
split_gain=8.68672 4.81978 3.15013 2.97765 1.72122 1.97683 1.83844 1.49962 1.3783 1.55174 1.34272 1.68946 1.33611 1.15242 1.14926 1.25135 1.14662 1.59764 1.11644 1.07918 1.00131 1.363 0.971931 1.26341 1.21456 0.953373 0.862108 0.88 0.85873 0.83766
threshold=88500.000000000015 6.5000000000000009 15.500000000000002 5125.0000000000009 1.5000000000000002 1.0000000180025095e-35 10.804672067710358 170000.00000000003 1.0000000180025095e-35 90.15000000000002 14.500000000000002 94.250000000000014 38125.000000000007 12.500000000000002 92.40000000000002 24500.000000000004 22250.000000000004 14500.000000000002 11.58498494427308 4.5000000000000009 11.145434214663824 14500.000000000002 121000.00000000001 11.385087315609523 6.5000000000000009 2.5000000000000004 3.5000000000000004 11.500000000000002 30.500000000000004 8.3531772410750857
decision_type=2 2 2 2 2 2 2 2 2 2 2 2 2 2 2 2 2 2 2 2 2 2 2 2 2 2 2 2 2 2
left_child=1 3 22 -1 18 -6 7 -7 9 12 13 -12 -3 16 -13 28 -10 -18 -5 -8 21 -11 24 -24 -2 -26 -25 -28 -16 -17
right_child=2 8 -4 4 5 6 19 -9 10 20 11 14 -14 -15 15 29 17 -19 -20 -21 -22 -23 23 26 25 -27 27 -29 -30 -31
leaf_value=0.0074743119275197389 0.0088573902374133491 0.025249404341541232 0.024856093771755697 -0.005824854966439314 -0.0063189640647266093 -0.036156444228463806 0.0080279559793998458 -0.014999075157009068 -0.018223100805561995 0.020768033057264986 0.0049927892514038813 0.013134684570925309 -0.013460764355375432 0.021108892930089496 -0.028291357964463533 -0.023425051799323415 -0.016262386240251364 0.018548897879291322 -0.015952437445893888 -0.015073855306091722 0.02087074615409365 -0.0002032050615176584 0.014822835871390997 0.015445201021991673 0.0033145424364134646 -0.013176841265149418 -0.0098386471006437198 0.020313552330760289 0.011798943295888605 -0.0093314105357974794
leaf_weight=29 48 25 292 631 199 109 40 44 25 114 70 26 58 54 46 80 54 68 29 107 159 177 100 34 36 48 76 31 32 27
leaf_count=29 48 25 292 631 199 109 40 44 25 114 70 26 58 54 46 80 54 68 29 107 159 177 100 34 36 48 76 31 32 27
internal_value=0.000348675 -0.00116319 0.00535714 -0.00332492 -0.00372088 -0.00593687 -0.0085 -0.0123366 0.001367 0.00311914 -0.000570539 -0.00280249 -0.00316265 0.00254975 -0.00503555 -0.00641892 0.000255102 0.0022541 -0.00204545 -0.0045068 0.00427778 0.00253436 0.00231233 0.00420124 -0.00113636 -0.0047619 0.00115248 -0.0010514 -0.00160256 -0.00992991
internal_weight=2868 2203 665 1188 1159 499 300 153 1015 533 482 281 83 201 211 185 147 122 660 147 450 291 373 241 132 84 141 107 78 107
internal_count=2868 2203 665 1188 1159 499 300 153 1015 533 482 281 83 201 211 185 147 122 660 147 450 291 373 241 132 84 141 107 78 107
is_linear=0
shrinkage=0.05


Tree=4
num_leaves=31
num_cat=0
split_feature=4 5 1 0 1 16 0 2 13 1 1 4 5 12 16 0 12 3 3 13 13 3 0 0 1 13 4 0 1 13
split_gain=8.63007 3.45857 3.26818 2.93033 1.20575 1.02315 1.0182 1.78629 1.3773 1.28929 1.12585 0.987198 0.97142 2.04279 1.61095 1.75792 1.04017 0.870331 1.48625 1.45455 1.225 0.868807 0.850328 1.17115 1.18397 0.782223 0.756089 0.701821 0.656702 0.645189
threshold=88500.000000000015 6.5000000000000009 11.500000000000002 5125.0000000000009 6.5000000000000009 49250.000000000007 24500.000000000004 14.500000000000002 33.500000000000007 29.500000000000004 44.500000000000007 6750.0000000000009 1.0000000180025095e-35 107500.00000000001 52250.000000000007 170000.00000000003 51000.000000000007 92.40000000000002 94.500000000000014 5.5000000000000009 9.5000000000000018 84.500000000000014 92500.000000000015 57500.000000000007 2.5000000000000004 4.5000000000000009 8200.0000000000018 24500.000000000004 1.0000000180025095e-35 4.5000000000000009
decision_type=2 2 2 2 2 2 2 2 2 2 2 2 2 2 2 2 2 2 2 2 2 2 2 2 2 2 2 2 2 2
left_child=1 3 4 -1 5 -2 11 -8 10 -10 17 -3 13 25 15 22 21 20 19 -19 -9 -16 23 24 26 28 -14 -26 -5 -23
right_child=2 6 -4 12 -6 -7 7 8 9 -11 -12 -13 14 -15 16 -17 -18 18 -20 -21 -22 29 -24 -25 27 -27 -28 -29 -30 -31
leaf_value=0.0071005963311437494 0.017399593353392556 -0.014277449671649373 0.023613289083167913 -0.011391859038164844 -0.0022335208734931083 0.0043164053631265468 0.0091711303546919906 0.013573900702880198 -0.00088648989506531772 -0.039570302169580254 0.014285669680044516 0.009230423796845133 -0.049642559206476436 -0.031035750853242935 -0.021895256426890705 -0.001839097125818956 0.0060643174761140853 -0.025782650251939487 -0.0021818468880449664 -0.0018873751564930765 -0.0088741482613800358 0.0024547864297498057 -0.022822936585536226 0.0042052735496405534 -0.024857107695822202 0.0053900113670353302 -0.016361500801834048 -0.037957124522319065 0.0053067508466634883 -0.011680046400540746
leaf_weight=29 57 22 348 256 155 105 150 36 21 24 54 473 20 32 46 93 28 22 167 22 24 65 39 25 136 167 51 22 22 157
leaf_count=29 57 22 348 256 155 105 150 36 21 24 54 473 20 32 46 93 28 22 167 22 24 65 39 25 136 167 51 22 22 157
internal_value=0.00013947 -0.00136745 0.00513158 -0.00319865 0.00145899 0.00447531 0.000775862 -0.000769231 -0.00263514 -0.0108333 -0.0015 0.00239899 -0.00359146 -0.00186059 -0.00480205 -0.00693005 -0.00202703 -0.00281365 -0.00432464 -0.0125 0.0025 -0.00298507 -0.00883106 -0.00777559 -0.00889738 -0.000983146 -0.0142606 -0.00648734 -0.00260791 -0.00168919
internal_weight=2868 2203 665 1188 317 162 1015 520 370 45 325 495 1159 477 682 386 296 271 211 44 60 268 293 254 229 445 71 158 278 222
internal_count=2868 2203 665 1188 317 162 1015 520 370 45 325 495 1159 477 682 386 296 271 211 44 60 268 293 254 229 445 71 158 278 222
is_linear=0
shrinkage=0.05


Tree=5
num_leaves=31
num_cat=0
split_feature=4 1 2 2 6 16 1 13 13 15 15 8 4 16 16 16 5 16 4 4 13 5 13 1 13 4 6 16 16 3
split_gain=11.0854 1.77408 1.74091 1.51458 2.17361 1.64093 1.88118 1.15089 1.06315 1.14118 1.14193 0.984501 1.17152 0.883577 1.29341 1.77907 1.17876 1.11041 0.929486 1.79747 1.37372 0.975679 1.02092 1.23252 0.852428 0.846551 0.832324 0.912882 1.02063 0.828634
threshold=88500.000000000015 11.500000000000002 3.5000000000000004 36.500000000000007 27.500000000000004 56500.000000000007 6.5000000000000009 77.500000000000014 43.500000000000007 90.15000000000002 94.850000000000009 52250.000000000007 43000.000000000007 21750.000000000004 29500.000000000004 32750.000000000004 1.5000000000000002 18500.000000000004 48750.000000000007 16250.000000000002 17.500000000000004 3.5000000000000004 4.5000000000000009 1.5000000000000002 30.500000000000004 73250.000000000015 28.500000000000004 72250.000000000015 32250.000000000004 97.250000000000014
decision_type=2 2 2 2 2 2 2 2 2 2 2 2 2 2 2 2 2 2 2 2 2 2 2 2 2 2 2 2 2 2
left_child=3 2 -2 4 5 7 8 13 9 -7 -11 12 -12 17 16 -16 -15 18 19 20 21 22 23 -1 -6 -13 -5 28 -28 -30
right_child=1 -3 -4 26 24 6 -8 -9 -10 10 11 25 -14 14 15 -17 -18 -19 -20 -21 -22 -23 -24 -25 -26 -27 27 -29 29 -31
leaf_value=-0.010224897965374156 0.015843687532687167 0.022432624629009516 0.0028289303544557914 0.032964867631974398 -0.0072673966459198547 -0.014691256170412993 0.0095103409162086618 0.0099230625669539524 -0.091537539921573277 0.019826807566873116 -0.0018086888717683631 0.017233758820853661 -0.039159859673459807 -0.0044418094822065773 0.0073233046575289333 -0.010121222020299987 -0.035662506700666501 0.0083264402779338383 -0.021819180005793394 0.0085539096079898288 -0.028673609206267631 0.014081650944832019 0.0067455665145865597 -0.022778515292968145 -0.04112030081775795 -0.0038563134048470865 0.016147403980778827 0.022421334738460044 -0.021290946929266912 0.0030804264079838748
leaf_weight=283 107 351 198 22 94 25 322 24 22 23 206 40 36 22 46 384 47 41 106 149 24 49 25 26 26 39 28 31 31 28
leaf_count=283 107 351 198 22 94 25 322 24 22 23 206 40 36 22 46 384 47 41 106 149 24 49 25 26 26 39 28 31 31 28
internal_value=0.000240806 0.00594512 0.00315574 -0.00146089 -0.00180306 -0.00139892 0.000508415 -0.00250816 -0.00182225 -0.00118564 -0.000436047 -0.00120717 -0.00278926 -0.00272463 -0.00433367 -0.00331395 -0.0106884 -0.0015825 -0.00207704 -0.00125899 -0.00297912 -0.00225196 -0.00321856 -0.00400485 -0.00833333 0.00363924 0.00357143 0.00190678 -0.000718391 -0.00444915
internal_weight=2855 656 305 2199 2059 1939 713 1226 391 369 344 321 242 1202 499 430 69 703 662 556 407 383 334 309 120 79 140 118 87 59
internal_count=2855 656 305 2199 2059 1939 713 1226 391 369 344 321 242 1202 499 430 69 703 662 556 407 383 334 309 120 79 140 118 87 59
is_linear=0
shrinkage=0.05


Tree=6
num_leaves=31
num_cat=0
split_feature=4 17 22 16 1 1 2 16 1 15 2 4 17 2 13 13 16 13 17 3 4 14 4 16 16 16 6 7 1 22
split_gain=9.5493 2.83919 2.70809 1.93417 1.80691 1.40746 1.74091 1.26284 1.17807 1.35018 1.26265 1.25487 1.19766 1.2422 1.11895 1.08713 1.02418 1.00548 0.985893 0.900025 0.879757 0.93705 1.3897 1.07513 1.62703 1.21212 0.942232 0.875452 0.96845 0.846067
threshold=88500.000000000015 7.6168032962790191 1.0000000180025095e-35 51250.000000000007 2.5000000000000004 11.500000000000002 3.5000000000000004 127500.00000000001 8.5000000000000018 94.850000000000009 1.0000000180025095e-35 30750.000000000004 10.089311571209445 16.500000000000004 2.5000000000000004 16.500000000000004 276250.00000000006 31.500000000000004 9.5765940279155242 96.750000000000014 2825.0000000000005 2.5000000000000004 50250.000000000007 43750.000000000007 61500.000000000007 27250.000000000004 3.5000000000000004 98.250000000000014 18.500000000000004 1.5000000000000002
decision_type=2 2 2 2 2 2 2 2 2 2 2 2 2 2 2 2 2 2 2 2 2 2 2 2 2 2 2 2 2 2
left_child=1 -1 3 -3 14 6 -2 8 10 15 -4 -11 27 -14 -5 -10 -9 -7 -16 -19 -12 22 26 25 -25 -23 -22 -13 -29 -8
right_child=5 2 7 4 -6 17 29 16 9 11 20 12 13 -15 18 -17 -18 19 -20 -21 21 23 -24 24 -26 -27 -28 28 -30 -31
leaf_value=0.0064082881888572309 0.01505150315605281 -0.0032914099180110568 -0.0039358337350844045 -0.01561090354205466 0.012090197588463964 0.022617959196627607 0.0096408271389307586 0.011292812920222101 0.00038027954819384868 -0.026752539572668918 -0.0571768529992841 0.01775305130537836 0.0026828629698955903 -0.020278259257835676 -0.035792024640116327 0.026126788245226781 -0.018076313294878184 -0.0014627835508929572 0.0052985731273397013 0.021801252311046238 -0.008138218121936068 -0.016786941650216426 -0.020728221005503724 0.00095148945703640853 -0.020134237441511323 -0.062441363078853042 0.015656565764777652 -0.020027353179918096 0.010186873648185647 -0.0086765897047975157
leaf_weight=37 107 625 174 30 368 296 117 61 102 70 24 40 32 99 47 22 24 21 69 34 54 33 33 53 69 22 25 41 45 81
leaf_count=37 107 625 174 30 368 296 117 61 102 70 24 40 32 99 47 22 24 21 69 34 54 33 33 53 69 22 25 41 45 81
internal_value=0.000345884 -0.00123352 -0.00146855 0.000208516 0.00248054 0.00564024 0.00315574 -0.00333578 -0.00386461 -0.00202328 -0.00556982 -0.00370795 -0.00209144 -0.00543893 -0.00222603 0.00241935 0.0025 0.00779915 0 0.00159091 -0.00746805 -0.00670415 -0.003125 -0.00896893 -0.00635246 -0.0147727 0.000474684 0.00138889 -0.00145349 0.000378788
internal_weight=2855 2199 2162 1139 514 656 305 1023 938 451 487 327 257 131 146 124 85 351 116 55 313 289 112 177 122 55 79 126 86 198
internal_count=2855 2199 2162 1139 514 656 305 1023 938 451 487 327 257 131 146 124 85 351 116 55 313 289 112 177 122 55 79 126 86 198
is_linear=0
shrinkage=0.05


Tree=7
num_leaves=31
num_cat=0
split_feature=4 0 22 16 5 6 13 6 16 16 3 13 0 16 16 13 0 0 5 16 14 5 3 4 4 5 5 13 16 23
split_gain=8.76356 2.78306 2.27849 1.77209 1.43003 1.19947 1.18401 1.18194 0.955566 0.954058 0.865801 0.836829 1.24287 1.08195 0.937606 0.824408 0.796644 1.61143 1.34962 1.00621 1.23458 1.11694 0.956985 0.935223 0.906447 1.31934 1.4838 1.57054 1.93309 0.919559
threshold=88500.000000000015 2125.0000000000005 1.0000000180025095e-35 51250.000000000007 15.500000000000002 3.5000000000000004 31.500000000000004 6.5000000000000009 133750.00000000003 276250.00000000006 96.750000000000014 2.5000000000000004 14500.000000000002 92250.000000000015 95750.000000000015 16.500000000000004 14500.000000000002 24500.000000000004 17.500000000000004 61500.000000000007 8.5000000000000018 9.5000000000000018 96.550000000000026 25500.000000000004 69250.000000000015 14.500000000000002 7.5000000000000009 4.5000000000000009 49250.000000000007 2.5000000000000004
decision_type=2 2 2 2 2 2 2 2 2 2 2 2 2 2 2 2 2 2 2 2 2 2 2 2 2 2 2 2 2 2
left_child=1 -1 3 -3 5 -2 -6 11 16 -10 -8 -5 13 15 -14 -13 18 23 19 20 -4 -22 -21 -18 25 26 27 -19 -29 -27
right_child=4 2 8 7 6 -7 10 -9 9 -11 -12 12 14 -15 -16 -17 17 24 -20 22 21 -23 -24 -25 -26 29 -28 28 -30 -31
leaf_value=0.0060878737794143713 0.014298927998250166 -0.0031268394221105056 -0.024291436285141594 -0.0063460014438883779 0.021650872178189246 0.0048092206561047377 -0.0013896443733483089 0.014156626977058568 0.011134625150177394 -0.01717249763013428 0.020220930782006728 -0.0069441755843936753 0.015125154191037743 0.0062547911341354736 0.00060647742454570525 -0.085881233819745689 -0.0067799438015681253 -0.0040104825309267072 0.011224730446653224 -0.029676587230622765 0.0094638411062237804 -0.015619741472032534 -0.019127525569435755 0.016203735935065772 0.0033571218425349257 -0.016719406079369649 0.006927090423981451 -0.020097776894102116 -0.0081809049494462379 -0.025075289005139667
leaf_weight=37 107 625 112 45 240 255 21 283 58 24 33 32 38 27 62 27 91 145 45 29 53 35 45 80 42 106 48 33 52 25
leaf_count=37 107 625 112 45 240 255 21 283 58 24 33 32 38 27 62 27 91 145 45 29 53 35 45 80 42 106 48 33 52 25
internal_value=0.000415937 -0.00109709 -0.00132979 0.000208516 0.0054878 0.00338398 0.00807823 0.00238327 -0.00304252 0.00213415 0.00138889 -0.000270563 0.00120968 -0.00319767 0.005 -0.00699153 -0.00349362 -0.00245177 -0.00552508 -0.00684307 -0.005 -0.000568182 -0.0118243 0.00168129 -0.00401885 -0.00473716 -0.00278777 -0.00445652 -0.00985294 -0.00887405
internal_weight=2855 2199 2162 1139 656 362 294 514 1023 82 54 231 186 86 100 59 941 622 319 274 200 88 74 171 451 409 278 230 85 131
internal_count=2855 2199 2162 1139 656 362 294 514 1023 82 54 231 186 86 100 59 941 622 319 274 200 88 74 171 451 409 278 230 85 131
is_linear=0
shrinkage=0.05


Tree=8
num_leaves=31
num_cat=0
split_feature=18 0 22 16 1 1 2 13 16 16 1 8 15 18 5 0 15 5 13 3 13 5 5 5 13 13 16 8 14 13
split_gain=8.2067 2.7275 1.76952 1.68617 1.4181 1.35322 1.21455 1.12909 1.00282 1.02418 0.880436 1.48842 1.14185 1.00313 1.13178 1.07359 1.49191 1.42333 1.30719 0.865801 0.801142 0.790997 1.15329 0.757209 0.732462 0.7246 0.712552 0.859387 1.65103 0.870849
threshold=11.390625476092662 2125.0000000000005 1.0000000180025095e-35 51250.000000000007 2.5000000000000004 15.500000000000002 3.5000000000000004 31.500000000000004 127500.00000000001 276250.00000000006 8.5000000000000018 40500.000000000007 93.550000000000011 9.7555203729869451 14.500000000000002 24500.000000000004 99.350000000000009 17.500000000000004 5.5000000000000009 96.750000000000014 2.5000000000000004 28.500000000000004 49.500000000000007 12.500000000000002 16.500000000000004 11.500000000000002 59500.000000000007 123750.00000000001 9.5000000000000018 2.5000000000000004
decision_type=2 2 2 2 2 2 2 2 2 2 2 2 2 2 2 2 2 2 2 2 2 2 2 2 2 2 2 2 2 2
left_child=1 -1 3 -3 20 6 -2 -7 10 -10 11 -4 25 -14 23 17 -17 -16 -18 -9 -5 -6 -23 -15 -20 -12 -8 28 -28 -29
right_child=5 2 8 4 21 7 26 19 9 -11 12 -13 13 14 15 16 18 -19 24 -21 -22 22 -24 -25 -26 -27 27 29 -30 -31
leaf_value=0.0057834800904436549 0.013583981598337659 -0.0029704974510049833 -0.0082305585814046681 -0.014513058292757508 0.012718108851826372 0.021058587482766983 0.010123389748554083 -0.0013201621546808928 0.010171441016702127 -0.016313872748627566 0.00084840765607392405 -0.018477238140971453 -0.025790515521274746 -0.0013811925311216417 -0.016667969456673353 -0.025072753693316172 -0.022037032318849278 0.010886041897626295 0.0016972695384174772 0.019209884242906393 0.00028334397410991477 -0.0082195604696503177 0.015347790261756582 0.021375367437014726 -0.022836689676271605 0.018904695158274084 0.0083011583131229905 -0.0079330042880028546 -0.015679539801612397 0.014198782029776702
leaf_weight=37 107 625 369 30 306 241 88 21 61 24 93 118 26 80 24 22 26 59 31 33 116 32 30 28 38 24 36 28 23 79
leaf_count=37 107 625 369 30 306 241 88 21 61 24 93 118 26 80 24 22 26 59 31 33 116 32 30 28 38 24 36 28 23 79
internal_value=0.000503503 -0.000960664 -0.00119103 0.000164618 0.00228599 0.00541159 0.00335873 0.00792373 -0.00270039 0.0025 -0.00317164 -0.00464579 -0.00157982 -0.00306886 -0.00227273 -0.0045 -0.00758547 -0.000150602 -0.00486842 0.00138889 -0.00188356 0.00394022 -0.00120968 0.00185185 -0.00126812 0.00267094 0.00147638 -0.000451807 -0.00529661 0.00221963
internal_weight=2855 2199 2162 1139 514 656 361 295 1023 85 938 487 451 334 308 200 117 83 95 54 146 368 62 108 69 117 254 166 59 107
internal_count=2855 2199 2162 1139 514 656 361 295 1023 85 938 487 451 334 308 200 117 83 95 54 146 368 62 108 69 117 254 166 59 107
is_linear=0
shrinkage=0.05


Tree=9
num_leaves=31
num_cat=0
split_feature=4 17 16 6 1 22 1 5 5 6 16 9 4 1 17 4 5 22 4 4 4 16 13 16 16 14 16 16 19 13
split_gain=7.47952 2.67249 1.62395 1.43933 1.17217 1.11159 1.51002 1.10039 1.09459 1.00315 0.942567 1.15559 1.03374 1.9382 1.74089 1.74213 1.58424 1.4677 0.990682 1.58542 1.13645 1.4303 1.07158 0.847272 1.4725 1.29413 0.960784 1.20617 0.923465 0.91712
threshold=88500.000000000015 7.6168032962790191 44750.000000000007 42.500000000000007 11.500000000000002 1.0000000180025095e-35 5.5000000000000009 28.500000000000004 47.500000000000007 3.5000000000000004 21750.000000000004 2750.0000000000005 44250.000000000007 2.5000000000000004 10.547441937671502 16250.000000000002 11.500000000000002 1.0000000180025095e-35 48750.000000000007 22750.000000000004 55500.000000000007 1125.0000000000002 17.500000000000004 127500.00000000001 87250.000000000015 10.500000000000002 78500.000000000015 65750.000000000015 9.5287015351875883 13.500000000000002
decision_type=2 2 2 2 2 2 2 2 2 2 2 2 2 2 2 2 2 2 2 2 2 2 2 2 2 2 2 2 2 2
left_child=1 -1 3 10 9 6 -4 -8 -9 -2 18 12 13 -12 15 -15 -17 -14 19 22 -20 -22 -3 24 25 -7 27 28 -27 -26
right_child=4 2 5 -5 -6 23 7 8 -10 -11 11 -13 17 14 -16 16 -18 -19 20 -21 21 -23 -24 -25 29 26 -28 -29 -30 -31
leaf_value=0.0054943060859214748 0.012904782518420777 -0.0051528937418804993 -0.0026867069122088875 0.022292623050460553 0.018044622454679849 -0.007605246742356896 0.013492978573017435 -0.0057928477534582804 0.014044283023779015 0.0014588119595535217 -0.0005983775719024337 0.027498186757040067 0.0029812141650763513 -0.050180045187164062 -0.031136239121399845 0.0042413958481527948 -0.03009291038161839 -0.034310055581589401 -0.01755337623392288 0.011547120422467314 -0.019366327709137626 0.017887218715308701 -0.023344399744370109 0.0056969820774894599 -0.011476726697607784 -0.0074347385281905405 0.015812989496374094 -0.012366272420161934 0.0074847337261049422 -0.029792263714729584
leaf_weight=37 107 423 230 22 351 140 292 37 37 198 70 23 61 32 38 22 40 57 50 122 59 24 32 85 46 22 20 39 89 50
leaf_count=37 107 423 230 22 351 140 292 37 37 198 70 23 61 32 38 22 40 57 50 122 59 24 32 85 46 22 20 39 89 50
internal_value=0.000573555 -0.000824238 -0.00105227 -0.00243023 0.00525915 0.000310488 0.00176174 0.00375683 -0.00168919 0.0029918 -0.00269468 -0.00484694 -0.005625 -0.00779703 -0.0113636 -0.00771277 -0.00282258 -0.00190678 -0.00165493 -0.000758232 -0.00554511 -0.00195783 -0.00211538 -0.00145112 -0.00240148 -0.000725806 0.00220588 0.000833333 0.00349099 -0.0078125
internal_weight=2855 2199 2162 1075 656 1087 596 366 74 305 1053 343 320 202 132 94 62 118 710 577 133 83 455 491 406 310 170 150 111 96
internal_count=2855 2199 2162 1075 656 1087 596 366 74 305 1053 343 320 202 132 94 62 118 710 577 133 83 455 491 406 310 170 150 111 96
is_linear=0
shrinkage=0.05


Tree=10
num_leaves=31
num_cat=0
split_feature=4 0 5 2 8 0 5 16 13 16 16 16 16 0 0 4 8 13 4 14 15 14 4 0 2 14 14 14 13 4
split_gain=6.47815 2.54667 1.7336 1.22624 1.78506 1.75309 1.33186 1.05361 1.18537 0.938035 1.11637 0.99957 0.876364 0.870782 0.855531 1.37035 1.18429 1.22834 2.16524 0.982483 0.873636 0.701797 1.19548 0.818269 0.679794 0.83227 0.644689 1.17507 0.724339 1.33769
threshold=88500.000000000015 2125.0000000000005 11.500000000000002 8.5000000000000018 12500.000000000002 39500.000000000007 10.500000000000002 84500.000000000015 18.500000000000004 298750.00000000006 95750.000000000015 88000.000000000015 75500.000000000015 8875.0000000000018 14500.000000000002 16250.000000000002 9625.0000000000018 4.5000000000000009 3750.0000000000005 4.5000000000000009 90.15000000000002 9.5000000000000018 121000.00000000001 92500.000000000015 1.5000000000000002 17.500000000000004 3.5000000000000004 8.5000000000000018 12.500000000000002 63750.000000000007
decision_type=2 2 2 2 2 2 2 2 2 2 2 2 2 2 2 2 2 2 2 2 2 2 2 2 2 2 2 2 2 2
left_child=1 -1 21 9 -5 -6 -7 26 -9 10 11 12 13 -3 15 -15 17 18 -16 -18 -17 23 -23 -2 25 -19 -8 -28 -29 -30
right_child=2 3 -4 4 5 6 7 8 -10 -11 -12 -13 -14 14 16 20 19 24 -20 -21 -22 22 -24 -25 -26 -27 27 28 29 -31
leaf_value=0.005140547093458037 0.004597396377888946 0.0066789129509875105 0.01910342698589464 -0.02255048316161104 0.0075850711685274234 0.027118562084745231 -0.010217693296224776 0.011377460559366025 -0.015106370916695068 -0.018429789500685464 0.0044580589384226833 -0.073891820791528728 0.0021861853372681429 -0.03461204033831216 -0.013901892616585965 -0.024359460006136591 -0.0029720962031747817 0.021431445664360962 0.02304254053976441 -0.011620449683126702 0.0019781900351409087 -0.018931011766291386 0.0048932643300930506 0.03924047252562194 -0.015060931120000842 0.0052171248241173031 0.0025703522049789207 -0.027949985395625793 0.00092587076578427852 -0.011366865330680941
leaf_weight=35 185 48 361 64 491 33 56 62 33 49 138 45 36 104 238 44 111 56 35 136 100 35 61 23 21 47 73 30 67 38
leaf_count=35 185 48 361 64 491 33 56 62 33 49 138 45 36 104 238 44 111 56 35 136 100 35 61 23 21 47 73 30 67 38
internal_value=0.00043345 -0.000878995 0.00475564 -0.00109629 0.000250792 0.000835221 -0.00165816 -0.00254178 0.00197368 -0.00215232 -0.00186583 -0.00243634 -0.00210041 -0.00239362 -0.00274664 -0.00524194 -0.00178571 -9.44584e-05 -0.00196886 -0.00450405 -0.00208333 0.00197368 -0.0015625 0.00360577 0.00403226 0.00570388 -0.00416667 -0.00288462 -0.00564815 -0.00369048
internal_weight=2855 2190 665 2155 947 883 392 359 95 1208 1159 1021 976 940 892 248 644 397 273 247 144 304 96 208 124 103 264 208 135 105
internal_count=2855 2190 665 2155 947 883 392 359 95 1208 1159 1021 976 940 892 248 644 397 273 247 144 304 96 208 124 103 264 208 135 105
is_linear=0
shrinkage=0.05


Tree=11
num_leaves=31
num_cat=0
split_feature=8 0 1 1 18 0 15 1 0 21 21 21 21 13 0 18 21 13 5 13 8 8 8 2 21 8 1 15 13 21
split_gain=6.34712 2.49767 1.60438 1.50172 1.2556 1.3753 1.14572 1.09532 0.969032 0.867644 0.843564 1.03364 1.16871 1.04167 1.12446 0.808448 0.771285 0.987532 1.80566 0.762592 0.74088 0.65536 0.902223 0.647741 0.664866 0.643607 0.62212 0.604097 0.833077 0.592763
threshold=86000.000000000015 2125.0000000000005 7.5000000000000009 11.500000000000002 9.9158832478553744 39500.000000000007 84.500000000000014 10.500000000000002 8875.0000000000018 11.344501141312815 12.607356976136414 11.448308715547981 11.385087315609523 13.500000000000002 57500.000000000007 10.725429202546573 11.166915706764119 32.500000000000007 1.5000000000000002 18.500000000000004 35500.000000000007 27750.000000000004 33000.000000000007 9.5000000000000018 10.993713089814392 38750.000000000007 28.500000000000004 99.350000000000009 4.5000000000000009 11.078296969957234
decision_type=2 2 2 2 2 2 2 2 2 2 2 2 2 2 2 2 2 2 2 2 2 2 2 2 2 2 2 2 2 2
left_child=1 -1 8 -2 -4 6 20 23 -3 29 11 12 13 14 15 25 17 -15 -19 26 -6 -8 -23 24 -7 -10 -11 -17 -29 -9
right_child=3 2 4 -5 5 7 21 9 10 19 -12 -13 -14 16 -16 27 -18 18 -20 -21 -22 22 -24 -25 -26 -27 -28 28 -30 -31
leaf_value=0.0048835197387851366 0.0036513860212447876 0.0097952936167344466 -0.021049655599071057 0.01814825563659991 0.016890877204015286 -0.0086628862737253825 0.023329124761777925 -0.0066349196636876911 -0.023874640516079224 0.0054865520375110017 -0.01750830002565119 0.0040794404611968196 -0.077580832485303966 0.0057321419276320455 -0.0040831384779635924 -0.019031098233817254 0.014913030754691983 0.0061073787875712028 -0.022416156658962766 -0.014351052370860313 -0.015911408493236932 -0.013372942514175057 0.012548869069496671 0.030401450105353181 0.0080594005173140089 -0.018015340753558127 0.023987293214742786 0.019703832669870282 -0.0091707396457924167 -0.008872919254706943
leaf_weight=35 307 46 74 363 21 20 48 214 198 42 49 140 35 129 374 40 20 32 22 33 58 56 308 20 21 28 20 25 27 50
leaf_count=35 307 46 74 363 21 20 48 214 198 42 49 140 35 129 374 40 20 32 22 33 58 56 308 20 21 28 20 25 27 50
internal_value=0.000556042 -0.000749428 -0.000965116 0.00481343 0.000520305 0.00102909 0.00282587 -0.00107143 -0.00222103 -0.00212396 -0.0025134 -0.00221963 -0.00282258 -0.00247207 -0.00339595 -0.00558176 0.00067734 -0.00034153 -0.00601852 0.00197368 -0.00268987 0.0038835 0.00315934 0.00512295 0.00152439 -0.00719027 0.00524194 -0.00163043 0.00192308 -0.00359848
internal_weight=2855 2185 2150 670 985 911 491 420 1165 359 1119 1070 930 895 692 318 203 183 54 95 79 412 364 61 41 226 62 92 52 264
internal_count=2855 2185 2150 670 985 911 491 420 1165 359 1119 1070 930 895 692 318 203 183 54 95 79 412 364 61 41 226 62 92 52 264
is_linear=0
shrinkage=0.05


Tree=12
num_leaves=31
num_cat=0
split_feature=8 0 22 3 1 11 18 8 13 22 1 6 1 18 3 5 0 13 5 8 15 22 3 13 13 15 11 15 18 18
split_gain=6.17796 2.49767 1.41912 1.82509 1.41591 1.21555 0.969301 1.92124 0.992562 0.871903 0.77407 0.772216 0.833277 1.58817 0.970566 0.937729 0.807695 0.770725 0.711291 0.708876 0.70259 0.659698 0.712 0.633981 0.928939 0.881305 0.590861 0.682647 0.799419 0.952668
threshold=86000.000000000015 2125.0000000000005 1.0000000180025095e-35 93.950000000000003 11.500000000000002 1.0000000180025095e-35 9.8652339568153877 9625.0000000000018 1.5000000000000002 3.5000000000000004 34.500000000000007 25.500000000000004 9.5000000000000018 10.333644744977397 84.500000000000014 14.500000000000002 170000.00000000003 3.5000000000000004 29.500000000000004 21500.000000000004 99.350000000000009 1.5000000000000002 99.15000000000002 17.500000000000004 9.5000000000000018 99.350000000000009 1.0000000180025095e-35 99.350000000000009 10.773741582719532 10.564891029886615
decision_type=2 2 2 2 2 2 2 2 2 2 2 2 2 2 2 2 2 2 2 2 2 2 2 2 2 2 2 2 2 2
left_child=1 -1 3 5 21 -3 7 8 -5 10 11 12 14 -14 -4 -15 -16 -9 -13 -8 -12 -2 -23 24 26 -25 27 -21 29 -29
right_child=4 2 9 6 -6 -7 19 17 -10 -11 20 18 13 15 16 -17 -18 -19 -20 23 -22 22 -24 25 -26 -27 -28 28 -30 -31
leaf_value=0.0046393437518458787 0.0094512851110362117 -0.0030332139189762561 -0.0030087525667479454 0.025799414836443837 0.017240842854769914 -0.014217760444513672 0.021459688908058477 -0.0080830902264028455 -0.0028076733449431488 0.0013422467671424521 0.021482224029240694 -0.041507030338848526 -0.019997172819117504 0.012581929355251721 -0.016768992472983576 -0.0013436678796250228 0.0031110723962017531 -0.032593184826868737 -0.0098117408371975953 -0.0067807180538262792 -0.0010655877628012957 -0.015350397389756671 0.0015924139093522215 0.014075625924903879 0.019399144933660423 -0.0088272349683373615 0.0090295466434791131 0.01462283287346049 0.01502812361383128 -0.022156888379367246
leaf_weight=35 185 334 236 26 363 75 42 29 67 97 21 21 50 104 265 112 39 20 38 62 36 24 98 53 93 114 46 25 117 28
leaf_count=35 185 334 236 26 363 75 42 29 67 97 21 21 50 104 265 112 39 20 38 62 36 24 98 53 93 114 46 25 117 28
internal_value=0.000538529 -0.000749428 -0.000965116 0.0002542 0.00473881 -0.00241443 0.00176593 -0.00193662 0.00228495 -0.00231845 -0.00279284 -0.00316474 -0.00276055 -0.000469925 -0.00388889 0.00138889 -0.00575658 -0.00994898 -0.00868644 0.00267241 0.00285088 0.00223941 -0.000614754 0.00218401 0.00333558 -0.000374251 0.00188849 0.000862069 0.0025 -0.00259434
internal_weight=2855 2185 2150 1131 670 409 722 142 93 1019 922 865 806 266 540 216 304 49 59 580 57 307 122 538 371 167 278 232 170 53
internal_count=2855 2185 2150 1131 670 409 722 142 93 1019 922 865 806 266 540 216 304 49 59 580 57 307 122 538 371 167 278 232 170 53
is_linear=0
shrinkage=0.05


Tree=13
num_leaves=31
num_cat=0
split_feature=8 0 2 22 3 21 11 22 21 21 21 13 21 21 8 12 4 2 21 21 7 21 4 13 15 4 8 0 2 4
split_gain=6.06202 2.50631 1.37115 1.2715 1.70615 1.22294 1.21555 0.853031 0.750291 1.27428 0.636458 0.699501 0.631451 1.11965 0.823802 0.714706 1.03448 0.621111 0.636289 1.24102 0.600571 1.16435 0.592611 0.759222 0.547812 0.743339 1.19776 1.02057 1.55479 0.881118
threshold=86000.000000000015 2125.0000000000005 21.500000000000004 1.0000000180025095e-35 93.950000000000003 11.413100917405693 1.0000000180025095e-35 3.5000000000000004 11.317526207377709 11.187895460320862 10.993713089814392 13.500000000000002 12.528973008188528 11.755687218984134 49500.000000000007 35500.000000000007 76250.000000000015 12.500000000000002 11.822211966795066 12.323613153250342 96.950000000000003 10.686253422616579 65500.000000000007 55.000000000000007 97.15000000000002 19250.000000000004 9625.0000000000018 39500.000000000007 3.5000000000000004 44250.000000000007
decision_type=2 2 2 2 2 2 2 2 2 2 2 2 2 2 2 2 2 2 2 2 2 2 2 2 2 2 2 2 2 2
left_child=1 -1 10 4 6 8 -3 12 9 20 -2 17 13 15 -15 16 22 -12 -19 -20 21 -6 23 -5 -22 26 -26 29 -29 -27
right_child=2 3 -4 7 5 -7 -8 -9 -10 -11 11 -13 -14 14 -16 -17 -18 18 19 -21 24 -23 -24 -25 25 27 -28 28 -30 -31
leaf_value=0.004407376564253585 0.0097559951685853557 -0.0028815532230274431 0.018007964650687408 -0.0093040713070146053 0.020328519935753978 0.0077463936992357048 -0.013506872422287985 0.0012751344287853295 -0.023983314227884911 0.011317748305593968 0.0035137771239337617 -0.0030992475538289947 -0.02441875211232249 -0.0064529308235245697 0.016736875589415102 0.0039696062871139859 -0.044253010964581931 0.024831599881278112 -0.0039684737553176341 0.024799733377498683 0.0055804361915524183 -0.011521453050644533 0.0043902537763530784 0.020125895725957427 -0.0075728213959356614 -0.0032368076113406296 -0.029064572183388294 0.014276717433139713 -0.011448855766813707 0.024579973062254137
leaf_weight=35 192 334 151 643 47 147 75 97 34 38 169 71 21 24 27 100 25 31 22 34 149 28 56 26 52 42 21 23 87 54
leaf_count=35 192 334 151 643 47 147 75 97 34 38 169 71 21 24 27 100 25 31 22 34 149 28 56 26 52 42 21 23 87 54
internal_value=0.000503503 -0.000772311 0.00466418 -0.000988372 0.000165782 0.00162742 -0.00241443 -0.00226938 0.000586957 0.00103974 0.00344412 0.00210245 -0.00273861 -0.00253885 0.00465686 -0.00297059 -0.0035 0.00332031 0.00675287 0.00357143 0.000372763 0.0045 -0.00315517 -0.00356876 -0.000350467 -0.00165771 -0.00599315 -0.000121359 -0.00340909 0.00364583
internal_weight=2855 2185 670 2150 1131 722 409 1019 575 541 519 327 922 901 51 850 750 256 87 56 503 75 725 669 428 279 73 206 110 96
internal_count=2855 2185 670 2150 1131 722 409 1019 575 541 519 327 922 901 51 850 750 256 87 56 503 75 725 669 428 279 73 206 110 96
is_linear=0
shrinkage=0.05


Tree=14
num_leaves=31
num_cat=0
split_feature=8 0 1 22 16 1 22 16 16 8 12 4 0 4 23 2 23 8 8 16 12 12 12 0 7 8 0 16 4 13
split_gain=4.91898 2.47186 1.67959 1.16622 1.22397 1.48911 0.797653 0.65565 1.06844 0.823802 0.652588 1.07628 0.64444 0.681898 0.725936 0.696209 0.630908 2.39387 1.13424 0.852758 0.784332 0.715817 1.26887 0.702126 0.724703 0.702433 0.697782 0.6825 0.54402 0.634657
threshold=86000.000000000015 2125.0000000000005 20.500000000000004 1.0000000180025095e-35 72250.000000000015 5.5000000000000009 3.5000000000000004 276250.00000000006 127500.00000000001 49500.000000000007 35500.000000000007 76250.000000000015 11625.000000000002 19250.000000000004 2.5000000000000004 21.500000000000004 2.5000000000000004 17750.000000000004 73250.000000000015 32750.000000000004 107500.00000000001 37500.000000000007 15500.000000000002 57500.000000000007 87.100000000000009 9625.0000000000018 39500.000000000007 29500.000000000004 65500.000000000007 8.5000000000000018
decision_type=2 2 2 2 2 2 2 2 2 2 2 2 2 2 2 2 2 2 2 2 2 2 2 2 2 2 2 2 2 2
left_child=1 -1 -2 4 12 -6 7 8 10 -10 11 28 13 -3 15 -15 18 -18 20 -19 21 22 23 24 27 -26 -21 -14 29 -5
right_child=2 3 -4 6 5 -7 -8 -9 9 -11 -12 -13 16 14 -16 -17 17 19 -20 26 -22 -23 -24 -25 25 -27 -28 -29 -30 -31
leaf_value=0.004187007736040904 0.0066136079768138387 -0.017851324683578734 0.017107566418153041 -0.012483368341579947 -0.0016269597671187575 0.0122471917818607 0.001211377707346062 -0.023197814506706368 -0.0061302842823483424 0.01590003180994435 0.0037711259727582882 -0.04204036041635284 -0.037448449360310686 0.017151728354473535 0.04198907412373936 -0.0081902205550709213 -0.02548863501400769 0.012380264367168187 -0.0085778641357037392 0.016738236202572494 -0.0092369488030053359 0.011738315528601623 -0.022015544229735017 0.0063992943836531828 0.025747207267787828 -0.0023437042613448159 -0.017790010132979685 -0.023564448244199551 0.0041707410875354263 -0.0060009260632053031
leaf_weight=35 519 71 151 378 133 170 97 21 24 27 100 25 21 70 29 33 26 30 31 21 26 25 20 196 23 134 41 31 56 291
leaf_count=35 519 71 151 378 133 170 97 21 24 27 100 25 21 70 29 33 26 30 31 21 26 25 20 196 23 134 41 31 56 291
internal_value=0.000468476 -0.000680778 0.00421642 -0.000895349 0.000209991 0.00292904 -0.00212218 -0.00257592 -0.00237236 0.00465686 -0.00279412 -0.0033 -0.000785024 0.00166256 0.00378788 0.00182039 -0.00158 -0.00487288 -0.000813609 -0.00108696 -0.000210084 0.000277778 -0.000205882 0.000401235 -0.00161483 7.96178e-05 -0.00443548 -0.00673077 -0.00294828 -0.00334454
internal_weight=2855 2185 670 2150 1131 303 1019 922 901 51 850 750 828 203 132 103 625 118 507 92 476 450 425 405 209 157 62 52 725 669
internal_count=2855 2185 670 2150 1131 303 1019 922 901 51 850 750 828 203 132 103 625 118 507 92 476 450 425 405 209 157 62 52 725 669
is_linear=0
shrinkage=0.05


Tree=15
num_leaves=31
num_cat=0
split_feature=8 0 1 12 10 12 13 15 6 1 8 8 13 16 12 16 16 0 16 22 4 3 1 15 16 4 4 1 0 15
split_gain=3.93426 2.22804 1.2477 1.23963 1.71554 1.80564 1.3219 1.43838 1.1912 1.56141 1.78717 1.52014 1.22544 0.976827 1.08143 1.24294 1.03555 0.978719 0.920652 1.11292 0.853209 0.828766 0.820531 0.942433 0.97721 0.968248 0.845355 0.794262 1.26662 1.14354
threshold=55500.000000000007 2125.0000000000005 21.500000000000004 46000.000000000007 1.0000000180025095e-35 21500.000000000004 24.500000000000004 99.350000000000009 34.500000000000007 7.5000000000000009 29375.000000000004 6125.0000000000009 23.500000000000004 12000.000000000002 20500.000000000004 41250.000000000007 46750.000000000007 14500.000000000002 77750.000000000015 1.5000000000000002 91500.000000000015 99.15000000000002 15.500000000000002 84.500000000000014 40250.000000000007 103000.00000000001 73250.000000000015 10.500000000000002 39500.000000000007 96.90000000000002
decision_type=2 2 2 2 2 2 2 2 2 2 2 2 2 2 2 2 2 2 2 2 2 2 2 2 2 2 2 2 2 2
left_child=1 -1 3 4 6 -6 22 -8 9 10 12 -11 13 21 15 -15 -17 -18 19 -12 -4 -3 23 25 -25 26 -2 -13 -29 -30
right_child=2 8 20 -5 5 -7 7 -9 -10 11 18 27 -14 14 -16 16 17 -19 -20 -21 -22 -23 -24 24 -26 -27 -28 28 29 -31
leaf_value=0.0039691272493617581 0.00052621775703020344 -0.0050210477779230435 0.0067022061791436527 0.011063437051138249 -0.025459675386602376 0.0010472297434946259 0.0087120012513504323 -0.020415312086296586 -0.013026555074868891 -0.018282148741896005 -0.014669257282338189 0.0069973715040784062 0.0091614475614998341 -0.025211039362682749 -0.018346533166347666 0.01488174383286156 -0.024803233901630903 0.0025417463104907573 -0.0081585197543746543 -0.019320370311272046 0.016367387243024861 0.0050451236061343722 0.01259756789931802 0.03632382903893349 0.004209419069629859 0.0021900645173192944 -0.023646516565122497 0.0058368200158849448 -0.011894123982839698 -0.0040922186940922757
leaf_weight=30 20 241 173 76 23 36 29 41 49 20 89 90 96 116 37 21 53 124 59 59 129 133 200 32 312 48 29 328 42 105
leaf_count=30 20 241 173 76 23 36 29 41 49 20 89 90 96 116 37 21 53 124 59 59 129 133 200 32 312 48 29 328 42 105
internal_value=0.000528169 -0.00100473 0.00278746 0.0018026 0.0012013 -0.00699153 0.00188115 -0.00464286 -0.0012485 -0.00101519 -0.00218872 0.00104701 -0.0011419 -0.00184483 -0.00373932 -0.00278662 -0.000378788 -0.00162429 -0.00634058 -0.00844595 0.00554636 -6.68449e-05 0.0025936 0.00138889 0.00261628 -0.00296392 -0.00790816 0.00152655 0.000710526 -0.00314626
internal_weight=2840 1692 1148 846 770 59 711 70 1662 1613 1028 585 821 725 351 314 198 177 207 148 302 374 641 441 344 97 49 565 475 147
internal_count=2840 1692 1148 846 770 59 711 70 1662 1613 1028 585 821 725 351 314 198 177 207 148 302 374 641 441 344 97 49 565 475 147
is_linear=0
shrinkage=0.05


Tree=16
num_leaves=31
num_cat=0
split_feature=8 17 1 20 10 14 4 1 4 14 17 14 13 17 6 8 7 21 13 1 1 22 22 20 13 15 6 4 5 13
split_gain=3.81258 2.20858 1.30266 1.67702 1.27031 1.1125 0.855075 0.845477 1.93837 1.28487 1.32496 1.25643 1.57326 1.21405 1.1503 1.16156 1.02041 0.853694 0.823129 0.743887 0.875 0.740525 0.717087 0.715505 0.703473 1.16257 0.702569 0.839476 0.893089 0.859042
threshold=55500.000000000007 7.6168032962790191 15.500000000000002 10.636439670199552 1.0000000180025095e-35 21.500000000000004 108750.00000000001 6.5000000000000009 29250.000000000004 20.500000000000004 9.5765940279155242 1.5000000000000002 17.500000000000004 9.3539560486727868 27.500000000000004 5250.0000000000009 97.850000000000009 12.487310848910736 13.500000000000002 29.500000000000004 26.500000000000004 3.5000000000000004 1.0000000180025095e-35 10.091031953878764 1.5000000000000002 90.700000000000017 4.5000000000000009 19250.000000000004 3.5000000000000004 9.5000000000000018
decision_type=2 2 2 2 2 2 2 2 2 2 2 2 2 2 2 2 2 2 2 2 2 2 2 2 2 2 2 2 2 2
left_child=1 -1 3 4 21 -4 -7 8 9 10 13 -10 22 -3 15 -9 -16 26 -18 20 24 -2 -13 -6 -17 -26 27 28 29 -12
right_child=2 7 5 -5 23 6 -8 14 11 -11 17 12 -14 -15 16 19 18 -19 -20 -21 -22 -23 -24 -25 25 -27 -28 -29 -30 -31
leaf_value=0.0037706708868936695 0.0010699768621693112 -0.01812984598072008 0.011843619142489372 0.013761750548159285 -0.014457496137260665 -0.0017625929157973022 0.019540112184805079 -0.017368041304801202 0.0015099824733794316 0.0087033751834248423 -0.0058931959046331197 -0.022225761910137268 0.00049232348755996475 -0.035263510162984429 -0.016589788550973251 0.012100162989523626 0.0023336394514865966 -0.022882291384645315 -0.016833609637422864 0.021350395529708539 -0.021021772724083732 0.031426666027368648 -0.051253425312598827 -0.0019285888895635595 -0.017033073493598533 0.0023883232526764331 -0.003942012759814012 0.020136239722408907 0.019196733585587947 0.011628854529322274
leaf_weight=30 459 99 391 59 20 131 46 28 47 116 341 68 43 53 49 76 21 22 28 30 21 21 51 21 37 391 33 39 20 49
leaf_count=30 459 99 391 59 20 131 46 28 47 116 341 68 43 53 49 76 21 22 28 30 21 21 51 21 37 391 33 39 20 49
internal_value=0.00056338 -0.000945626 0.00278746 0.00112069 0.000215931 0.00448944 0.00120056 -0.00118833 -0.00212793 -0.000971503 -0.00182927 -0.00639952 -0.00848765 -0.00592105 0.000165198 0.00100772 -0.00484694 -0.000595238 0.000255102 0.00150901 0.00107143 0.0009375 -0.0114496 -0.00823171 0.0014881 0.000700935 -0.000155602 0.000361915 -0.000304878 -0.000833333
internal_weight=2840 1692 1148 580 521 568 177 1662 981 772 656 209 162 152 681 583 98 504 49 555 525 480 119 41 504 428 482 449 410 390
internal_count=2840 1692 1148 580 521 568 177 1662 981 772 656 209 162 152 681 583 98 504 49 555 525 480 119 41 504 428 482 449 410 390
is_linear=0
shrinkage=0.05


Tree=17
num_leaves=31
num_cat=0
split_feature=4 0 5 12 10 12 4 14 23 14 5 1 13 5 22 1 13 22 4 14 0 22 2 4 1 13 8 13 1 13
split_gain=2.88357 2.1589 1.02512 1.3836 1.04119 0.894287 0.869551 0.860649 0.826438 0.823111 1.23627 0.808627 0.759458 0.755004 0.78814 0.692123 0.926016 0.627385 0.600238 0.529267 0.528736 0.516798 0.919775 1.42013 1.52113 1.00434 0.751987 0.695517 0.750497 0.617936
threshold=55500.000000000007 2125.0000000000005 15.500000000000002 41625.000000000007 1.0000000180025095e-35 21500.000000000004 91500.000000000015 17.500000000000004 2.5000000000000004 1.5000000000000002 1.5000000000000002 44.500000000000007 32.500000000000007 30.500000000000004 1.0000000180025095e-35 21.500000000000004 6.5000000000000009 3.5000000000000004 103000.00000000001 46.500000000000007 39500.000000000007 1.5000000000000002 1.5000000000000002 5250.0000000000009 7.5000000000000009 18.500000000000004 9875.0000000000018 5.5000000000000009 10.500000000000002 18.500000000000004
decision_type=2 2 2 2 2 2 2 2 2 2 2 2 2 2 2 2 2 2 2 2 2 2 2 2 2 2 2 2 2 2
left_child=1 -1 3 4 12 -6 7 11 19 10 -10 13 17 14 -4 16 -8 -2 -18 21 -9 -3 25 -24 26 -23 -25 -26 -29 -28
right_child=2 8 6 -5 5 -7 15 20 9 -11 -12 -13 -14 -15 -16 -17 18 -19 -20 -21 -22 22 23 24 27 -27 29 28 -30 -31
leaf_value=0.003582137342548987 0.0012467709687335711 0.00031919885331246347 0.019581845685778202 0.01307366302075132 -0.013734621330397632 -6.5089346452291971e-05 0.020248848852181603 0.012305376340132207 -0.011565408824170611 -0.011801162896051303 0.012702532858286526 0.019907492555456166 -0.026384311125960569 -0.012114987231059507 -0.00047479216812650607 0.014956836923749151 0.010380275990318618 0.029744959633587011 -0.0016782842625956294 0.008565010863867871 -0.0062059475580545035 -0.0014531709986661202 -0.016499639239561142 0.0012863143828491241 0.011656180741024692 0.030110026503221143 -0.013852259102990634 0.0066543060729051589 -0.0066407169627513757 -0.012607152673451825
leaf_weight=30 437 693 55 59 20 23 62 29 38 270 53 42 28 21 49 129 32 20 65 96 69 165 28 25 29 24 61 21 141 26
leaf_count=30 437 693 55 59 20 23 62 29 38 270 53 42 28 21 49 129 32 20 65 96 69 165 28 25 29 24 61 21 141 26
internal_value=0.000510563 -0.000794118 0.00245614 0.00100085 0.000189394 -0.00726744 0.0040009 0.00193396 -0.00103293 -0.00315097 0.000961538 0.00411677 0.000850515 0.0021 0.00384615 0.00590278 0.00369497 0.00134026 0.00064433 -0.000448816 -0.00178571 -0.000731657 -0.00192308 -0.00351208 -0.0025165 0.000859788 -0.00714286 0.000196335 -0.00108025 -0.00933908
internal_weight=2840 1700 1140 587 528 43 553 265 1670 361 91 167 485 125 104 288 159 457 97 1309 98 1213 520 331 303 189 112 191 162 87
internal_count=2840 1700 1140 587 528 43 553 265 1670 361 91 167 485 125 104 288 159 457 97 1309 98 1213 520 331 303 189 112 191 162 87
is_linear=0
shrinkage=0.05


Tree=18
num_leaves=31
num_cat=0
split_feature=1 4 0 1 13 8 16 15 8 16 2 8 5 0 5 0 0 12 10 16 8 8 8 14 16 4 8 16 0 16
split_gain=2.65831 1.33857 1.20938 0.939559 0.855361 0.792296 1.0735 1.31681 0.87081 0.81277 1.13166 0.687623 1.14739 1.37621 1.57104 1.26313 0.993499 0.939063 1.12666 0.850311 0.797737 1.27103 1.14331 0.974887 1.64836 1.86326 1.46302 1.33368 0.838905 0.683191
threshold=11.500000000000002 91500.000000000015 24500.000000000004 44.500000000000007 21.500000000000004 40500.000000000007 20500.000000000004 96.90000000000002 71000.000000000015 41750.000000000007 20.500000000000004 56750.000000000007 10.500000000000002 5125.0000000000009 7.5000000000000009 14500.000000000002 11625.000000000002 41625.000000000007 1.0000000180025095e-35 90500.000000000015 9875.0000000000018 5250.0000000000009 3750.0000000000005 2.5000000000000004 50500.000000000007 40500.000000000007 39750.000000000007 36250.000000000007 18000.000000000004 42750.000000000007
decision_type=2 2 2 2 2 2 2 2 2 2 2 2 2 2 2 2 2 2 2 2 2 2 2 2 2 2 2 2 2 2
left_child=11 2 5 -4 -5 6 -2 -8 -7 -9 -11 12 13 -1 15 16 29 18 -13 -18 21 22 28 -22 26 -26 27 -25 -17 -15
right_child=1 -3 3 4 -6 8 7 9 -10 10 -12 17 -14 14 -16 20 19 -19 -20 -21 23 -23 -24 24 25 -27 -28 -29 -30 -31
leaf_value=0.0034313214973404798 0.015896218332591982 0.011859196380614169 -0.0054704467110510083 0.016251709756062594 -0.00062107813971002193 0.016375135883905042 0.018189173198448833 -0.021774733630877809 -0.0065644803417979174 0.0019875165717833875 -0.011660765977486444 0.0011844324202968937 -0.015624572845337715 -0.022536554901230053 0.0074116857000986556 0.015527308061830886 -0.023281002850433691 0.011538943365198446 -0.0088171486925095778 -0.0059704840894104026 0.0020473053494681676 0.017471246299221713 -0.021666288197014133 -0.010021337311445696 0.003579298013016147 -0.052749957685977969 -0.007604900341999195 -0.033302654567349529 -0.0038200202907967165 0.0061503330615163528
leaf_weight=42 57 346 333 37 28 191 29 34 34 36 22 413 27 115 82 58 115 49 39 46 88 58 23 26 66 21 28 21 324 52
leaf_count=42 57 346 333 37 28 191 29 34 34 36 22 413 27 115 82 58 115 49 39 46 88 58 23 26 66 21 28 21 324 52
internal_value=0.000528169 0.00238666 0.00126404 -0.000690955 0.00480769 0.00319479 0.000702247 -0.00196281 0.00516667 -0.0048913 -0.0012931 -0.000730951 -0.00138423 -0.00114807 -0.00148041 -0.00200528 -0.00457317 0.000823353 0.000110619 -0.00737578 -0.000823983 0.000404968 -0.00058642 -0.0031 -0.00540123 -0.000718391 -0.0108333 -0.0162234 6.5445e-05 -0.00187126
internal_weight=2840 1147 801 398 65 403 178 121 225 92 58 1693 1192 1165 1123 1041 328 501 452 161 713 463 405 250 162 87 75 47 382 167
internal_count=2840 1147 801 398 65 403 178 121 225 92 58 1693 1192 1165 1123 1041 328 501 452 161 713 463 405 250 162 87 75 47 382 167
is_linear=0
shrinkage=0.05


Tree=19
num_leaves=31
num_cat=0
split_feature=8 0 9 5 12 10 23 14 0 4 5 8 14 13 4 12 16 16 4 0 0 4 4 16 16 0 5 8 13 8
split_gain=2.5897 2.15071 0.923581 0.905653 1.39576 0.933838 1.11364 0.760308 1.02589 0.811991 0.748648 0.698599 0.715287 1.70639 1.55411 1.01735 1.00949 1.37057 0.911522 0.866648 0.822169 0.783444 1.05623 0.948205 1.18617 1.10557 1.15942 1.37175 0.764903 0.760926
threshold=55500.000000000007 2125.0000000000005 1000.0000000000001 15.500000000000002 41625.000000000007 1.0000000180025095e-35 2.5000000000000004 10.500000000000002 18000.000000000004 83750.000000000015 26.500000000000004 53750.000000000007 1.5000000000000002 10.500000000000002 49500.000000000007 29500.000000000004 41250.000000000007 13750.000000000002 900.00000000000011 24500.000000000004 14500.000000000002 39750.000000000007 34125.000000000007 123750.00000000001 56500.000000000007 39500.000000000007 1.5000000000000002 3125.0000000000005 3.5000000000000004 15125.000000000002
decision_type=2 2 2 2 2 2 2 2 2 2 2 2 2 2 2 2 2 2 2 2 2 2 2 2 2 2 2 2 2 2
left_child=1 -1 11 4 5 -2 -7 -5 -9 -10 -11 12 18 14 15 16 17 29 -3 -19 -20 22 23 24 25 26 -15 -28 -16 -14
right_child=3 2 -4 7 -6 6 -8 8 9 10 -12 -13 13 21 28 -17 -18 19 20 -21 -22 -23 -24 -25 -26 -27 27 -29 -30 -31
leaf_value=0.0032314644005545139 0.001123213223793615 -0.0054234950375272491 0.01902033976441795 0.0099651364483917936 0.011843032701453832 0.0030207350367187913 -0.011437040439395236 0.031269725152196282 -0.0061757701426836259 0.0017540039179729128 0.012622321116637121 -0.020317715470685446 -0.008024012686460703 0.011986532682499433 -0.018995200044495088 -0.016361476448794543 -0.0038958897501434999 -0.024810603170411397 -0.0046033870241441012 -0.023436752443689746 0.010088031994927478 -0.0077223381906557365 0.012177900326978915 -0.015542008030214455 0.016635389065093709 -0.012390386299373085 -0.018531809368373543 0.00038097239577565144 0.011504404923927299 0.0060607559456658635
leaf_weight=30 495 227 46 259 59 22 22 37 99 107 48 25 47 64 21 37 205 60 81 37 184 211 35 26 103 38 21 99 73 22
leaf_count=30 495 227 46 259 59 22 22 37 99 107 48 25 47 64 21 37 205 60 81 37 184 211 35 26 103 38 21 99 73 22
internal_value=0.000475352 -0.000768322 -0.00100782 0.00230836 0.000961538 0.000162338 -0.00681818 0.00377273 0.0020189 0.000885827 0.00314516 -0.00120668 -0.00107637 -0.00178571 -0.00393426 -0.00526961 -0.00448113 -0.00737952 0.00050813 -0.0112113 0.0025 2.0938e-05 0.0013601 0.000534188 0.00126923 -0.000788288 0.000815217 -0.00208333 0.0018617 -0.00199275
internal_weight=2840 1692 1662 1148 598 539 44 550 291 254 155 1616 1591 1099 502 408 371 166 492 97 265 597 386 351 325 222 184 120 94 69
internal_count=2840 1692 1662 1148 598 539 44 550 291 254 155 1616 1591 1099 502 408 371 166 492 97 265 597 386 351 325 222 184 120 94 69
is_linear=0
shrinkage=0.05


Tree=20
num_leaves=31
num_cat=0
split_feature=4 0 22 1 16 1 20 3 4 19 3 0 4 3 4 7 7 1 16 4 0 5 4 19 6 2 2 13 0 16
split_gain=2.56685 2.67454 1.48579 1.26479 1.40289 0.984495 0.893127 0.839456 0.967426 1.38331 0.905417 0.743675 0.727968 1.71619 2.22639 2.07546 1.65047 1.19946 1.20042 1.01722 0.870643 1.49482 0.997377 0.81087 1.01308 0.765661 1.22858 1.61987 0.723532 0.713284
threshold=88500.000000000015 2125.0000000000005 1.0000000180025095e-35 5.5000000000000009 63000.000000000007 15.500000000000002 10.184759729570052 94.350000000000009 39750.000000000007 9.4327634075968074 96.550000000000026 39500.000000000007 30750.000000000004 56.800000000000004 4625.0000000000009 97.850000000000009 87.100000000000009 6.5000000000000009 58250.000000000007 38125.000000000007 170000.00000000003 3.5000000000000004 27250.000000000004 10.84930937375263 4.5000000000000009 13.500000000000002 17.500000000000004 9.5000000000000018 92500.000000000015 45500.000000000007
decision_type=2 2 2 2 2 2 2 2 2 2 2 2 2 2 2 2 2 2 2 2 2 2 2 2 2 2 2 2 2 2
left_child=1 -1 3 -3 7 28 -6 29 9 -9 -10 -12 13 -4 -15 16 -16 18 -14 -19 21 -17 -23 -20 -25 -21 27 -27 -2 -5
right_child=5 2 12 4 6 -7 -8 8 10 -11 11 -13 17 14 15 20 -18 19 23 25 -22 22 -24 24 -26 26 -28 -29 -30 -31
leaf_value=0.0030981822024457304 0.00106905013809237 -0.0042093481222815312 -0.00093581819015063909 -0.013057010933140455 0.012321208441339909 0.011480821882977076 -0.0016001709573589757 -0.0039190133996071718 0.021220116481653718 0.027300905859589043 0.010245592160048674 -0.0079208590744299524 -0.01510752129951096 -0.021157533457874959 -0.0084865124004928818 -0.043209632646861611 -0.030173807852303555 0.015106156145091337 -0.015256747074864541 0.0051784634547900141 0.0096343358445612932 0.0028963888825509934 -0.019892491797473311 0.017746170604684888 -0.0027962264456314655 0.00063646395133489799 -0.00035450955460126224 -0.08680132988429079 0.013378700904235772 0.003136487723078495
leaf_weight=38 317 537 207 71 179 285 34 31 25 49 68 90 70 32 30 49 22 42 27 98 38 71 20 34 22 23 229 20 46 38
leaf_count=38 317 537 207 71 179 285 34 31 25 49 68 90 70 32 30 49 22 42 27 98 38 71 20 34 22 23 229 20 46 38
internal_value=0.000167136 -0.000649499 -0.000881262 0.000378788 0.00198718 0.0029321 0.005223 0.000134409 0.0016635 0.00625 -0.00034153 -0.00174051 -0.00224855 -0.00370469 -0.00639313 -0.00467391 -0.0134615 -0.00103982 -0.00482026 0.000364078 -0.00210674 -0.00392857 -0.000137363 -0.000753012 0.00267857 -0.000472973 -0.00183824 -0.00959302 0.00120523 -0.00355505
internal_weight=2842 2194 2156 1122 585 648 213 372 263 80 183 158 1034 469 262 230 52 565 153 412 178 140 91 83 56 370 272 43 363 109
internal_count=2842 2194 2156 1122 585 648 213 372 263 80 183 158 1034 469 262 230 52 565 153 412 178 140 91 83 56 370 272 43 363 109
is_linear=0
shrinkage=0.05


Tree=21
num_leaves=31
num_cat=0
split_feature=2 0 18 12 8 7 7 15 22 8 0 18 3 6 13 8 2 16 22 13 0 12 22 16 18 16 13 22 16 22
split_gain=2.34288 2.86714 1.5486 1.26863 1.08181 1.12515 1.18393 1.51761 1.00428 0.963921 0.951525 1.03059 2.06593 0.946679 0.904728 0.900159 0.85102 1.64027 1.03547 1.01185 0.817869 1.16406 0.800499 0.927245 1.18718 1.0947 0.821007 0.78084 0.744048 0.739883
threshold=8.5000000000000018 5125.0000000000009 9.555733196645571 152500.00000000003 114250.00000000001 94.500000000000014 93.550000000000011 91.100000000000009 1.0000000180025095e-35 337500.00000000006 14500.000000000002 9.6957913816908405 84.500000000000014 4.5000000000000009 2.5000000000000004 149750.00000000003 15.500000000000002 54500.000000000007 1.5000000000000002 11.500000000000002 39500.000000000007 26500.000000000004 3.5000000000000004 34750.000000000007 11.390625476092662 20500.000000000004 20.500000000000004 1.5000000000000002 30500.000000000004 1.0000000180025095e-35
decision_type=2 2 2 2 2 2 2 2 2 2 2 2 2 2 2 2 2 2 2 2 2 2 2 2 2 2 2 2 2 2
left_child=1 -1 29 4 5 6 7 -4 20 -6 11 12 -3 15 -9 -12 18 19 -16 -18 -7 -22 23 25 -25 -10 -24 -13 -14 -2
right_child=2 10 3 -5 9 8 -8 14 22 -11 13 27 28 -15 16 -17 17 -19 -20 -21 21 -23 26 24 -26 -27 -28 -29 -30 -31
leaf_value=0.0030025558584489661 0.010862841548467519 -0.0052028571666327995 -0.010270581450317465 0.025621891478000914 0.016933999837409393 0.018180369142392433 -0.012005632643982748 0.015822891808327733 -0.00090133553029072286 -0.0038693181850466387 -0.0007738552107974723 0.0055156297877240329 -0.038370576103168831 -0.00288687078958141 0.015123824739159332 0.0096850377729940929 -0.025194250398906118 0.0096358186710211961 -0.011097427392382965 -1.2148190827870886e-05 0.0061984814675517252 -0.0044485201201599532 0.03266111635763351 -0.0009595441438725095 0.016162599543141965 -0.033255747469284058 -0.0004707409717511324 -0.0079794794784524177 -0.037827385736072278 -0.016991197190172339
leaf_weight=37 24 88 38 28 218 160 87 28 66 27 683 120 30 244 28 71 20 48 25 21 213 34 32 197 40 22 21 121 40 31
leaf_count=37 24 88 38 28 218 160 87 28 66 27 683 120 30 244 28 71 20 48 25 21 213 34 32 197 40 22 21 121 40 31
internal_value=0.000184729 -0.0012378 0.00163352 0.00196785 0.00174528 0.00106481 -0.0015678 0.000480769 0.00205414 0.0047449 -0.00160165 -0.00366541 -0.0068038 -0.000776553 0.0025 9.94695e-05 0.000880282 -0.00210674 0.00589623 -0.00945122 0.00377764 0.00197368 0.000198413 -0.000730769 0.000896624 -0.00511364 0.00589623 -0.00160788 -0.0132143 -0.00659091
internal_weight=2842 1434 1408 1353 1325 1080 295 208 785 245 1397 399 158 998 170 754 142 89 53 41 407 247 378 325 237 88 53 241 70 55
internal_count=2842 1434 1408 1353 1325 1080 295 208 785 245 1397 399 158 998 170 754 142 89 53 41 407 247 378 325 237 88 53 241 70 55
is_linear=0
shrinkage=0.05


Tree=22
num_leaves=31
num_cat=0
split_feature=1 0 22 4 6 5 22 4 6 5 6 4 0 16 1 16 1 14 14 16 22 22 3 3 1 5 2 16 2 3
split_gain=2.12951 2.78882 1.06805 1.57798 1.00395 1.03305 0.974188 0.923143 0.892918 0.983542 0.829141 1.11381 1.13773 1.76923 1.73807 0.973545 0.97007 0.857843 1.24775 0.881037 1.09605 0.870121 0.754381 1.08844 0.732997 0.712292 0.9751 1.06643 0.792604 1.16334
threshold=7.5000000000000009 5125.0000000000009 1.0000000180025095e-35 30750.000000000004 20.500000000000004 12.500000000000002 3.5000000000000004 149750.00000000003 33.500000000000007 20.500000000000004 1.0000000180025095e-35 16250.000000000002 39500.000000000007 39500.000000000007 3.5000000000000004 51250.000000000007 2.5000000000000004 2.5000000000000004 3.5000000000000004 11250.000000000002 1.5000000000000002 1.0000000180025095e-35 94.350000000000009 99.15000000000002 34.500000000000007 10.500000000000002 8.5000000000000018 14250.000000000002 11.500000000000002 94.65000000000002
decision_type=2 2 2 2 2 2 2 2 2 2 2 2 2 2 2 2 2 2 2 2 2 2 2 2 2 2 2 2 2 2
left_child=1 -1 8 4 5 -4 24 10 9 25 -3 12 13 -12 16 -15 -14 19 -19 20 -13 -21 -10 -24 -5 26 -2 -28 -27 -30
right_child=2 7 3 6 -6 -7 -8 -9 22 -11 11 17 14 15 -16 -17 -18 18 -20 21 -22 -23 23 -25 -26 28 27 -29 29 -31
leaf_value=0.0028524280655265188 -0.0025973981351874453 -0.00084159376618622164 -0.012009317202249787 -0.00052316426523109914 -0.026476669891545568 0.013100028633968093 0.023128610355309873 0.0059167640618495807 -0.013110836881218347 0.012746103393921944 -0.042114776399439328 0.011441684946686601 -0.011196241781292941 0.012790241308744107 0.016470555115171377 -0.035947991274478779 -0.009840442789865414 -0.021836131068093151 -0.0042203229148611273 0.0002320765740665136 -0.0078692920277625509 0.021362987870970379 0.013914694175650217 -0.0021313387463928026 0.0076714382185353452 -0.012167325265065846 0.0011812583980027706 0.018168488646100236 -0.0062840851000592265 0.011364659281397446
leaf_weight=36 29 444 37 444 31 27 57 96 20 94 48 66 78 27 27 42 22 27 352 36 51 35 56 49 83 36 34 112 106 240
leaf_count=36 29 444 37 444 31 27 57 96 20 94 48 66 78 27 27 42 22 27 352 36 51 35 56 49 83 36 34 112 106 240
internal_value=0.000167136 -0.00123468 0.00150344 5.52283e-05 -0.00592105 -0.00234375 0.0010274 -0.00160067 0.00277062 0.00351382 -0.00196215 -0.00291307 -0.0057377 -0.00929487 -0.00246063 -0.00416667 -0.0055 -0.00169753 -0.00306728 0.00106383 -0.00160256 0.00545775 -0.0011 0.000595238 0.000355787 0.00271544 0.00535714 0.00702055 0.00150524 0.00223988
internal_weight=2842 1387 1455 679 95 64 584 1351 776 651 1255 811 244 117 127 69 100 567 379 188 117 71 125 105 527 557 175 146 382 346
internal_count=2842 1387 1455 679 95 64 584 1351 776 651 1255 811 244 117 127 69 100 567 379 188 117 71 125 105 527 557 175 146 382 346
is_linear=0
shrinkage=0.05


end of trees

feature_importances:
vendor_median_price_36m=79
sire_median_price_36m=75
session_median_price=73
vendor_sold_count_36m=65
sire_sold_count_36m=58
sire_median_price_12m=45
sire_sold_count_12m=40
sire_total_offered_36m=33
sex_encoded=33
log_vendor_median_price_36m=29
sire_clearance_rate_36m=26
vendor_clearance_rate_36m=22
vendor_total_offered_36m=21
sire_total_offered_12m=20
dam_progeny_median_price=19
log_sire_median_price_36m=11
sire_clearance_rate_12m=8
log_session_median_price=8
log_dam_progeny_median_price=7
dam_progeny_sold_count=5
vendor_volume_bucket_encoded=5
dam_progeny_total_offered_count=3
log_sire_median_price_12m=3
sire_momentum=2

parameters:
[boosting: gbdt]
[objective: quantile]
[metric: quantile]
[tree_learner: serial]
[device_type: cpu]
[data_sample_strategy: bagging]
[data: ]
[valid: ]
[num_iterations: 500]
[learning_rate: 0.05]
[num_leaves: 31]
[num_threads: 0]
[seed: 0]
[deterministic: 0]
[force_col_wise: 0]
[force_row_wise: 0]
[histogram_pool_size: -1]
[max_depth: -1]
[min_data_in_leaf: 20]
[min_sum_hessian_in_leaf: 0.001]
[bagging_fraction: 0.8]
[pos_bagging_fraction: 1]
[neg_bagging_fraction: 1]
[bagging_freq: 5]
[bagging_seed: 3]
[bagging_by_query: 0]
[feature_fraction: 0.8]
[feature_fraction_bynode: 1]
[feature_fraction_seed: 2]
[extra_trees: 0]
[extra_seed: 6]
[early_stopping_round: 50]
[early_stopping_min_delta: 0]
[first_metric_only: 0]
[max_delta_step: 0]
[lambda_l1: 0]
[lambda_l2: 0]
[linear_lambda: 0]
[min_gain_to_split: 0]
[drop_rate: 0.1]
[max_drop: 50]
[skip_drop: 0.5]
[xgboost_dart_mode: 0]
[uniform_drop: 0]
[drop_seed: 4]
[top_rate: 0.2]
[other_rate: 0.1]
[min_data_per_group: 100]
[max_cat_threshold: 32]
[cat_l2: 10]
[cat_smooth: 10]
[max_cat_to_onehot: 4]
[top_k: 20]
[monotone_constraints: ]
[monotone_constraints_method: basic]
[monotone_penalty: 0]
[feature_contri: ]
[forcedsplits_filename: ]
[refit_decay_rate: 0.9]
[cegb_tradeoff: 1]
[cegb_penalty_split: 0]
[cegb_penalty_feature_lazy: ]
[cegb_penalty_feature_coupled: ]
[path_smooth: 0]
[interaction_constraints: ]
[verbosity: -1]
[saved_feature_importance_type: 0]
[use_quantized_grad: 0]
[num_grad_quant_bins: 4]
[quant_train_renew_leaf: 0]
[stochastic_rounding: 1]
[linear_tree: 0]
[max_bin: 255]
[max_bin_by_feature: ]
[min_data_in_bin: 3]
[bin_construct_sample_cnt: 200000]
[data_random_seed: 1]
[is_enable_sparse: 1]
[enable_bundle: 1]
[use_missing: 1]
[zero_as_missing: 0]
[feature_pre_filter: 1]
[pre_partition: 0]
[two_round: 0]
[header: 0]
[label_column: ]
[weight_column: ]
[group_column: ]
[ignore_column: ]
[categorical_feature: ]
[forcedbins_filename: ]
[precise_float_parser: 0]
[parser_config_file: ]
[objective_seed: 5]
[num_class: 1]
[is_unbalance: 0]
[scale_pos_weight: 1]
[sigmoid: 1]
[boost_from_average: 1]
[reg_sqrt: 0]
[alpha: 0.25]
[fair_c: 1]
[poisson_max_delta_step: 0.7]
[tweedie_variance_power: 1.5]
[lambdarank_truncation_level: 30]
[lambdarank_norm: 1]
[label_gain: ]
[lambdarank_position_bias_regularization: 0]
[eval_at: ]
[multi_error_top_k: 1]
[auc_mu_weights: ]
[num_machines: 1]
[local_listen_port: 12400]
[time_out: 120]
[machine_list_filename: ]
[machines: ]
[gpu_platform_id: -1]
[gpu_device_id: -1]
[gpu_use_dp: 0]
[num_gpu: 1]

end of parameters

pandas_categorical:[]
